tree
version=v4
num_class=1
num_tree_per_iteration=1
label_index=0
max_feature_idx=157
objective=regression
feature_names=KMID KLEN KMID2 KUP KUP2 KLOW KLOW2 KSFT KSFT2 OPEN0 HIGH0 LOW0 VWAP0 ROC5 ROC10 ROC20 ROC30 ROC60 MA5 MA10 MA20 MA30 MA60 STD5 STD10 STD20 STD30 STD60 BETA5 BETA10 BETA20 BETA30 BETA60 RSQR5 RSQR10 RSQR20 RSQR30 RSQR60 RESI5 RESI10 RESI20 RESI30 RESI60 MAX5 MAX10 MAX20 MAX30 MAX60 MIN5 MIN10 MIN20 MIN30 MIN60 QTLU5 QTLU10 QTLU20 QTLU30 QTLU60 QTLD5 QTLD10 QTLD20 QTLD30 QTLD60 RANK5 RANK10 RANK20 RANK30 RANK60 RSV5 RSV10 RSV20 RSV30 RSV60 IMAX5 IMAX10 IMAX20 IMAX30 IMAX60 IMIN5 IMIN10 IMIN20 IMIN30 IMIN60 IMXD5 IMXD10 IMXD20 IMXD30 IMXD60 CORR5 CORR10 CORR20 CORR30 CORR60 CORD5 CORD10 CORD20 CORD30 CORD60 CNTP5 CNTP10 CNTP20 CNTP30 CNTP60 CNTN5 CNTN10 CNTN20 CNTN30 CNTN60 CNTD5 CNTD10 CNTD20 CNTD30 CNTD60 SUMP5 SUMP10 SUMP20 SUMP30 SUMP60 SUMN5 SUMN10 SUMN20 SUMN30 SUMN60 SUMD5 SUMD10 SUMD20 SUMD30 SUMD60 VMA5 VMA10 VMA20 VMA30 VMA60 VSTD5 VSTD10 VSTD20 VSTD30 VSTD60 WVMA5 WVMA10 WVMA20 WVMA30 WVMA60 VSUMP5 VSUMP10 VSUMP20 VSUMP30 VSUMP60 VSUMN5 VSUMN10 VSUMN20 VSUMN30 VSUMN60 VSUMD5 VSUMD10 VSUMD20 VSUMD30 VSUMD60
feature_infos=[0.0001850481125092524:1] [0.00076161462300076163:1] [0.00019569471624266145:0.99979244499792441] [0.013415372200927981:1] [0.013415372200927981:1] [0.011482449589245707:1] [0.011482449589245707:1] [0.00018470631695603989:1] [0.00055897149245388487:0.9978115881617341] [0.00018446781036709093:1] [0.00018446781036709093:1] [0.00018446781036709093:0.99797680064742378] [0.00018446781036709093:1] [0.00018433179723502304:1] [0.00018433179723502304:1] [0.00018484288354898336:1] [0.00018450184501845018:1] [0.00018443378827001107:1] [0.00018501387604070305:1] [0.0001859427296392711:1] [0.00027891409445890663:1] [0.00037188545927854219:1] [0.0011139992573338284:1] [0.004048582995951417:1] [0.0039104638619201727:1] [0.0044510385756676559:1] [0.0051199137698733493:1] [0.0072444325194526427:1] [0.50009214891264286:0.50013568521031204] [0.50009214891264286:0.50013568521031204] [0.50009214891264286:0.50013568521031204] [0.50009214891264286:0.50013568521031204] [0.50009214891264286:0.50013568521031204] [0.50009214891264286:0.50013568521031204] [0.50009214891264286:0.50013568521031204] [0.50009214891264286:0.50013568521031204] [0.50009214891264286:0.50013568521031204] [0.50009214891264286:0.50013568521031204] [0.50009214891264286:0.50013568521031204] [0.50009214891264286:0.50013568521031204] [0.50009214891264286:0.50013568521031204] [0.50009214891264286:0.50013568521031204] [0.50009214891264286:0.50013568521031204] [0.00018501387604070305:1] [0.0001859427296392711:1] [0.00027891409445890663:1] [0.00037188545927854219:1] [0.0011139992573338284:1] [0.00018501387604070305:0.99932487172562789] [0.0001859427296392711:0.9993333333333333] [0.00027891409445890663:0.99946666666666661] [0.00037188545927854219:0.99946666666666661] [0.0011139992573338284:0.99946666666666661] [0.50009214891264286:0.50013568521031204] [0.50009214891264286:0.50013568521031204] [0.50009214891264286:0.50013568521031204] [0.50009214891264286:0.50013568521031204] [0.50009214891264286:0.50013568521031204] [0.50009214891264286:0.50013568521031204] [0.50009214891264286:0.50013568521031204] [0.50009214891264286:0.50013568521031204] [0.50009214891264286:0.50013568521031204] [0.50009214891264286:0.50013568521031204] [0.50009214891264286:0.50013568521031204] [0.50009214891264286:0.50013568521031204] [0.50009214891264286:0.50013568521031204] [0.50009214891264286:0.50013568521031204] [0.50009214891264286:0.50013568521031204] [0.0012152308938698352:1] [0.0012139196115457244:1] [0.0017534394388993796:1] [0.0025333333333333332:1] [0.0049677765843179379:1] [0.50009214891264286:0.50013568521031204] [0.50009214891264286:0.50013568521031204] [0.50009214891264286:0.50013568521031204] [0.50009214891264286:0.50013568521031204] [0.50009214891264286:0.50013568521031204] [0.50009214891264286:0.50013568521031204] [0.50009214891264286:0.50013568521031204] [0.50009214891264286:0.50013568521031204] [0.50009214891264286:0.50013568521031204] [0.50009214891264286:0.50013568521031204] [0.50009214891264286:0.50013568521031204] [0.50009214891264286:0.50013568521031204] [0.50009214891264286:0.50013568521031204] [0.50009214891264286:0.50013568521031204] [0.50009214891264286:0.50013568521031204] [0.50009214891264286:0.50013568521031204] [0.50009214891264286:0.50013568521031204] [0.50009214891264286:0.50013568521031204] [0.50009214891264286:0.50013568521031204] [0.50009214891264286:0.50013568521031204] [0.50009214891264286:0.50013568521031204] [0.50009214891264286:0.50013568521031204] [0.50009214891264286:0.50013568521031204] [0.50009214891264286:0.50013568521031204] [0.50009214891264286:0.50013568521031204] [0.50009214891264286:0.50013568521031204] [0.50009214891264286:0.50013568521031204] [0.50009214891264286:0.50013568521031204] [0.50009214891264286:0.50013568521031204] [0.50009214891264286:0.50013568521031204] [0.50009214891264286:0.50013568521031204] [0.50009214891264286:0.50013568521031204] [0.50009214891264286:0.50013568521031204] [0.50009214891264286:0.50013568521031204] [0.50009214891264286:0.50013568521031204] [0.50009214891264286:0.50013568521031204] [0.50009214891264286:0.50013568521031204] [0.50009214891264286:0.50013568521031204] [0.50009214891264286:0.50013568521031204] [0.50009214891264286:0.50013568521031204] [0.50009214891264286:0.50013568521031204] [0.50009214891264286:0.50013568521031204] [0.50009214891264286:0.50013568521031204] [0.50009214891264286:0.50013568521031204] [0.50009214891264286:0.50013568521031204] [0.50009214891264286:0.50013568521031204] [0.50009214891264286:0.50013568521031204] [0.50009214891264286:0.50013568521031204] [0.50009214891264286:0.50013568521031204] [0.50009214891264286:0.50013568521031204] [0.50009214891264286:0.50013568521031204] [0.50009214891264286:0.50013568521031204] [0.50009214891264286:0.50013568521031204] [0.50009214891264286:0.50013568521031204] [0.50009214891264286:0.50013568521031204] [0.0040453074433656954:1] [0.0039104638619201727:1] [0.0044510385756676559:1] [0.0051199137698733493:1] [0.0072444325194526427:1] [0.0040453074433656954:1] [0.0039104638619201727:1] [0.0044510385756676559:1] [0.0051199137698733493:1] [0.0072444325194526427:1] [0.50009214891264286:0.50013568521031204] [0.50009214891264286:0.50013568521031204] [0.50009214891264286:0.50013568521031204] [0.50009214891264286:0.50013568521031204] [0.50009214891264286:0.50013568521031204] [0.50009214891264286:0.50013568521031204] [0.50009214891264286:0.50013568521031204] [0.50009214891264286:0.50013568521031204] [0.50009214891264286:0.50013568521031204] [0.50009214891264286:0.50013568521031204] [0.50009214891264286:0.50013568521031204] [0.50009214891264286:0.50013568521031204] [0.50009214891264286:0.50013568521031204] [0.50009214891264286:0.50013568521031204] [0.50009214891264286:0.50013568521031204] [0.50009214891264286:0.50013568521031204] [0.50009214891264286:0.50013568521031204] [0.50009214891264286:0.50013568521031204] [0.50009214891264286:0.50013568521031204] [0.50009214891264286:0.50013568521031204]
tree_sizes=8954 9507 9618 9482 9496 9530 9607 9554 9555 9540 9542 9616 9529 9531 9479 9633 9570 9522 9569 9572 9584 9518 9537 9498 9530 9543 9578 9572 9521 9656 9525 9626 9618 9608 9496 9555 9615 9534 9594

Tree=0
num_leaves=95
num_cat=0
split_feature=51 132 1 18 19 1 133 1 43 1 12 1 1 28 22 135 132 19 19 20 1 52 22 1 28 44 45 17 134 1 28 18 48 52 19 132 28 44 28 27 12 47 28 129 28 28 28 19 43 27 17 10 52 28 16 19 43 137 28 28 23 130 19 15 20 19 15 16 20 22 28 28 15 135 28 20 28 28 22 134 130 20 137 25 48 17 128 7 19 23 16 48 22 52
split_gain=1452.52 388.574 350.112 250.105 126.321 121.111 119.441 105.75 96.8285 97.9838 88.5507 219.194 130.344 65.1785 63.6564 73.5969 84.4281 74.1085 62.5255 60.9231 59.6904 55.2765 57.2006 44.6298 43.7735 51.8879 40.9005 40.1289 70.4616 39.6225 35.9327 35.5137 34.7558 33.1762 29.5242 32.4182 27.693 31.6222 38.8815 27.3877 27.275 26.9127 26.3898 25.3296 25.3237 120.978 83.1982 109.98 39.1834 33.8924 24.7308 23.372 22.9737 22.5115 21.917 24.2425 21.5175 21.3818 20.489 20.0608 61.2083 51.6134 34.832 51.955 19.412 19.0058 21.1819 21.2689 20.6001 30.8258 18.8101 30.0321 18.5854 18.3735 35.7457 18.0578 18.0204 23.9371 29.4957 17.9376 17.723 17.5654 17.157 17.0513 16.9832 16.8577 16.8031 16.7824 16.5183 16.024 15.4609 15.1913 15.6383 14.694
threshold=0.19621116032264799 0.10229489302713536 0.5317741380927079 0.99209634898620147 0.15362592758981611 0.011394656401847182 0.020001843657817115 0.81166249331573237 0.7725772732961832 0.011394656401847182 0.0040676768053807535 0.5317741380927079 0.0071171774837567097 0.50011909015293365 0.16733929625042479 0.015539221458380234 0.018549571315198087 0.26191620098020957 0.37697723120909604 0.050926173512005478 0.85837827450817472 0.50013511687856471 0.15126637627429998 0.91728730016063653 0.50013504389172692 0.34507214101148925 0.59883413310010092 0.26980146390077819 0.013286095046552546 0.85466622380808865 0.50009222539965936 0.56893581499536838 0.12606806849576466 0.17875429230486944 0.5211534827048746 0.021219539152037448 0.50009320533215484 0.28212005394439466 0.50009324879100914 0.09844703139624579 0.15291904644886281 0.065117651634037779 0.50009637625647219 0.016792810855322044 0.50009324879100914 0.50009346667994559 0.50009320533215484 0.65919155692650377 0.45958810805293521 0.57813400190565978 0.40827722401185873 0.99227422792374165 0.07266825082408486 0.50009470593891192 0.28481771997650102 0.58057726786049246 0.91009038492589178 0.980094820806651 0.5000937294974962 0.50009222539965936 0.17446859360369821 0.021437812596912732 0.64333714274920206 0.71172300352323392 0.11113939911493941 0.30118568839215337 0.40343154413876586 0.2493031496294727 0.67914074760599441 0.58665846362501994 0.50013511687856471 0.50013504389172692 0.43144934345652169 0.010719494205953943 0.50010567474379219 0.59201651679994749 0.50013406623112677 0.5001092538083064 0.2038207384135938 0.55018840792346635 0.016011691480032317 0.34719585019440774 0.93623688282514106 0.66524782489291356 0.29158129962942853 0.44426461126400391 0.020875169380901292 0.5920147192456755 0.047079826912572016 0.1946630623281331 0.15671657503156725 0.40987505886476111 0.61840012729921379 0.35389015279252806
decision_type=2 2 2 2 2 2 2 2 2 2 2 2 2 2 2 2 2 2 2 2 2 2 2 2 2 2 2 2 2 2 2 2 2 2 2 2 2 2 2 2 2 2 2 2 2 2 2 2 2 2 2 2 2 2 2 2 2 2 2 2 2 2 2 2 2 2 2 2 2 2 2 2 2 2 2 2 2 2 2 2 2 2 2 2 2 2 2 2 2 2 2 2 2 2
left_child=1 10 3 8 29 -5 14 41 21 57 11 -1 13 -12 18 27 17 50 90 23 33 24 36 -14 93 89 30 28 73 -4 39 53 76 -8 35 -33 -23 38 -38 87 -32 82 -25 65 46 48 -35 -48 -46 -49 -17 -44 -43 54 -18 -56 84 -10 85 60 -22 62 -61 -64 -13 66 67 -29 75 -70 71 -63 -30 -16 -75 -67 77 78 -9 -42 -55 -11 -3 -50 -47 -19 -36 -24 -31 -26 -6 92 -54 -2
right_child=2 7 4 5 6 -7 20 32 9 81 12 64 19 -15 15 16 31 58 -20 -21 59 22 26 42 25 -27 -28 43 72 88 40 34 -34 44 86 -37 37 -39 -40 -41 79 52 51 -45 45 56 47 49 83 -51 -52 -53 91 80 55 -57 -58 -59 -60 61 -62 70 63 -65 -66 68 -68 -69 69 -71 -72 -73 -74 74 -76 -77 -78 -79 -80 -81 -82 -83 -84 -85 -86 -87 -88 -89 -90 -91 -92 -93 -94 -95
leaf_value=0.4901603816755184 0.50020836038339089 0.5001950763539188 0.49982648092017889 0.49392587709002239 0.50232786663236695 0.49941497613772251 0.49978775027122146 0.49888155481668306 0.49860962823609645 0.4996912475591318 0.50006908444028964 0.49784041641653032 0.49902612271304581 0.50501549018901637 0.49901456418343604 0.49823474502484483 0.50001395996517806 0.50371474487353285 0.49486023810561131 0.49919578444512119 0.50518138707603599 0.49995856466565702 0.50404748652366604 0.49786252566271266 0.49622337324845506 0.50036540559092613 0.50036931135637086 0.49717638215827947 0.49823083396979329 0.49866394299076972 0.50019786131742616 0.49516707034726554 0.49962180417168539 0.50025480494435992 0.50120322170008658 0.50071028315467259 0.49513085854239336 0.50125472556883988 0.49949082158308583 0.50101896398426726 0.50064473325093772 0.49950150057830539 0.49872378459624334 0.50349478397509251 0.50025834317623541 0.50002144648422742 0.50034797024540789 0.50158635092223169 0.49904304823392653 0.50546499435654779 0.50220017259594674 0.49753876568894112 0.49973724875780429 0.50352155810647004 0.50318511019939605 0.50013694636994266 0.49987937624024953 0.49472609102387705 0.5011081989391426 0.49569278207134848 0.49942535897307289 0.49980650584915925 0.49589833423996932 0.50233767481968117 0.50014103112275121 0.50073756543658321 0.49767189669867867 0.50095569602609646 0.49842186502493396 0.50076868659267459 0.49877095123460247 0.50247667611505076 0.49470364267199551 0.50365872410697243 0.49897887260572527 0.50198274781828212 0.49827760529184484 0.49959147372874041 0.49963282671181625 0.5004873690922188 0.50021962183812074 0.50016624759053818 0.50174357213531562 0.49796436759605611 0.50022864421076429 0.50607298083761032 0.49935091899443917 0.50153322807757927 0.49940992997114919 0.49862438879408788 0.4984628053455939 0.50003309123530904 0.50034723838295947 0.50038947775904197
leaf_weight=1545 305972 52610 143604 3471 916 3011 110649 78691 919 34480 2247 8973 62259 2008 1925 1427 1503 6577 1398 131684 1095 4800 2224 31669 2292 4918 588792 717 1130 13983 79326 950 160399 204178 5167 744 2032 814 1389 14777 717668 78215 53909 1208 6281 208109 6436 1264 11477 3323 1116 7658 235269 736 6009 1279 107845 1573 1004 2055 2235 225739 915 1093 1733 23932 1763 3382 3501 6179 6967 1691 1340 1464 1163 5818 7913 56429 28612 488199 5438 320885 3025 12254 659114 1548 3137 2109 81403 2246 743 153617 18061 433865
leaf_count=1545 305972 52610 143604 3471 916 3011 110649 78691 919 34480 2247 8973 62259 2008 1925 1427 1503 6577 1398 131684 1095 4800 2224 31669 2292 4918 588792 717 1130 13983 79326 950 160399 204178 5167 744 2032 814 1389 14777 717668 78215 53909 1208 6281 208109 6436 1264 11477 3323 1116 7658 235269 736 6009 1279 107845 1573 1004 2055 2235 225739 915 1093 1733 23932 1763 3382 3501 6179 6967 1691 1340 1464 1163 5818 7913 56429 28612 488199 5438 320885 3025 12254 659114 1548 3137 2109 81403 2246 743 153617 18061 433865
internal_value=0.500108 0.499476 0.500259 0.500393 0.500046 0.49647 0.500108 0.499691 0.500401 0.500092 0.49886 0.497194 0.49893 0.502402 0.500804 0.5009 0.501591 0.502995 0.497969 0.498879 0.500067 0.500443 0.5005 0.49861 0.500297 0.498946 0.500508 0.500427 0.499019 0.499616 0.50057 0.500933 0.49941 0.500119 0.500012 0.497608 0.498914 0.497735 0.496892 0.501432 0.500557 0.499863 0.498333 0.50064 0.500149 0.500107 0.500346 0.502039 0.498857 0.504403 0.499984 0.498576 0.499816 0.501549 0.5022 0.502653 0.500146 0.496144 0.503836 0.499778 0.501317 0.499756 0.497522 0.49941 0.498215 0.500563 0.499502 0.500287 0.500721 0.499922 0.499795 0.499826 0.496302 0.500491 0.501581 0.500982 0.499212 0.499257 0.499082 0.500581 0.500619 0.50012 0.50028 0.498485 0.500179 0.50417 0.500501 0.502831 0.4993 0.497404 0.500585 0.499876 0.499781 0.500315
internal_weight=6.09721e+06 1.17653e+06 4.92069e+06 3.01576e+06 1.90492e+06 6482 1.66593e+06 872841 3.00928e+06 357857 303685 12251 291434 4255 93214 90157 36635 11672 3057 287179 1.57272e+06 2.65142e+06 1.90213e+06 155495 749293 9456 1.8931e+06 53522 7022 238990 1.3043e+06 24963 332044 1.33093e+06 9998 1694 9035 4235 3421 19110 1.28519e+06 540797 93236 46500 1.22028e+06 1.00508e+06 215201 11023 30012 4587 2543 61567 485162 14965 8791 7288 975068 2492 9129 241790 3330 238460 4063 2008 10706 45292 5862 4099 39430 9680 234397 227430 2470 4552 2627 29750 171645 163732 107303 1.20587e+06 6174 355365 55635 23731 867223 8125 8304 4333 95386 4538 1659 406947 253330 739837
internal_count=6097212 1176526 4920686 3015762 1904924 6482 1665934 872841 3009280 357857 303685 12251 291434 4255 93214 90157 36635 11672 3057 287179 1572720 2651423 1902130 155495 749293 9456 1893095 53522 7022 238990 1304303 24963 332044 1330930 9998 1694 9035 4235 3421 19110 1285193 540797 93236 46500 1220281 1005080 215201 11023 30012 4587 2543 61567 485162 14965 8791 7288 975068 2492 9129 241790 3330 238460 4063 2008 10706 45292 5862 4099 39430 9680 234397 227430 2470 4552 2627 29750 171645 163732 107303 1205867 6174 355365 55635 23731 867223 8125 8304 4333 95386 4538 1659 406947 253330 739837
is_linear=0
shrinkage=1


Tree=1
num_leaves=95
num_cat=0
split_feature=21 1 1 11 18 135 1 1 135 43 1 22 132 1 134 52 52 21 29 19 52 13 17 29 45 17 134 29 15 20 29 13 16 45 29 1 22 19 132 43 136 48 27 29 7 72 29 29 29 19 27 25 43 29 29 29 44 23 71 17 22 136 22 20 20 13 29 13 135 29 52 29 29 19 29 132 29 18 22 128 29 13 7 1 16 23 13 132 132 17 29 29 17 128
split_gain=1437.86 416.725 349.667 338.134 246.567 151.223 137.427 123.29 105.645 96.6391 93.5757 84.6746 81.9553 64.4207 74.4443 61.9632 55.5965 51.4867 51.1434 65.7109 49.3367 49.3191 48.4211 45.2879 46.5171 42.9729 76.3895 41.9234 43.1539 39.5806 38.8463 36.4639 34.3692 33.8074 33.2595 29.824 29.4275 28.8475 28.5129 27.705 27.577 26.9403 26.0733 25.8962 24.888 22.1098 21.988 105.885 61.2094 67.8348 27.9013 23.4608 21.9249 20.6284 123.557 83.04 34.9324 24.1333 22.1525 20.5799 21.4618 17.9899 17.1595 16.9258 23.0559 23.0023 24.0903 17.1099 16.6027 22.3762 16.5319 15.9892 175.289 79.4066 50.8833 26.7169 47.2452 22.0523 16.0242 15.8235 15.0726 14.9481 14.8691 14.8652 14.7886 14.3769 14.3324 14.093 13.65 13.4724 13.4514 14.1893 13.3931 24.007
threshold=0.15149739974668178 0.52800222551928788 0.88556859269840549 0.0039390387649440271 0.99209634898620147 0.018612834681319589 0.8351318550798762 0.011394656401847182 0.015539221458380234 0.71006314284579652 0.011394656401847182 0.15126637627429998 0.060935858157761653 0.63396587198101084 0.0094134349768643689 0.50013511687856471 0.17875429230486944 0.244068281830882 0.5000937646515512 0.26586381189393299 0.81862682042202028 0.14233277246516532 0.41247962831609825 0.50013504389172692 0.33952701535232527 0.26150504965388971 0.013286095046552546 0.50009394081811431 0.41937439227444645 0.47092968909641886 0.50009640412699274 0.16974737744265722 0.36948650144050871 0.60654975208029127 0.50009222539965936 0.98441652380566758 0.33877505384980472 0.20508403293563907 0.10229489302713536 0.8206801598394059 0.97547970080417024 0.28372348743345893 0.09844703139624579 0.5001092538083064 0.86701040534505214 0.90842842117300349 0.50009324879100914 0.50009346667994559 0.50009320533215484 0.64721613159278357 0.54566312856796706 0.58133750169558995 0.88289953837889124 0.50009324879100914 0.50009342302269355 0.50009320533215484 0.27441215485572601 0.9960723263895972 0.079965953032093154 0.16306820022319121 0.60646998143958764 0.55308450441084156 0.37147250110836216 0.73161205581605571 0.75180137675810832 0.4401345283260652 0.50010801471016164 0.18558793208677998 0.010719494205953943 0.50010567474379219 0.35389015279252806 0.50009324879100914 0.50009320533215484 0.58861642962366056 0.50009346667994559 0.021219539152037448 0.50009260116756893 0.57661991601078222 0.85659354655071762 0.01592686848562597 0.50009637625647219 0.35676981323814333 0.5920147192456755 0.004262421444929043 0.32132815964523292 0.1946630623281331 0.4638256440475344 0.11881690367950733 0.014597696679260972 0.73195573647837808 0.50013329779673066 0.5001092538083064 0.54995923070201103 0.01592686848562597
decision_type=2 2 2 2 2 2 2 2 2 2 2 2 2 2 2 2 2 2 2 2 2 2 2 2 2 2 2 2 2 2 2 2 2 2 2 2 2 2 2 2 2 2 2 2 2 2 2 2 2 2 2 2 2 2 2 2 2 2 2 2 2 2 2 2 2 2 2 2 2 2 2 2 2 2 2 2 2 2 2 2 2 2 2 2 2 2 2 2 2 2 2 2 2 2
left_child=2 4 3 -1 9 8 16 -6 17 15 40 -10 35 14 83 23 -7 -3 19 22 39 -8 31 70 85 26 68 32 -29 79 -14 -13 -20 34 42 80 -24 -33 -15 53 -11 -18 82 -40 61 -45 48 51 -43 -50 -51 -48 -49 55 -55 -16 -57 87 -59 -21 -61 -36 -12 65 -65 66 67 -27 -19 -70 -2 72 75 -74 -73 76 77 -23 -75 -30 -4 -63 -17 -5 -68 -25 -31 -56 -37 -69 91 -32 93 -67
right_child=1 5 12 13 7 6 21 -9 11 10 62 18 30 38 20 33 41 25 27 59 -22 71 36 24 -26 63 -28 28 29 86 90 37 -34 -35 44 88 -38 -39 43 -41 -42 46 -44 45 -46 -47 47 52 49 50 -52 -53 -54 54 57 56 -58 58 -60 60 -62 81 -64 64 -66 92 84 89 69 -71 -72 74 73 78 -76 -77 -78 -79 -80 -81 -82 -83 -84 -85 -86 -87 -88 -89 -90 -91 -92 -93 -94 -95
leaf_value=-0.009658638934826061 9.0885056464068835e-05 -0.0016373584323790347 -0.0019355876131386788 0.0052642614856172791 -0.0060120277745537715 -0.00033268052356423967 -0.00078559542333703257 -0.00066536338007736442 -0.0039416264340487069 -0.0009514015583672725 -0.00016285762347654852 0.0027369172054788342 -0.001444996851932947 -0.00091585299748784654 -0.00023469272944124164 0.003868325446396194 -0.00012771501996716457 -0.0010025999009360179 -0.0043013731994902471 0.0017371157359288218 -0.0026988941980689513 -0.0017706192332218016 0.0063474103987619683 -0.0039333585963002137 9.9770320884664816e-05 0.0035270357719278549 -0.0044784287270690157 0.0028911686633486338 -0.0026591320210690057 0.0038148411386243804 -0.001010830693869578 -0.0055371405163398982 0.00035598049083581339 0.0002645840298647398 0.00052629403743240512 -0.00020900253990245327 0.0010627232737450559 -0.00059716658626686936 -0.00065296115301696604 -0.00075076151606403565 -0.0049208310964453912 0.00019717209330225545 0.00089933730605017885 -0.00049287341656660219 -3.6847111349624564e-05 0.00013245069266339476 -0.00055388534373519412 0.00011833636252490408 0.00019748689089290659 0.00097164527614905874 0.0049176990323599656 -0.001824960505023466 -0.00016232311279045335 0.002507282280915157 -0.00057154545116120336 -0.0045177306693105455 0.00041842308953142938 0.004873923261949447 0.00055934811925581387 0.0043368106297331423 0.0012003643032331549 0.00014844639114819112 0.00012051141083291688 -0.0033665804964803569 0.00012386674109751716 0.00098108619950596138 0.0010819461139446949 0.00090250563355125362 0.0033511976587884372 -0.00087832860597092572 0.00028600019249588112 -0.0016727670372117789 0.00045916149203032651 0.0037739740795081074 -0.00031546879282325248 -0.00020868399883854381 0.0014157709116251896 -0.0064328846696246368 0.0070563504813299883 8.9461029897149117e-05 -0.0013252261236008848 0.00042396371717267435 0.0014178581207747651 0.0015019370909250657 -0.0010694235384012794 -0.0015303212460739328 0.0011348412909143199 -6.0204474478834838e-05 -0.0023438263989602561 -0.0014090678128430081 -0.0015033826521794074 -0.000600751811186141 0.0017621826455646381 -0.0027529590525791968
leaf_weight=1584 310213 5475 23363 1125 3653 205585 107365 3285 1046 1131 106947 800 65213 86355 43339 2142 359681 1790 933 2119 3139 781 735 2150 4773 883 1922 5325 1425 1094 66377 709 1932 505969 715339 1273 1011 1437 152610 29669 1907 163700 14378 53497 41294 39106 10223 656738 4068 980 2840 13636 134008 7524 25617 2694 718 707 1480 7471 1014 98453 424970 854 6303 11584 1606 8018 1219 833 395823 11449 1770 979 318389 66786 887 887 1769 1990 54725 398999 1919 705 6066 1939 3087 136854 28618 1143 11952 69528 9526 725
leaf_count=1584 310213 5475 23363 1125 3653 205585 107365 3285 1046 1131 106947 800 65213 86355 43339 2142 359681 1790 933 2119 3139 781 735 2150 4773 883 1922 5325 1425 1094 66377 709 1932 505969 715339 1273 1011 1437 152610 29669 1907 163700 14378 53497 41294 39106 10223 656738 4068 980 2840 13636 134008 7524 25617 2694 718 707 1480 7471 1014 98453 424970 854 6303 11584 1606 8018 1219 833 395823 11449 1770 979 318389 66786 887 887 1769 1990 54725 398999 1919 705 6066 1939 3087 136854 28618 1143 11952 69528 9526 725
internal_value=-6.63934e-07 0.000127824 -0.000734985 -0.000444565 0.000278778 -8.5021e-05 -0.000120062 -0.00348568 0.000717073 0.000287415 4.34555e-05 0.00163694 -0.00126566 -0.000419506 -0.000179423 0.000339748 -2.63487e-05 0.000206623 0.00182592 0.00265082 -0.000208751 -0.000404509 0.000673919 0.000182439 -0.00123769 0.000399545 -0.0012279 0.00102477 0.0015107 0.000539055 -0.00103789 -0.000884925 -0.00115859 0.000402969 0.000457975 -0.00171484 0.00331057 -0.00224762 -0.000603047 -0.000177175 -0.00345364 2.04304e-05 0.00130169 -0.000492791 0.000445549 -0.000228592 7.44821e-05 3.11115e-05 0.000280258 0.0020008 0.00391318 -0.0012814 7.07469e-05 -9.93378e-05 1.71054e-06 -0.000471883 -0.00347405 -0.000112732 0.0019712 0.00352293 0.00396527 0.000461991 6.34988e-05 0.000600919 -0.000291893 0.000763001 0.000226045 0.000871251 0.000396714 0.00162656 0.000200301 -0.000303099 -3.68057e-05 0.00377771 -0.000362667 -0.000285888 -0.00229179 -0.00427366 0.00590322 -0.00105383 -0.00150821 0.000369477 0.00271846 0.00383378 -0.000616055 -0.00280199 0.00184459 -0.000140966 -0.00225363 0.000611302 -0.000858158 -0.000801214 0.0011976 0.000758498
internal_weight=6.09565e+06 5.18788e+06 907772 586723 3.03528e+06 2.1526e+06 2.06252e+06 6938 90075 3.02835e+06 534955 32128 321049 585139 253571 2.49339e+06 1.55146e+06 57947 31082 15296 251741 511062 4692 714898 8862 52472 5764 15786 12921 7596 213070 2946 2865 1.77849e+06 1.27252e+06 107979 1746 2146 331568 248602 3038 1.34587e+06 18439 245213 1.25408e+06 92603 986193 814605 171588 7888 3820 23859 790746 218933 172182 46751 3412 164658 2187 10604 8485 1.21279e+06 531917 46708 7157 39551 17716 10044 3842 2052 706036 403697 73859 4518 329838 69341 2555 1668 2748 3415 78088 497452 4061 1830 7672 4089 4181 162471 29891 9161 147857 135905 21835 12309
internal_count=6095652 5187880 907772 586723 3035284 2152596 2062521 6938 90075 3028346 534955 32128 321049 585139 253571 2493391 1551459 57947 31082 15296 251741 511062 4692 714898 8862 52472 5764 15786 12921 7596 213070 2946 2865 1778493 1272524 107979 1746 2146 331568 248602 3038 1345874 18439 245213 1254085 92603 986193 814605 171588 7888 3820 23859 790746 218933 172182 46751 3412 164658 2187 10604 8485 1212791 531917 46708 7157 39551 17716 10044 3842 2052 706036 403697 73859 4518 329838 69341 2555 1668 2748 3415 78088 497452 4061 1830 7672 4089 4181 162471 29891 9161 147857 135905 21835 12309
is_linear=0
shrinkage=0.02


Tree=2
num_leaves=95
num_cat=0
split_feature=21 23 132 52 71 132 12 7 47 22 18 26 29 15 26 11 29 29 19 29 11 11 51 18 129 130 17 131 13 17 19 22 135 15 17 18 52 29 20 44 13 29 47 14 134 5 23 43 29 11 29 22 132 7 132 22 29 47 47 132 5 13 29 49 18 29 29 29 19 131 29 29 24 29 29 29 133 29 15 47 49 25 21 29 3 16 71 3 47 132 130 128 29 29
split_gain=1389.57 336.932 320.844 164.472 115.809 136.577 115.647 160.295 94.6002 69.8433 66.3289 64.6381 64.0822 62.6081 49.3195 47.2926 42.1558 202.079 204.386 160.38 41.6888 41.492 39.6978 39.1909 40.3676 93.422 99.7937 77.243 111.94 72.253 103.194 55.689 40.9946 76.251 60.3135 38.516 38.1971 38.0534 49.096 37.8097 37.5563 35.2925 33.6069 32.9262 31.8899 67.1253 31.4816 30.1138 29.5275 28.1741 26.7449 25.4235 25.3054 25.0618 24.7731 24.3457 23.4916 22.9331 22.2164 21.7976 21.7931 25.2396 21.5343 20.3363 19.6541 19.2145 47.2064 38.9714 20.9273 19.0193 18.8003 18.7141 50.1636 18.1688 51.4389 18.9256 18.1415 18.9516 18.0479 18.0085 18.1585 17.6554 17.3497 17.1534 16.9861 15.6965 17.5436 15.5748 15.3032 15.1021 14.2617 27.8319 14.1908 14.1687
threshold=0.15939033103481395 0.67576170358630872 0.089865972814283102 0.50013511687856471 0.014390740583855959 0.98032478930320999 0.0040676768053807535 0.93738448535256957 0.28199841708362711 0.37147250110836216 0.1930720580482945 0.50013559322283208 0.50009222539965936 0.047639733310271541 0.063868497906816937 0.093641343146081746 0.50009324879100914 0.50009320533215484 0.4967534044101512 0.50009330969568977 0.078044873012098462 0.10578348263282779 0.64863660521484656 0.16877495838186871 0.020591146069475364 0.016721316470206086 0.11813338149414135 0.028813537990067525 0.9571759500616962 0.22092888728695922 0.54510902479667844 0.16733929625042479 0.015539221458380234 0.39562994405652258 0.26980146390077819 0.33161334730897435 0.21130335979443021 0.50009398496572688 0.21017384336173792 0.38086888199977803 0.19774449289883633 0.50009346667994559 0.073406364483460163 0.42371915426985757 0.0094134349768643689 0.11389266446190195 0.98805670323824335 0.91793919051872175 0.50009258402079182 0.18858065679485039 0.50013435442940368 0.84034265816439357 0.25260251776360287 0.011947392742627719 0.98809382052416128 0.9366019774806561 0.50009637625647219 0.42460558686478894 0.28199841708362711 0.02241077211720395 0.63047023697423343 0.0042061000059984482 0.5001092538083064 0.27297254787533831 0.090041347989389148 0.50009324879100914 0.50009330969568977 0.50009320533215484 0.18939676111328491 0.03497808402717964 0.50009324879100914 0.50013504389172692 0.3260945052195961 0.50009314456359022 0.50009303191075039 0.50009222539965936 0.01571415222802813 0.50009922604082002 0.56494728409283623 0.50013515340157688 0.36454250314439501 0.47963259479615056 0.85784129855993418 0.50013511687856471 0.79131899978832332 0.27304634855121301 0.78027775481903927 0.85898751161009324 0.9121988396227142 0.93235949015603203 0.018987363275336674 0.01592686848562597 0.50010306091009193 0.50013498921070321
decision_type=2 2 2 2 2 2 2 2 2 2 2 2 2 2 2 2 2 2 2 2 2 2 2 2 2 2 2 2 2 2 2 2 2 2 2 2 2 2 2 2 2 2 2 2 2 2 2 2 2 2 2 2 2 2 2 2 2 2 2 2 2 2 2 2 2 2 2 2 2 2 2 2 2 2 2 2 2 2 2 2 2 2 2 2 2 2 2 2 2 2 2 2 2 2
left_child=2 3 6 10 5 46 7 -1 15 57 50 12 14 56 35 62 17 52 82 81 -21 -10 42 55 25 26 -25 28 29 -26 -31 -27 34 -34 -28 40 -12 38 -33 85 -5 -22 89 70 45 -15 -3 79 -13 -50 64 -20 -11 -46 83 -14 -8 -6 90 -37 61 -55 -4 -59 -2 67 -67 -44 -69 -58 -24 84 -73 74 75 -54 77 -62 -39 93 -81 -18 -19 -49 -60 -29 -87 -23 -51 -17 91 -38 -79 -43
right_child=1 4 8 11 9 -7 13 -9 21 16 36 48 23 44 -16 22 19 18 51 20 41 87 43 24 27 31 32 39 -30 30 -32 37 33 -35 -36 59 58 78 -40 -41 -42 47 65 -45 53 -47 -48 54 49 88 -52 -53 73 60 -56 -57 69 63 71 -61 76 -63 -64 -65 -66 66 -68 68 -70 -71 -72 72 -74 -75 -76 -77 -78 92 -80 80 -82 -83 -84 -85 -86 86 -88 -89 -90 -91 -92 -93 -94 -95
leaf_value=-0.0090369294540810705 -0.00072465279713107697 -0.00041162507115434673 -0.00092814256687474698 0.0047037600386371572 -0.00019009631016185595 -0.005721552891793537 -0.0020743425015226418 -0.0022532321988976991 -0.0011850477390529586 -0.00038037581162676717 -0.00012713634478730238 0.00081300070083277162 -3.7771121092563258e-05 0.0037355731729067725 0.00098570067842603535 0.00014120987894741379 -0.00027702870899166563 0.00082331747665786634 0.0037398678951951086 -0.00059741454983680867 -0.00089676275535110128 -0.0004857018896550005 -0.0038450757648457825 -0.0066261721089325145 0.0042167372641841779 -0.0030440274036699728 -0.0013971510285602216 7.9284361622351484e-05 0.0060069280716302633 -0.0053650970072013316 -0.00086594063724632531 0.00018344881543918122 0.003926301153987879 0.0005969369134323255 0.00059347085862514984 0.0069878247549616758 0.00040893525831286012 0.0017843787966510022 0.0040483928612404223 0.00028563389801115571 -0.00088182239205478793 0.00024697304163885317 -0.00052851336216684446 0.0013863947942818009 -0.0019780403802287421 -0.0015252781414507545 -0.0035101886544120541 -0.00017668966586836598 -0.00028028733558094546 0.00022998405479689188 -0.0016005261825118695 0.0063310738938989145 -0.00067320501194332086 0.0023383833364411994 -0.003184606787016498 -0.0028060443349592935 -0.0020939366174873002 -0.00072503051735651905 0.00016177527092054987 0.0031424437167738833 -0.0051607757129122226 -0.00075855091374862644 -0.00029951629008534729 -0.00032071872638571823 -0.00016399595707896508 0.0032044746917949058 -0.00021021803712801073 -0.0052722181110597902 -0.00081667722645117587 -0.0012063059810550811 -0.00051776777352301195 -0.0021264976060947848 0.00051086231572850796 0.001120501097962294 -0.0012328694819421469 0.00035219853621802356 -0.0011289000491133058 0.00055917145448232928 -0.00095254895658538382 -0.0001647556793438105 0.00011942834171380806 -0.0031752465869573959 -0.0014899298473818523 -0.0015425510815549907 -0.00010878288084449523 0.00046715445721735058 0.00074922519970152274 -0.00086422165688606169 -1.0873331595294704e-05 0.0015107316017997062 0.00029159458429950835 0.0029271631955082263 -0.0033878492717379456 0.0011208039318770231
leaf_weight=1659 30181 8605 54758 775 217255 3039 30447 8718 68251 39218 227475 27872 66546 1739 19509 86407 967 5201 2762 53063 17705 130912 2510 772 712 770 6985 36035 768 3062 6134 1630 3899 9395 46998 1174 6329 5802 7047 734327 1244 100793 37274 874 10182 2176 1548 156856 56282 563039 6159 3602 7783 1059 1123 1291 12248 83804 536948 1266 918 79288 36411 123253 147029 1628 186276 1093 707 47452 953 5309 6288 8086 9954 93591 81418 701 1142 137353 260419 7391 1719 3766 112120 615852 103306 65513 129658 3345 249601 2439 735 8027
leaf_count=1659 30181 8605 54758 775 217255 3039 30447 8718 68251 39218 227475 27872 66546 1739 19509 86407 967 5201 2762 53063 17705 130912 2510 772 712 770 6985 36035 768 3062 6134 1630 3899 9395 46998 1174 6329 5802 7047 734327 1244 100793 37274 874 10182 2176 1548 156856 56282 563039 6159 3602 7783 1059 1123 1291 12248 83804 536948 1266 918 79288 36411 123253 147029 1628 186276 1093 707 47452 953 5309 6288 8086 9954 93591 81418 701 1142 137353 260419 7391 1719 3766 112120 615852 103306 65513 129658 3345 249601 2439 735 8027
internal_value=2.90461e-07 0.000130498 -0.000700016 0.000227475 -0.000139872 -0.00200438 -0.00127113 -0.00334352 -0.000464805 -0.000121545 4.83479e-05 0.000324567 0.00039446 -0.00119086 0.0014214 -0.000275274 -2.35632e-05 0.000258792 0.00262788 -8.85327e-05 -5.73419e-05 -0.000759916 -0.000161036 0.000379549 0.000399703 0.00082538 0.000498424 0.000375728 -0.0013186 -0.00189119 -0.0023683 0.00218098 0.000580962 0.00157602 0.000335423 0.00331994 0.000104848 0.00244071 0.00332518 0.000387889 0.00125866 -1.5536e-05 -0.000134928 -0.00206074 -0.000973263 0.000808216 -0.000887519 7.78534e-06 0.000173711 0.000149889 -0.000304803 0.00521344 6.01991e-05 -0.00101341 -0.000229768 -9.09516e-05 -0.00162074 -0.000333797 0.00016229 0.00501133 -0.000953388 -0.00071734 -0.000677332 -0.00048447 -0.000259613 -0.000264511 -0.000180442 -0.000668206 -0.00354037 -0.00138891 -0.00293725 0.000100751 -0.000695169 0.00020507 0.000138353 0.000273246 -0.00117949 -0.00291464 0.00133103 8.36724e-05 2.12468e-05 -0.00284269 0.000245134 -0.000208886 0.000115008 0.000487291 0.000507706 -0.000612069 0.000184872 0.000192555 0.000319568 0.00111298 -0.00145193 0.000311663
internal_weight=6.0957e+06 5.14005e+06 955652 3.78317e+06 1.35688e+06 13192 278740 10377 676912 1.34369e+06 1.32988e+06 2.45329e+06 1.67644e+06 268363 23968 412236 919379 171916 13284 747463 739105 264676 321067 1.65247e+06 1.58464e+06 84440 68049 1.5002e+06 10676 9908 9196 16391 67277 13294 53983 4459 1.14651e+06 15621 8677 1.48952e+06 2019 686042 316730 4337 178216 3915 10153 668337 776851 748979 183369 6364 158632 174301 161745 67837 90147 424312 919034 2440 164119 80347 91169 207057 177210 226978 187904 39074 1800 59700 3463 660665 11597 119414 111328 101374 83772 2354 6944 506592 397772 8358 6920 160622 649068 755193 719158 196425 692697 89752 258369 8768 1436 108820
internal_count=6095705 5140053 955652 3783170 1356883 13192 278740 10377 676912 1343691 1329878 2453292 1676441 268363 23968 412236 919379 171916 13284 747463 739105 264676 321067 1652473 1584636 84440 68049 1500196 10676 9908 9196 16391 67277 13294 53983 4459 1146509 15621 8677 1489520 2019 686042 316730 4337 178216 3915 10153 668337 776851 748979 183369 6364 158632 174301 161745 67837 90147 424312 919034 2440 164119 80347 91169 207057 177210 226978 187904 39074 1800 59700 3463 660665 11597 119414 111328 101374 83772 2354 6944 506592 397772 8358 6920 160622 649068 755193 719158 196425 692697 89752 258369 8768 1436 108820
is_linear=0
shrinkage=0.02


Tree=3
num_leaves=95
num_cat=0
split_feature=21 1 1 11 18 135 1 1 135 43 1 22 132 17 1 29 51 129 52 52 17 29 18 29 45 29 45 43 21 29 29 15 48 17 16 48 18 14 132 48 27 12 47 137 29 29 10 1 29 29 29 44 43 27 43 18 128 14 16 18 21 15 16 43 29 29 131 136 18 15 16 52 29 16 17 18 22 22 29 7 21 21 47 15 29 29 29 29 29 135 22 14 14 29
split_gain=1317.37 374.567 339.414 312.987 224.844 148.765 119.296 115.513 99.3074 93.241 90.7008 88.5401 83.847 62.9353 62.6973 60.4488 57.9688 64.6176 55.9502 55.1502 43.5483 60.3032 39.6623 38.6235 48.8339 36.1199 33.3299 32.1785 31.5602 31.405 30.933 30.4791 29.6945 29.5898 27.8163 27.3988 26.8567 26.4987 26.1419 25.9898 25.8289 25.1588 24.2859 23.4371 23.1368 22.8933 22.7261 22.4329 21.2096 105.412 65.2835 61.9567 21.4938 20.885 20.414 20.0704 19.549 19.2924 26.661 18.6875 18.0165 27.186 21.3002 17.632 17.6598 26.3727 16.4866 16.3298 15.9947 22.0275 19.5861 15.7742 15.6834 27.7739 17.3933 16.568 15.5938 26.6529 15.4427 15.119 15.0238 17.2737 14.9922 14.7738 14.6954 14.3717 14.3184 48.6775 15.8024 14.5202 14.2019 14.0987 16.579 14.0555
threshold=0.15939033103481395 0.5317741380927079 0.88556859269840549 0.0039390387649440271 0.99209634898620147 0.018612834681319589 0.85466622380808865 0.011394656401847182 0.015539221458380234 0.7725772732961832 0.011394656401847182 0.16733929625042479 0.060935858157761653 0.15898613358192282 0.65737529276176143 0.5000937294974962 0.69265291311550092 0.0094970640474481092 0.17875429230486944 0.50013511687856471 0.26980146390077819 0.5000987654407697 0.25659811127932541 0.50013504389172692 0.42320695694357868 0.50009640412699274 0.60654975208029127 0.8206801598394059 0.24815136451229144 0.50009266981823641 0.50009222539965936 0.36749338509865331 0.027812539299130506 0.41647410386218348 0.39321536258967654 0.14972910070660267 0.47120757279003994 0.35688880176467191 0.081665421326039975 0.28372348743345893 0.10271120904646412 0.15291904644886281 0.4010945232410339 0.980094820806651 0.50009434852428558 0.5001092538083064 0.99614494974111989 0.087406767252262416 0.50009324879100914 0.50009346667994559 0.50009320533215484 0.67523819633120097 0.45533003759569707 0.6860690635522485 0.88289953837889124 0.64373310304350528 0.01592686848562597 0.30078715067975836 0.4174936289239457 0.01545867968645386 0.2240239826155509 0.35175830323492469 0.46557670563947101 0.4279305903753241 0.50013417416047279 0.5001089680736488 0.01485344318374745 0.011481406692368428 0.79286298541930134 0.43532878789213775 0.53854713401356569 0.35389015279252806 0.50009730466181468 0.34174116223991635 0.37124913846871188 0.16877495838186871 0.58665846362501994 0.4653622739993743 0.50009324879100914 0.5920147192456755 0.46173865205743864 0.1960535627128982 0.40931673075175512 0.49518555492636368 0.50009402914986767 0.5001092538083064 0.50009324879100914 0.50009342302269355 0.50009314456359022 0.015539221458380234 0.39185469053802852 0.7361489782870424 0.51034990446383299 0.50009470593891192
decision_type=2 2 2 2 2 2 2 2 2 2 2 2 2 2 2 2 2 2 2 2 2 2 2 2 2 2 2 2 2 2 2 2 2 2 2 2 2 2 2 2 2 2 2 2 2 2 2 2 2 2 2 2 2 2 2 2 2 2 2 2 2 2 2 2 2 2 2 2 2 2 2 2 2 2 2 2 2 2 2 2 2 2 2 2 2 2 2 2 2 2 2 2 2 2
left_child=2 4 3 -1 9 8 18 -6 20 19 43 13 32 -10 16 22 17 -5 -7 23 21 83 57 71 -25 -14 30 47 36 -24 40 34 46 55 44 -8 66 78 -16 -20 79 -32 45 -11 56 -40 67 86 50 52 -41 -52 -50 -53 -51 84 -17 58 -13 -49 -23 -62 -63 64 65 -43 -22 -4 72 -70 -71 -2 73 -30 -75 -74 77 -77 -18 -21 81 -31 85 -3 -33 -27 88 -88 -19 -89 -12 92 -82 -35
right_child=1 5 12 14 7 6 35 -9 11 10 90 15 25 -15 38 31 37 27 39 26 28 60 29 24 -26 82 -28 -29 68 80 41 33 -34 93 -36 -37 -38 -39 42 48 -42 63 -44 -45 -46 -47 -48 59 49 54 51 53 -54 -55 -56 -57 -58 -59 -60 -61 61 62 -64 -65 -66 -67 -68 -69 69 70 -72 -73 75 74 -76 76 -78 -79 -80 -81 91 -83 -84 -85 -86 -87 87 89 -90 -91 -92 -93 -94 -95
leaf_value=-0.0092736784939622136 8.8941956417456654e-05 -0.0020029688757799468 0.00037322442038454105 0.0037164407801838955 -0.0057932879905142898 -0.00033479596970634488 -0.00064418298730035647 -0.00063251147401532416 -0.0067441717868165305 -0.0011502070651655232 -0.00021953210991617806 0.004291042923719156 -0.001362642878193663 0.00060279725321632483 -0.00094692524907367406 -0.0022017106245563649 -0.0038156936137859945 1.6831471078169513e-05 -0.00012956015941224529 0.0037220460402498296 -0.00081965861372022982 -0.0029214205720882618 3.9092407862392837e-05 -0.002411677416966726 0.00048187696710340442 -0.00092219287177247133 0.00024961899655228824 -0.00072160177467985487 -0.0010039181517785952 0.0021053352472876151 7.6350883885389521e-05 -0.0043877051525941201 -0.0013400870559667319 0.002212179274115661 0.0046807697822493386 -0.00030008709362859884 0.0017020575052787369 0.00069340643107108956 -0.00053995287125192923 0.00017989914099457972 0.00083176347885815583 0.00056730627662369981 -0.00078228359337919695 -0.0051181924194086551 0.0031613207793873498 -8.470660326087593e-05 -0.0034304908366082415 -0.0015544591853800733 6.5731713743264467e-05 0.00010935907449232216 0.00029290493524957529 0.002110158276583791 -0.0015253103005084139 0.0050579191374776882 -0.00015548398990867759 0.0011633247803174542 0.0021793476954474014 -0.00062814569260180987 -7.4692350026452913e-05 -0.00012043692995785857 0.0019397091511741029 -0.0020956836366125271 0.001847039957945198 0.00033364596639124468 0.0010468998011473564 0.00032826627619460572 -0.0039080360344138781 -0.0019365871041846154 0.0014001840104889782 -0.0034550248677002603 -0.00021901289541829621 0.00027289352616202206 -0.0015844576226804502 -2.0286668907090605e-05 0.0024823055409530252 0.00093590648345918763 0.001137282186262314 -0.00061719895070821138 -0.0014177548211372251 0.0013241856684516407 0.0034775066922790401 0.0050806772028182167 -0.0010879244297963275 -0.0054318348806479877 -0.00099042422530864756 -0.00044500068747744859 0.003288006074238934 0.0018173794685048697 -0.0031002897462490964 0.00011710304150876021 7.5404663877062114e-05 0.0047038916206878162 3.3205358198457479e-05 0.00045969979273045039
leaf_weight=1584 334241 896 1241 1726 3619 214868 138567 3349 813 945 84311 1212 66931 1073 61776 927 2702 6216 376118 2277 1493 772 937 5132 4254 46976 572971 35642 1474 984 79779 718 58092 3239 1487 280111 881 1025 115064 166827 14522 509126 79734 1693 1470 71917 4128 3693 4036 660797 4147 1742 20640 2264 141253 1197 717 1502 1019 223497 2322 1972 749 397026 22706 290522 1322 46564 1612 1215 1974 422928 1422 1357 5748 9705 13208 8095 1851 2030 1233 4557 50246 1242 1819 55156 2614 2334 720 14499 289553 1099 1041 4294
leaf_count=1584 334241 896 1241 1726 3619 214868 138567 3349 813 945 84311 1212 66931 1073 61776 927 2702 6216 376118 2277 1493 772 937 5132 4254 46976 572971 35642 1474 984 79779 718 58092 3239 1487 280111 881 1025 115064 166827 14522 509126 79734 1693 1470 71917 4128 3693 4036 660797 4147 1742 20640 2264 141253 1197 717 1502 1019 223497 2322 1972 749 397026 22706 290522 1322 46564 1612 1215 1974 422928 1422 1357 5748 9705 13208 8095 1851 2030 1233 4557 50246 1242 1819 55156 2614 2334 720 14499 289553 1099 1041 4294
internal_value=4.13781e-07 0.000127184 -0.000681355 -0.000408084 0.000269053 -7.82295e-05 -0.000113606 -0.00331799 0.000722841 0.000277303 -1.72093e-05 0.00162851 -0.00120121 -0.00256315 -0.00038551 0.001898 -0.000174572 -0.000135759 -3.46207e-05 0.000319036 0.000228445 -0.00114412 0.002878 0.000175887 -0.00109855 -0.00097491 0.000377054 -0.000158881 0.000449441 0.00354404 0.000432438 0.00105715 -0.00165203 0.000494325 0.00242904 -0.000414024 -0.00132553 -0.00219349 -0.000575851 1.21774e-05 0.00123773 0.000420747 -0.000489812 -0.00370919 0.0013416 -0.000364969 -0.00200043 -7.96942e-05 6.54169e-05 2.30509e-05 0.000265462 0.00201263 -0.00126431 0.00378531 6.26906e-05 -0.000957617 -0.00027805 0.00111265 0.00229236 -0.000143869 -8.36321e-05 0.000349288 -0.00100165 0.000443262 0.000496157 0.000480488 -0.00228149 -0.00187617 0.000593213 -0.000496142 -0.00146166 0.000191718 0.000721278 0.00148279 0.00200184 0.000519014 0.000616362 0.000228494 -0.00284784 0.00259936 0.00390999 0.00455828 -0.00080443 -0.00401221 -0.0019665 -0.000664717 0.000472093 0.000750596 -0.000305864 0.000354514 8.8372e-06 0.00283392 0.00191307 0.00121684
internal_weight=6.09708e+06 5.14115e+06 955928 626594 3.04098e+06 2.10017e+06 2.01137e+06 6968 88797 3.03402e+06 376502 31338 329334 1886 625010 29452 296519 290941 1.59269e+06 2.65751e+06 57459 7953 13584 766555 9386 219309 1.89096e+06 289215 49506 9851 1.31799e+06 15868 110025 11267 4601 418678 3696 5578 328491 1.37782e+06 18829 1.29916e+06 266715 2638 3114 186981 51933 253573 1.00171e+06 826726 174980 8153 24676 4006 802050 3734 1644 3733 2231 227190 5815 5043 2721 1.21938e+06 822354 799648 2815 47805 45810 4801 3189 757169 41009 8579 7105 32430 31008 17800 4553 4307 8914 5541 152378 2138 2537 102132 26383 19447 6936 16833 373864 3373 2274 7533
internal_count=6097079 5141151 955928 626594 3040984 2100167 2011370 6968 88797 3034016 376502 31338 329334 1886 625010 29452 296519 290941 1592692 2657514 57459 7953 13584 766555 9386 219309 1890959 289215 49506 9851 1317988 15868 110025 11267 4601 418678 3696 5578 328491 1377824 18829 1299159 266715 2638 3114 186981 51933 253573 1001706 826726 174980 8153 24676 4006 802050 3734 1644 3733 2231 227190 5815 5043 2721 1219380 822354 799648 2815 47805 45810 4801 3189 757169 41009 8579 7105 32430 31008 17800 4553 4307 8914 5541 152378 2138 2537 102132 26383 19447 6936 16833 373864 3373 2274 7533
is_linear=0
shrinkage=0.02


Tree=4
num_leaves=95
num_cat=0
split_feature=21 1 1 11 18 133 1 1 43 1 132 135 22 137 52 1 134 137 51 52 19 21 17 128 17 13 128 17 134 29 23 45 18 130 48 29 29 135 14 132 43 48 29 12 27 137 1 72 129 15 21 29 21 43 29 15 14 23 18 12 16 137 29 17 17 52 16 46 29 22 71 137 44 29 16 14 13 29 21 7 15 29 52 132 16 47 29 18 12 21 14 13 18 14
split_gain=1257.42 376.035 317.221 299.776 214.981 139.218 117.211 113.528 93.1252 84.0098 77.0033 63.6243 63.5225 61.9671 56.5922 55.3533 67.2961 51.0596 50.7222 50.2364 49.3121 47.815 45.4982 86.3422 40.4802 38.9139 38.5987 37.7865 73.9752 37.5767 46.1329 32.6486 32.2645 31.8845 31.3631 31.2895 30.5082 27.5117 25.8336 25.4864 25.1192 25.0986 24.7889 24.0049 23.3878 23.2316 22.6398 22.313 22.0453 19.1634 37.9426 19.3209 18.8805 18.7576 18.0998 18.0477 19.659 17.8063 17.6949 17.3664 17.2612 17.2088 23.3788 17.1699 20.8585 17.1695 16.9475 20.7193 17.5776 16.3585 15.989 15.7638 15.1157 14.9247 14.6228 14.5578 14.2943 18.5491 14.1765 14.1575 14.0208 15.9245 14.0067 13.8096 13.5299 13.5025 14.1832 13.4944 13.4371 13.3576 13.3502 13.3212 13.3129 13.0606
threshold=0.15149739974668178 0.54783373600466889 0.88556859269840549 0.0039390387649440271 0.99209634898620147 0.020001843657817115 0.85466622380808865 0.011394656401847182 0.73322680987775335 0.011394656401847182 0.060935858157761653 0.015539221458380234 0.15530783154085667 0.017958908343017891 0.50013511687856471 0.63396587198101084 0.0094134349768643689 0.018978325054695631 0.62105216061047142 0.17875429230486944 0.26586381189393299 0.244068281830882 0.52616250797284048 0.01592686848562597 0.41247962831609825 0.12284637514092946 0.01592686848562597 0.26150504965388971 0.013286095046552546 0.50013504389172692 0.21045611922706642 0.60654975208029127 0.16087069335078183 0.021437812596912732 0.027812539299130506 0.50009222539965936 0.50009640412699274 0.018612834681319589 0.32841241678269023 0.10229489302713536 0.8206801598394059 0.28372348743345893 0.5001092538083064 0.15291904644886281 0.090419927493276611 0.97655576474089234 0.087406767252262416 0.77316390045481997 0.016792810855322044 0.41937439227444645 0.40999945826309103 0.50009470593891192 0.47393614216397151 0.88289953837889124 0.50009324879100914 0.71546355766650349 0.47521012280577829 0.9960723263895972 0.01545867968645386 0.99221811849781516 0.54652788548678 0.016168183767215242 0.50010336986176795 0.16306820022319121 0.50666113704032512 0.35389015279252806 0.3254947200226736 0.18936908723003085 0.50009258402079182 0.40428605235746762 0.83641068686955655 0.01454656093273181 0.43167969199381734 0.50009513842727171 0.22139095350635404 0.67325713885946048 0.55123433075697437 0.50010801471016164 0.004641423581088224 0.6436753996839909 0.27668831908380115 0.50009434852428558 0.40256704055845299 0.98809382052416128 0.34574059625660841 0.4560074520066098 0.5001092538083064 0.41951830895954983 0.051206951412163297 0.57556759832633853 0.49933401612077893 0.3172605194835037 0.18523100322440619 0.70447892241000909
decision_type=2 2 2 2 2 2 2 2 2 2 2 2 2 2 2 2 2 2 2 2 2 2 2 2 2 2 2 2 2 2 2 2 2 2 2 2 2 2 2 2 2 2 2 2 2 2 2 2 2 2 2 2 2 2 2 2 2 2 2 2 2 2 2 2 2 2 2 2 2 2 2 2 2 2 2 2 2 2 2 2 2 2 2 2 2 2 2 2 2 2 2 2 2 2
left_child=2 4 3 -1 8 11 19 -6 14 45 34 21 82 20 29 16 78 22 40 -7 24 84 23 52 32 -8 -26 28 61 65 -31 35 -14 49 59 44 -12 63 54 -17 46 88 -41 -37 79 -10 57 -44 55 80 -51 -52 -15 -43 -20 73 -57 83 -48 71 -54 -23 -63 75 -65 -2 -45 68 -68 -11 -59 -4 -32 89 -34 -22 77 -75 -5 -16 81 -19 -13 -18 -3 86 -38 -66 -21 -29 -78 -69 -87 -58
right_child=1 5 10 15 7 6 25 -9 9 69 36 12 13 17 31 39 18 33 38 41 37 27 -24 -25 26 -27 -28 48 -30 30 72 -33 74 -35 -36 43 85 -39 -40 42 -42 53 47 66 -46 -47 58 -49 -50 50 51 -53 60 -55 -56 56 93 70 -60 -61 -62 62 -64 64 87 -67 67 91 -70 -71 -72 -73 -74 76 -76 -77 90 -79 -80 -81 -82 -83 -84 -85 -86 92 -88 -89 -90 -91 -92 -93 -94 -95
leaf_value=-0.0090891319494555787 7.8619164923473086e-05 -0.0020592835705376682 0.00028742881391807194 0.0053762851610299981 -0.0056797554386327836 -0.00033138675137108485 -0.00081765128601568495 -0.00065606609198256703 -0.00099771307716363541 -0.00016905229734777549 -0.0013333954757647345 -0.00095775397313284372 0.0024960503312133936 -0.0027114829733816278 0.0037054138080531659 -0.00085210109778645186 0.00016448182595422113 0.0001175396700791234 -0.0037103479827055707 -0.00059973393303541691 0.00013931955665969279 -0.0011486851233229087 0.0033790376907465664 -0.0081711162749272762 0.00022686862310946886 -0.00032989379268264825 0.0061231705320217034 -0.0029960831940982553 -0.0045490421216306679 -0.0029770676646260459 -0.0010928300320762463 0.00024252281845687276 -0.00012828223163431342 0.00015440564265762371 -0.001300023195061962 8.1826407397712027e-05 -0.00094046182557097797 -0.00021387600460288564 0.00060735282564577703 -0.00060940780826512179 -0.00069948301468608079 9.6299716540283278e-05 -0.00073016584661006294 0.00018570825397934963 0.0008847552160878736 -0.0047618322747923518 -0.0015923183173653761 -1.4188210614844523e-05 0.0032177719872005794 -0.0020147355948699161 0.0028778896107145005 0.00052470247477272357 0.0026896176787949205 -0.00013757990760678783 -0.0010126380785398081 -0.0026632026976924771 0.00097827052510761608 0.004713059052806506 -0.00012295557814122731 -0.0030104527677369498 -0.0011679525650534893 0.0037567469485263534 -0.00038959672292058345 0.0041617286456755468 0.0038494966777582323 0.0002694633576221133 -0.00011120231612473102 0.00023571489156656693 0.00069671619178666088 9.9407798002478366e-05 0.0010056759527226867 -0.0019155065067344296 0.00090934319784007794 0.00097473696449367961 -0.0035887968491252727 0.0035809143022857127 0.00217063651734751 -0.00022143007284358525 0.0017949332265352284 0.001170280592027075 0.003360025736502925 0.0037310292167057925 -0.0047903125498562687 0.0018389122409684759 0.00081027778571649781 -0.0014357774869449079 -0.00047335994809344757 0.00042740703860889319 -0.00010817471761610587 0.00075154303048048752 0.00082260498949278198 0.0004513501879714033 -0.00072222949494476086 -0.00068270157215059401
leaf_weight=1583 340691 4426 1321 938 3632 213466 81066 3584 1053 119027 65033 851 792 1040 2165 86705 20288 1484 2875 23790 1186 1625 707 749 990 341075 812 806 1768 3331 2879 546297 820 8045 56150 81345 48757 974 1127 152640 29297 770117 23268 98855 15341 1818 3334 69362 1221 1306 2945 2700 872 166830 1563 1220 3443 701 189243 5919 973 1023 1137 7020 770 423322 11409 134607 180505 382326 1434 44454 3155 12069 1251 851 4632 9047 888 1542 3693 731 716 2183 758 23345 56339 1179 346890 701 8273 788115 19269 4191
leaf_count=1583 340691 4426 1321 938 3632 213466 81066 3584 1053 119027 65033 851 792 1040 2165 86705 20288 1484 2875 23790 1186 1625 707 749 990 341075 812 806 1768 3331 2879 546297 820 8045 56150 81345 48757 974 1127 152640 29297 770117 23268 98855 15341 1818 3334 69362 1221 1306 2945 2700 872 166830 1563 1220 3443 701 189243 5919 973 1023 1137 7020 770 423322 11409 134607 180505 382326 1434 44454 3155 12069 1251 851 4632 9047 888 1542 3693 731 716 2183 758 23345 56339 1179 346890 701 8273 788115 19269 4191
internal_value=-2.52861e-07 0.000119913 -0.000686849 -0.000410632 0.000257151 -9.1339e-05 -0.000128762 -0.00318957 0.000265089 1.60396e-05 -0.0011929 0.000637132 0.00121217 0.00136047 0.000312764 -0.00038707 -0.000164645 0.000734458 -0.000192471 -4.69187e-05 0.00230821 0.000193166 -0.0012361 -0.00214289 0.000557678 -0.000423616 0.00290446 0.000379007 -0.00117682 0.000168929 -0.00108962 0.000372553 -0.000914927 0.00114483 -0.00162855 0.000426602 -0.000971933 0.00298768 -0.00208009 -0.0005571 -0.00014973 -4.63855e-07 -0.000452718 0.000414737 0.00123175 -0.00339235 -7.54641e-05 -0.000194282 0.000569004 0.00176261 0.00104482 0.00175736 -0.000559503 5.46339e-05 -0.00276696 0.000495329 -0.000310866 0.000495549 -0.000148539 -0.00198484 0.000646777 0.000397008 0.00156906 0.0032728 0.00365116 0.000184389 0.000437037 0.000459308 0.000648581 3.56313e-05 0.00224046 -0.00185147 -4.2755e-05 0.00069682 -0.00223187 0.00159216 0.0007835 0.00046137 0.00365522 0.00265926 0.00260214 0.0013248 -0.00273133 0.000328411 -0.00163547 -0.000812615 -0.000690286 0.00179601 -0.000139784 -0.00124288 0.00130866 0.000419916 -0.00111372 6.39431e-05
internal_weight=6.09605e+06 5.18803e+06 908016 587429 3.145e+06 2.04303e+06 1.94323e+06 7216 3.13778e+06 504224 320587 99797 43457 41890 2.63356e+06 585846 253871 25245 252045 1.52109e+06 16645 56340 4341 3634 4665 422141 1802 51156 5553 773378 9365 1.86018e+06 2863 20904 107844 1.31388e+06 212743 11980 5565 331975 246480 1.30763e+06 245270 1.29484e+06 19048 2871 217183 92630 45603 12859 6951 5645 2885 936947 4438 44382 8854 24606 192577 51694 1845 3785 2160 11006 8969 764013 1.21349e+06 1.11464e+06 191914 501353 2135 45775 6034 35528 2071 2037 34021 21116 1826 3707 5908 2215 1567 22471 5184 147710 105096 1949 370680 1507 12905 922722 42614 7634
internal_count=6096046 5188030 908016 587429 3144999 2043031 1943234 7216 3137783 504224 320587 99797 43457 41890 2633559 585846 253871 25245 252045 1521093 16645 56340 4341 3634 4665 422141 1802 51156 5553 773378 9365 1860181 2863 20904 107844 1313884 212743 11980 5565 331975 246480 1307627 245270 1294836 19048 2871 217183 92630 45603 12859 6951 5645 2885 936947 4438 44382 8854 24606 192577 51694 1845 3785 2160 11006 8969 764013 1213491 1114636 191914 501353 2135 45775 6034 35528 2071 2037 34021 21116 1826 3707 5908 2215 1567 22471 5184 147710 105096 1949 370680 1507 12905 922722 42614 7634
is_linear=0
shrinkage=0.02


Tree=5
num_leaves=95
num_cat=0
split_feature=21 1 1 11 18 133 1 1 43 1 132 1 135 51 129 135 48 136 13 21 20 16 133 13 28 49 28 28 28 16 28 49 43 136 45 16 14 132 14 19 28 28 28 14 43 20 28 1 18 20 72 19 12 28 132 12 11 129 28 23 132 43 72 45 28 14 28 28 19 28 131 28 69 28 16 28 28 28 16 24 49 28 28 24 28 28 28 28 13 18 18 13 27 28
split_gain=1212 343.686 313.348 289.944 205.68 137.243 117.673 106.244 81.8388 87.3274 74.7391 62.21 57.5298 53.9771 61.6695 48.2036 45.0168 40.4212 38.9143 34.5326 35.664 32.6379 35.279 36.8287 34.1042 31.815 31.3418 31.1938 55.4606 82.5521 30.7741 29.7904 29.1761 28.0809 28.0581 26.8667 26.7638 26.5667 26.5014 34.6436 32.5729 25.0657 24.6716 23.3626 23.346 23.2658 23.1008 22.8562 21.9454 28.209 21.6989 20.6446 20.6343 19.9183 18.9354 18.0185 17.7909 17.6528 29.0414 17.5223 16.9337 16.653 16.6315 16.5166 16.4915 16.4267 16.0342 168.951 76.0888 53.6085 15.9439 15.0139 17.6814 16.8175 14.6856 14.5924 14.5116 30.19 25.92 14.1732 14.0424 13.8602 30.5567 14.0783 13.7382 19.2742 40.4756 27.7046 13.4717 13.2116 17.4314 16.0595 13.1475 13.1348
threshold=0.15939033103481395 0.52800222551928788 0.88556859269840549 0.0039390387649440271 0.99209634898620147 0.020001843657817115 0.83093683033999344 0.011394656401847182 0.7725772732961832 0.011394656401847182 0.060935858157761653 0.63792528248205349 0.015539221458380234 0.62105216061047142 0.0094970640474481092 0.018612834681319589 0.36276312200654942 0.49824939198931006 0.14233277246516532 0.244068281830882 0.73161205581605571 0.14060606781414428 0.01571415222802813 0.25745548191458872 0.50009470593891192 0.29280695827714398 0.50009640412699274 0.50009239582449772 0.50009260116756893 0.75044794011753957 0.50009292816732986 0.019967060664648508 0.75261312803916802 0.50013511687856471 0.35555108158289156 0.45334060245532032 0.43992370068608344 0.10229489302713536 0.2371424044988438 0.36105514142697342 0.50009898050956891 0.5001092538083064 0.50009280742539342 0.82292078392621881 0.88289953837889124 0.87017495284907964 0.50009273857076897 0.083450086874728366 0.24873835728332908 0.31529367394704449 0.77316390045481997 0.39735990900302126 0.070707511658345587 0.50013498921070321 0.97673715297949537 0.16093062455228332 0.14538516071391117 0.016792810855322044 0.50009513842727171 0.9960723263895972 0.014597696679260972 0.45128369556440101 0.50013489815435019 0.61434714147029312 0.5001089680736488 0.30078715067975836 0.50009324879100914 0.50009320533215484 0.59249372747789042 0.50009346667994559 0.01485344318374745 0.50009324879100914 0.41300087539557639 0.5000938878986777 0.35373157917684001 0.50013511687856471 0.50009828009922952 0.5000987654407697 0.39321536258967654 0.98408466832527663 0.051377996099984773 0.50013511687856471 0.50013504389172692 0.63937348142034922 0.50009222539965936 0.50009324879100914 0.50009336196514964 0.50009314456359022 0.3172605194835037 0.60764954800131843 0.74967380720968158 0.64286401495368228 0.50510768972307452 0.50013329779673066
decision_type=2 2 2 2 2 2 2 2 2 2 2 2 2 2 2 2 2 2 2 2 2 2 2 2 2 2 2 2 2 2 2 2 2 2 2 2 2 2 2 2 2 2 2 2 2 2 2 2 2 2 2 2 2 2 2 2 2 2 2 2 2 2 2 2 2 2 2 2 2 2 2 2 2 2 2 2 2 2 2 2 2 2 2 2 2 2 2 2 2 2 2 2 2 2
left_child=2 4 3 -1 8 12 25 -6 16 54 31 13 19 14 -5 21 52 61 -8 -3 48 -14 38 30 42 -7 80 -17 29 -29 -24 60 47 34 53 43 71 -13 -23 -40 51 92 46 -22 -27 -44 -25 59 49 70 -43 -41 -2 -19 -10 -35 -49 58 -50 -16 -4 64 -61 -57 84 74 67 -20 -69 -68 -21 72 -15 -73 -32 -54 78 -78 -60 -34 -12 82 -71 -84 -18 87 -87 -86 -66 91 -91 -37 -39 -28
right_child=1 5 10 11 7 6 18 -9 9 -11 26 37 15 36 32 27 17 33 66 20 35 22 23 24 -26 44 93 28 -30 -31 65 -33 79 55 -36 89 -38 41 39 40 -42 50 45 -45 -46 -47 -48 56 57 -51 -52 -53 75 -55 -56 63 -58 -59 76 62 -62 -63 -64 -65 88 -67 69 68 -70 81 -72 73 -74 -75 -76 -77 77 -79 -80 -81 -82 -83 83 -85 85 86 -88 -89 -90 90 -92 -93 -94 -95
leaf_value=-0.0089135160827536614 -0.00056172809866923798 -0.0013831118081981178 -0.00016026997659834182 0.003695521633788237 -0.0055607279899570058 -0.00017631817753368539 -0.00071523656609067548 -0.00057541665606487716 -0.00094778304201090333 1.4623750548156351e-05 -0.0016077295473871291 -0.0008467276364672034 -0.0017971424291277969 -0.00073241690505059171 0.00037129148304123656 0.0029181531304961388 0.0014482805541255167 0.00015921473750416903 -0.00026718317060903492 0.0021475047683223486 -0.0044511346234719995 -0.0017145380035153552 -0.0014779062854533289 0.0033636015058399215 -0.00050509821730890909 7.5174908897375476e-05 -0.00072566745129812771 -0.007870850556457417 0.00044867375320560343 0.00050284589497999379 0.0053081741883956165 -0.0013222026248196808 -0.0005044018388807597 -3.7707414512017467e-05 0.00018965019597500717 0.00036048497511284306 0.00098182673840379589 -0.00032206934675113239 0.0033340680355696856 -0.0029878647081639578 0.0035859399123855805 -0.00069440003413798472 0.0040917920379496039 -0.00038586592209216743 -0.00016667673216539265 0.00035063987902438033 -2.6573634193501044e-05 -0.00071475300864898923 -0.0023790140752343166 -0.0022206378588095653 -1.4338545104013562e-05 0.00046727203999507227 0.0001353072639028764 -0.0022878791807513545 -0.0047051022615979387 0.00035933785965156791 -4.8103042262906801e-05 0.0036127734385620527 0.00046855809156031965 0.004647501534843541 -0.0020930296426897857 0.00032785935717063872 0.00093568425544928683 0.00021279877203825374 8.1378991148612144e-06 0.00032374395844390685 -0.0016706720771457149 0.00051591115308605824 0.0057475865637323202 -0.00028887978486994976 -0.0012570674462115455 0.0011725386100130215 -0.0041573018307978519 -0.0024840003634218444 0.0013675433480023565 0.0012353646853528087 -0.0025838764590563911 0.00072918063695670641 0.0026853344295659554 -0.0020039268906860493 -0.0010247590657126726 -0.0011238291243639822 -0.00025594801356750978 0.003099391493913244 0.00043511956095331671 0.0023741718620294908 0.00062614703021223166 -0.00077447916304245758 0.00044518550863739659 0.0018831386858652538 -0.00062062346292168292 -0.0032074376042285496 -0.00071879614869427017 -0.0014086201206286275
leaf_weight=1588 17028 4844 1925 1693 3606 389053 104831 3269 774 368969 31683 88984 1054 813 22910 1488 7455 1850 67252 1472 1265 1340 1564 1617 1071 928508 140237 854 9886 1032 788 68570 41798 65796 7964 969 1044 48013 2466 778 1241 25416 7778 1042 192765 741 1571 17551 1168 2341 71946 5914 416848 4596 1882 778532 183398 859 4410 756 39484 284812 1381 510270 34455 1297 11707 1858 2802 312590 865 770 2540 1405 765 4880 1141 26319 4091 2691 35327 7843 719 1558 74500 5413 261282 8416 158055 1988 2497 1026 111644 12330
leaf_count=1588 17028 4844 1925 1693 3606 389053 104831 3269 774 368969 31683 88984 1054 813 22910 1488 7455 1850 67252 1472 1265 1340 1564 1617 1071 928508 140237 854 9886 1032 788 68570 41798 65796 7964 969 1044 48013 2466 778 1241 25416 7778 1042 192765 741 1571 17551 1168 2341 71946 5914 416848 4596 1882 778532 183398 859 4410 756 39484 284812 1381 510270 34455 1297 11707 1858 2802 312590 865 770 2540 1405 765 4880 1141 26319 4091 2691 35327 7843 719 1558 74500 5413 261282 8416 158055 1988 2497 1026 111644 12330
internal_value=-2.01847e-09 0.000121573 -0.000653962 -0.000391247 0.000258594 -7.35544e-05 -0.000109264 -0.00319531 0.000266485 -1.13583e-05 -0.00115319 -0.000369481 0.000651392 -0.000147029 -0.000103687 0.00120005 0.000305571 0.000342415 -0.000371559 0.000229512 0.000381839 0.00164412 0.00177047 0.00234829 0.00289278 -2.04772e-05 -0.000939771 0.000194122 -0.000149595 -0.00328906 0.000766026 -0.00157906 -0.000127608 0.0002755 -0.000602141 -0.000777116 -0.00193755 -0.000548633 0.0009219 0.00126421 0.000616574 -0.000445336 0.00320542 -0.00262844 3.35783e-05 0.00376912 0.00168928 -3.53481e-05 0.000621056 -0.000668674 -0.000192098 6.06667e-05 0.000120499 -0.00158288 -0.00362151 0.000284853 -0.000106444 0.000780473 0.00071393 0.000534159 -0.00200369 0.000452179 0.00226592 0.000301336 0.000516566 0.00200487 -0.000282835 -1.16151e-05 0.00366873 -0.000341096 0.000878828 -0.00249289 -0.00333515 -0.00118061 0.00339049 0.000148098 0.00081526 0.000590345 0.00153866 -0.000595768 -0.00130079 -0.000292776 -0.000271994 0.00203288 0.000597103 0.000578875 0.000661745 0.000312064 0.00036707 -0.000113409 0.000485589 -0.00146788 -0.000599629 -0.000781037
internal_weight=6.09758e+06 5.14168e+06 955897 626341 3.02065e+06 2.12103e+06 2.02149e+06 6875 3.01378e+06 371625 329556 624753 99542 278750 272178 43245 2.64215e+06 2.2034e+06 511160 56297 51453 29985 28931 17192 12778 1.51033e+06 219577 13260 11772 1886 4414 109979 270485 1.36901e+06 14410 8787 6572 346003 11739 10399 7933 257019 11707 2307 1.12127e+06 8519 3188 225996 42666 4678 97362 6692 438756 6446 2656 1.3546e+06 200949 37988 37129 25047 41409 834388 2137 1.2888e+06 549576 2850 406329 71912 4660 334417 2337 5528 3353 2175 1553 421728 35961 27460 8501 44489 67010 322710 314867 2277 357066 349611 266695 82916 192510 6480 4485 1995 159657 152567
internal_count=6097577 5141680 955897 626341 3020652 2121028 2021486 6875 3013777 371625 329556 624753 99542 278750 272178 43245 2642152 2203396 511160 56297 51453 29985 28931 17192 12778 1510326 219577 13260 11772 1886 4414 109979 270485 1369008 14410 8787 6572 346003 11739 10399 7933 257019 11707 2307 1121273 8519 3188 225996 42666 4678 97362 6692 438756 6446 2656 1354598 200949 37988 37129 25047 41409 834388 2137 1288802 549576 2850 406329 71912 4660 334417 2337 5528 3353 2175 1553 421728 35961 27460 8501 44489 67010 322710 314867 2277 357066 349611 266695 82916 192510 6480 4485 1995 159657 152567
is_linear=0
shrinkage=0.02


Tree=6
num_leaves=95
num_cat=0
split_feature=51 132 23 137 52 48 22 11 49 132 11 27 28 132 130 11 11 10 8 27 46 28 26 15 19 19 17 10 132 135 17 135 133 17 19 16 10 43 11 48 22 10 19 10 132 28 45 28 24 19 19 71 22 47 22 28 11 52 28 44 8 130 8 28 28 52 49 17 52 132 23 132 23 24 28 28 137 19 135 28 28 28 28 28 28 28 28 28 28 11 48 22 28 19
split_gain=1173.41 307.46 248.567 120.802 116.361 100.1 75.9582 72.6255 71.6602 62.6953 76.7422 59.9318 69.2309 57.112 51.0042 46.9202 46.0606 41.7727 72.6297 41.0175 36.6216 35.7377 60.0531 129.273 119.465 48.625 45.0832 31.8474 28.8813 84.0597 44.2741 52.381 42.9754 58.0159 35.3477 28.9593 28.8032 28.4995 31.0684 27.1825 30.3582 26.4022 26.3885 25.3354 25.2782 25.2269 25.1444 24.8764 49.7009 24.5991 23.9239 23.9088 23.8296 21.1854 20.6002 19.9321 22.6515 18.6153 18.2044 18.0507 17.7487 16.7353 16.579 16.0784 21.3312 15.8468 15.5889 15.5107 17.8105 15.1447 15.1123 14.8365 14.702 14.6112 14.5517 14.5461 14.4734 14.1754 14.8725 16.9295 14.0222 13.7567 22.3922 14.6017 13.6037 13.564 13.2393 12.6068 12.5219 11.871 11.8257 11.7928 11.319 12.4966
threshold=0.1920877199873619 0.10661312443657653 0.70625601059572329 0.98800685817448819 0.50013511687856471 0.93734923595643649 0.15126637627429998 0.10969823376341624 0.023795117500221178 0.014597696679260972 0.9430444516455786 0.31053480715375964 0.50009222539965936 0.11881690367950733 0.034962162011098877 0.18858065679485039 0.19250687601551716 0.012611473563751044 0.78277084020021404 0.06532020640354845 0.17744473081700865 0.50009258402079182 0.047871883714994526 0.72730501366447131 0.36897433871580493 0.26586381189393299 0.90791607852951683 0.71655218642759244 0.021219539152037448 0.015539221458380234 0.26980146390077819 0.012112553394028572 0.01571415222802813 0.41647410386218348 0.24588204769168889 0.31735538868642793 0.64555697170258608 0.95276137232451374 0.062780081977662008 0.26379713086559065 0.51881557589342886 0.98049892332918487 0.37697723120909604 0.04057376294038921 0.021219539152037448 0.50009314456359022 0.61048822592974261 0.50013504389172692 0.3622949822886552 0.26586381189393299 0.72190973571852568 0.71653470413032305 0.23631258085397497 0.12594728337261324 0.27705787624516848 0.50009637625647219 0.94669313620970785 0.36604605289896636 0.50010101010513264 0.76955598697929062 0.037912937718340999 0.029554247940604187 0.7906753946856041 0.50009324879100914 0.50009320533215484 0.21130335979443021 0.082428325186123405 0.26980146390077819 0.83069585683801872 0.044627495565301517 0.19859927337241315 0.053197824866424 0.99217608290161274 0.0073543189616694354 0.50009258402079182 0.50009266981823641 0.980094820806651 0.15362592758981611 0.018612834681319589 0.50010400416129153 0.50010956503868098 0.50009383503882943 0.50009324879100914 0.5000938878986777 0.50010587612612079 0.50011546014701269 0.50011795235381595 0.50013511687856471 0.50011520737938853 0.059091519546797554 0.55126360799373819 0.084856359103333265 0.50009324879100914 0.52896666138501158
decision_type=2 2 2 2 2 2 2 2 2 2 2 2 2 2 2 2 2 2 2 2 2 2 2 2 2 2 2 2 2 2 2 2 2 2 2 2 2 2 2 2 2 2 2 2 2 2 2 2 2 2 2 2 2 2 2 2 2 2 2 2 2 2 2 2 2 2 2 2 2 2 2 2 2 2 2 2 2 2 2 2 2 2 2 2 2 2 2 2 2 2 2 2 2 2
left_child=1 8 4 13 16 -5 14 66 9 10 62 12 19 61 42 -13 77 18 -11 49 76 22 23 25 -25 -14 -26 47 29 30 31 -23 33 -31 -34 67 46 38 87 40 58 55 -6 -39 -27 -16 -17 65 70 -8 63 84 -32 54 89 -19 -57 -40 -22 -41 -58 -4 73 64 -47 -18 -3 68 -30 -43 -49 -55 -62 -1 -48 -38 85 -2 79 -79 -53 82 -77 -83 -37 88 -87 -15 -9 -10 -21 -73 93 -42
right_child=2 7 3 5 6 -7 11 20 53 17 -12 15 21 37 45 36 27 41 -20 90 39 28 -24 24 26 44 -28 -29 35 32 52 -33 34 -35 -36 51 75 43 57 59 92 69 -44 -45 -46 50 74 48 -50 -51 -52 80 -54 71 -56 56 60 -59 -60 -61 72 -63 -64 -65 -66 -67 -68 -69 -70 -71 -72 91 -74 -75 -76 81 -78 78 -80 -81 -82 83 -84 -85 -86 86 -88 -89 -90 -91 -92 -93 -94 -95
leaf_value=-0.0038886269728860439 -0.00050193282912780251 -0.00090340085857712601 -0.0013537503913696131 -0.00017640639295189682 -0.0022245301789502294 -0.0053209659091006624 0.0014497261398286755 -0.00014278448158482372 -0.0010377521103660825 -0.0077359600591177056 0.0049163115714288439 -0.00021492548558570886 0.00025459331177654946 -0.0004752890749492895 0.0012849839189165019 0.00038501841979719011 -5.5126622772636331e-05 -0.0018929961617870277 -0.0020384875070565069 0.0003485285556145011 -0.00084042359530616013 0.00011961135159501083 0.00020834398586340138 -0.0066915705176091361 -0.00099922525548386395 -0.0086824341382778867 0.0024322983575341436 -8.0673155164799336e-05 -5.515968972144265e-05 -0.001161490338397117 -0.0024593776709421365 -0.0035911492433377563 0.00058909244729296823 0.0017889726106724232 0.002709020352367537 0.00046233473247851633 0.0006159362633833842 -0.0025766755989102444 -0.00013376485818726014 -6.716702526576641e-05 0.00038466514901435399 -0.0029047170657099681 -0.0063646653448142911 -0.00031710039548796465 -0.0043518702109863255 -0.0010891885864393479 0.00070523418316171182 -0.0031788548213415781 0.0007118117142276716 0.0045199658935730852 0.0004058323978447462 0.00084570081939983749 0.00058817808176369734 -0.001538003316358905 0.0013044500642277826 -0.0012878441952804138 -0.0019750469456501925 7.4030850748198622e-05 -0.0004372294530427199 -0.000385616806924015 0.00020655407807319574 -0.00044287422730742722 0.0009659847638304167 0.00044392490846834612 -0.0039659631890635542 0.00021482137422411556 -0.00054200335593511438 0.00019724799837738505 -0.0013242846676067277 -0.0016708462587432574 -0.0010430417402392347 -0.0013080325871281341 0.0036130221624552541 -0.00028689470483232022 0.00015798127358981101 4.5753248398002661e-05 0.0013380723234703721 0.0011533730704431334 -0.00016937344156626368 -0.00045870366915336572 0.00039937001522718688 0.0018533270988596738 -0.00082436007290696031 9.1484376526883965e-05 0.00028866773805085279 0.0010156978948786999 9.7790455618734578e-05 -0.0019329584904887037 -0.0022912116119750896 -0.00058898018036229987 0.0015272463053136126 -0.00082095876770776086 -0.00021641805682093743 0.0024937031559806176
leaf_weight=930 50288 93569 8632 2827 1864 3271 1776 104765 36889 1218 1264 97441 772 36798 2245 543239 98813 22996 3421 5492 83855 4024 55267 881 2448 705 4048 267987 16692 4322 1047 2432 4095 6920 14000 373053 18887 2018 257013 135523 7941 8480 941 114232 2599 2227 20378 2712 4547 2635 2687 76815 38822 24853 1980 40744 838 524031 96911 150419 1441 128682 1089 928 1965 719624 98475 81969 6031 7771 2673 30123 789 896 430010 34673 3115 7312 161865 4022 44811 1892 17922 254546 351363 7412 41690 2545 1093 66582 9189 60108 13771 1313
leaf_count=930 50288 93569 8632 2827 1864 3271 1776 104765 36889 1218 1264 97441 772 36798 2245 543239 98813 22996 3421 5492 83855 4024 55267 881 2448 705 4048 267987 16692 4322 1047 2432 4095 6920 14000 373053 18887 2018 257013 135523 7941 8480 941 114232 2599 2227 20378 2712 4547 2635 2687 76815 38822 24853 1980 40744 838 524031 96911 150419 1441 128682 1089 928 1965 719624 98475 81969 6031 7771 2673 30123 789 896 430010 34673 3115 7312 161865 4022 44811 1892 17922 254546 351363 7412 41690 2545 1093 66582 9189 60108 13771 1313
internal_value=-1.09914e-06 -0.000575861 0.000132854 -0.000135363 0.000207833 -0.00294135 0.000286888 -0.000376565 -0.00111155 -0.00158115 0.000808133 0.000294684 0.000404627 -0.000119398 -0.0012459 0.000208494 5.54353e-05 -0.00169527 -0.00354542 0.00159879 -0.000275248 0.000383744 -6.45203e-05 -0.0013825 0.000194835 -0.00423891 0.00113629 0.000108791 0.000412903 0.000789224 0.000258153 -0.00127685 0.00162695 0.000652873 0.00223067 0.000382929 0.00023973 -6.35285e-05 -2.19727e-05 -0.000360682 -0.000537256 -0.00159149 -0.0036294 -0.000356606 -0.00529368 -0.000577321 0.000293376 0.000170109 -0.000824197 0.00329137 -0.00111589 0.000421763 0.000507346 -0.000915781 -0.0007104 -0.00141465 -0.00116293 5.62686e-06 -0.000624395 -0.00023476 0.00048892 -0.000500328 -0.000971771 -0.00191802 -0.00244556 0.000182205 -0.000718209 6.89115e-05 -0.0003931 -0.00231662 -0.00212434 -0.00110376 0.00142614 -0.00213783 0.000182794 7.71146e-05 -1.04358e-05 -0.000206218 -0.000120231 0.000579595 0.000681446 4.41096e-05 -0.000250412 0.000104597 0.000378131 -3.77148e-05 0.000236846 -0.000570324 -0.000165263 -0.00074921 0.00108793 -0.00098385 0.000145978 0.00068725
internal_weight=6.09621e+06 1.15226e+06 4.94394e+06 1.08005e+06 3.8639e+06 6098 2.54405e+06 839852 312412 91877 4179 2.5312e+06 1.11221e+06 1.07395e+06 12857 1.41899e+06 1.31984e+06 87698 4639 19092 647808 1.09312e+06 66720 11453 7377 4076 6496 1.09636e+06 1.0264e+06 75662 46325 6456 29337 11242 18095 950734 1.32155e+06 936637 820387 489733 203791 83059 2805 116250 3304 10052 993627 828369 9932 4411 7807 846042 39869 220535 105451 66808 43812 781044 180766 285942 3068 137314 2915 5120 4192 818437 192044 104692 22723 16251 5385 115084 2230 1826 450388 327920 158075 223487 173199 11334 121626 309033 52595 256438 724416 154960 49102 39343 105858 103471 14681 90231 23025 9254
internal_count=6096209 1152264 4943945 1080049 3863896 6098 2544053 839852 312412 91877 4179 2531196 1112208 1073951 12857 1418988 1319843 87698 4639 19092 647808 1093116 66720 11453 7377 4076 6496 1096356 1026396 75662 46325 6456 29337 11242 18095 950734 1321547 936637 820387 489733 203791 83059 2805 116250 3304 10052 993627 828369 9932 4411 7807 846042 39869 220535 105451 66808 43812 781044 180766 285942 3068 137314 2915 5120 4192 818437 192044 104692 22723 16251 5385 115084 2230 1826 450388 327920 158075 223487 173199 11334 121626 309033 52595 256438 724416 154960 49102 39343 105858 103471 14681 90231 23025 9254
is_linear=0
shrinkage=0.02


Tree=7
num_leaves=95
num_cat=0
split_feature=21 1 1 11 19 133 1 1 43 1 1 135 22 137 1 52 51 134 52 28 137 28 19 17 129 17 134 17 13 28 28 23 19 12 44 135 28 43 21 28 14 137 70 49 49 28 129 135 28 1 21 28 28 13 28 28 28 28 28 24 21 21 43 27 19 19 44 52 24 44 129 50 13 2 49 28 28 22 28 27 136 17 22 129 14 13 24 72 44 137 28 28 28 28
split_gain=1108.17 318.501 285.513 266.603 150.099 127.156 109.941 84.5939 83.8673 129.723 62.6972 55.9492 65.7269 69.8077 55.1859 52.2222 50.6098 62.4489 50.1698 49.042 48.4141 47.0931 44.5463 42.9402 46.9075 38.6059 60.9766 37.4725 36.228 32.0169 31.9001 42.237 31.548 29.9076 31.9792 28.9344 28.8551 26.1288 25.9136 25.2989 25.1685 24.3647 23.2284 22.9036 21.9734 21.5425 21.1199 21.0005 29.0525 20.2068 19.6662 19.1432 18.9321 26.2278 24.1892 18.3039 18.1044 108.917 67.2743 79.857 17.4928 16.6766 16.3483 16.2527 15.5504 15.2592 15.1427 15.0978 14.6148 14.5885 14.5558 13.9817 13.8645 19.0567 13.657 13.4906 15.4488 13.3914 13.36 13.3059 15.7795 22.9489 19.9791 17.6407 30.1182 17.1761 13.2361 12.861 12.7535 12.4173 12.3872 25.097 12.3865 139.899
threshold=0.15939033103481395 0.5317741380927079 0.88556859269840549 0.0039390387649440271 0.99619779653705709 0.020001843657817115 0.85466622380808865 0.011394656401847182 0.7725772732961832 0.011394656401847182 0.98441652380566758 0.015539221458380234 0.16733929625042479 0.017958908343017891 0.64182724434249461 0.17875429230486944 0.62900420294130266 0.0094134349768643689 0.50013511687856471 0.50009324879100914 0.018978325054695631 0.50009640412699274 0.26586381189393299 0.52616250797284048 0.016068977542706607 0.26980146390077819 0.013286095046552546 0.41247962831609825 0.11863215930848002 0.50009360666561486 0.50013504389172692 0.19859927337241315 0.36105514142697342 0.15291904644886281 0.384950824327912 0.018612834681319589 0.50009470593891192 0.76072934631844213 0.24815136451229144 0.50009222539965936 0.43992370068608344 0.97655576474089234 0.72139370181852536 0.29280695827714398 0.051377996099984773 0.50013435442940368 0.016792810855322044 0.010719494205953943 0.50010567474379219 0.087406767252262416 0.44644975678793125 0.5001092538083064 0.5001089680736488 0.32528272678634046 0.50009266981823641 0.50013347571693323 0.50009324879100914 0.50009342302269355 0.50009320533215484 0.71034418026578983 0.47393614216397151 0.96065310702381312 0.45533003759569707 0.086233282578826412 0.51337415170050649 0.011662502974066145 0.7965356600168888 0.20335672859912637 0.99603799369865831 0.51262025354322038 0.020591146069475364 0.075308982796695109 0.023936695836431987 0.99237011717393397 0.0036769534448925357 0.50009324879100914 0.5000938878986777 0.39604218245338513 0.50009654374870938 0.48418170065166005 0.015647488938393787 0.38796970038356215 0.44493843625093071 0.013358774531112514 0.75999176615891317 0.57433004333454041 0.97246406097499649 0.10535519933437744 0.30979346486021148 0.98800685817448819 0.50013511687856471 0.50013504389172692 0.50009324879100914 0.50009320533215484
decision_type=2 2 2 2 2 2 2 2 2 2 2 2 2 2 2 2 2 2 2 2 2 2 2 2 2 2 2 2 2 2 2 2 2 2 2 2 2 2 2 2 2 2 2 2 2 2 2 2 2 2 2 2 2 2 2 2 2 2 2 2 2 2 2 2 2 2 2 2 2 2 2 2 2 2 2 2 2 2 2 2 2 2 2 2 2 2 2 2 2 2 2 2 2 2
left_child=2 4 3 -1 8 11 15 -6 18 41 21 25 19 22 16 -7 17 -5 30 32 23 44 27 24 60 26 47 -14 -8 -29 67 -32 -13 -20 39 50 61 49 -27 63 75 -10 -16 -17 -4 52 79 -3 -49 68 -24 71 54 -54 -41 -53 58 62 -45 64 -15 -22 -58 -35 -60 -51 -59 -2 89 -33 -23 -44 -12 74 -74 88 -77 -11 -72 80 83 85 -83 -40 -85 -82 -39 -36 -18 -19 91 -68 93 -30
right_child=1 5 10 14 7 6 28 -9 9 77 72 12 13 20 42 43 40 37 33 -21 36 70 35 -25 -26 38 -28 29 92 -31 31 69 -34 34 87 -37 -38 86 46 45 -42 -43 51 56 -46 -47 -48 48 -50 65 -52 55 53 -55 -56 -57 57 66 59 -61 -62 -63 -64 -65 -66 -67 90 -69 -70 -71 78 -73 73 -75 -76 76 -78 -79 -80 -81 81 82 -84 84 -86 -87 -88 -89 -90 -91 -92 -93 -94 -95
leaf_value=-0.0086275369755058427 -5.6076731056082386e-05 -0.0012946958353993376 -0.0017038704933770683 0.0037625954217285072 -0.0054092028086871668 -0.00032238066330526899 -0.00080009493194661678 -0.00046128719399432771 -0.0015979215388132473 -0.00020940560135267812 -0.0020671273013686087 -0.0013859881421252325 -0.0011510087800299955 -0.0026915014671951756 -0.00081461862380501375 -0.00012844109255506702 -0.0038807641322231015 0.00024950953090610047 2.3294506574658764e-05 0.0019909252761160664 0.002162069447855092 -0.0016651469098195703 0.0041671601236791637 0.0032574977192965301 -0.0057977076846750545 -0.0012296624756143162 -0.0035663805206378632 0.0049878864450759799 -0.00031120471509031247 -0.00035292901697951234 -0.0028808257677772286 -0.00085924803201727399 -0.0070048887754774539 0.0027583292791987049 0.00013523943793143677 -0.0002504272211105369 0.00042305957712101514 -0.00045473711750115283 0.00055495576885940582 7.4915065431538453e-05 0.00098462385230873705 -0.0051749320767330055 -0.00079311002813493012 0.00015616372688957481 -0.0010572808211280788 0.0012494729965107155 0.0031274595805819358 0.0029458738367983029 -0.0010925033729196317 -0.0016362868641416855 0.0024035119811257879 -0.00012157002634221136 -2.7509322232256378e-05 0.00040995418981661428 0.00054730553566835656 -0.00099754171824494595 -9.7842579601515128e-05 0.00011557155574034554 -0.0006956093346814937 0.0043085493946345707 0.00062790165753371047 -0.00095978232347374763 -0.0016569320663711526 0.00097247669842546504 0.001519149803372134 -9.0761624323704978e-05 -6.7659561536703513e-05 0.00020595507766228303 0.0028296238913632739 0.0011041754449933792 0.0013269887002644617 -0.00041028087103483135 -0.0028295472848094091 0.0012767297255818625 -0.0013479693926864416 0.0011334696263723184 -0.0024193938822092832 7.5099055939977646e-05 -0.0007872730054881566 -0.0009263973724718018 -0.0022463358005554834 0.0039687022707644614 0.0011147390549734986 -0.0017695711139303172 0.0026194140677342709 0.0012690264509991464 -0.0015793677029650899 0.0003234819153882605 -0.00081200530117961996 0.0018698604286542604 -0.0014383325816317554 0.0027841322826135445 -0.00036664185443507766 0.0035381905752022874
leaf_weight=1557 101454 2213 41678 1654 2883 214355 73825 2671 1205 85867 26101 874 2192 1046 83629 342548 2612 22825 106971 807 8815 7669 5673 711 990 3517 2637 1050 55327 769 3165 3641 754 2661 180038 955 11256 39329 30902 47841 1011 2189 65134 171314 43044 13099 1235 1725 1199 2585 4759 89964 72238 226254 473502 10683 3216 567764 2624 3474 1585 730 17384 9033 2434 201627 259709 655418 1017 2582 1192 93104 2842 1004 22055 742 1389 288440 183622 2531 905 1793 2230 3078 777 1422 4704 758743 709 2065 2608 1235 279400 4048
leaf_count=1557 101454 2213 41678 1654 2883 214355 73825 2671 1205 85867 26101 874 2192 1046 83629 342548 2612 22825 106971 807 8815 7669 5673 711 990 3517 2637 1050 55327 769 3165 3641 754 2661 180038 955 11256 39329 30902 47841 1011 2189 65134 171314 43044 13099 1235 1725 1199 2585 4759 89964 72238 226254 473502 10683 3216 567764 2624 3474 1585 730 17384 9033 2434 201627 259709 655418 1017 2582 1192 93104 2842 1004 22055 742 1389 288440 183622 2531 905 1793 2230 3078 777 1422 4704 758743 709 2065 2608 1235 279400 4048
internal_value=1.69536e-07 0.000116438 -0.000625263 -0.000374572 0.000247301 -7.29506e-05 -0.000107593 -0.00303583 0.000253322 -2.54892e-05 -0.00110215 0.000626195 0.00116949 0.00136157 -0.000353904 -3.2034e-05 -0.000146746 -0.000105657 0.000292969 -0.00201572 0.000710531 -0.000982403 0.00242234 -0.00120977 -0.00209573 0.000210143 -0.00109693 0.000602661 -0.000398473 0.00272426 0.000156408 -0.00100165 -0.00401408 0.000348312 0.000367796 0.00306101 0.00111161 -0.000129136 0.000420633 0.000457124 -0.00189568 -0.00391506 -0.000524562 1.32386e-05 -0.00137568 0.000444113 0.000550546 0.000169069 0.00128405 -4.36271e-05 0.00336605 -0.000430772 0.000431213 0.000304018 0.000503996 -0.000214792 6.02965e-05 2.17769e-05 0.000242644 0.00197562 -0.0006868 0.00192084 -0.00141459 0.00138157 0.00036667 -0.000110463 5.74023e-05 0.000170805 0.000482355 -4.11555e-05 -0.000809165 -0.000568008 -0.00173992 -0.00140908 -0.00151843 -0.00243388 -0.00117319 9.77759e-06 -0.000773493 0.000476809 0.000563794 0.00148134 0.00239503 0.000395398 -0.000877514 -9.14515e-05 -0.0005755 0.000287403 -0.00323383 0.000385094 -6.78342e-05 -5.40328e-05 -0.000310883 -4.81525e-05
internal_weight=6.09584e+06 5.14029e+06 955547 626340 3.0399e+06 2.1004e+06 2.00126e+06 5554 3.03434e+06 377701 329207 99130 42966 40531 624783 1.58866e+06 282269 275806 2.65664e+06 2435 25133 277205 15398 4332 3621 56164 7774 4011 412600 1819 766260 9388 1628 1.89038e+06 1.78341e+06 11387 20801 274152 48390 844628 6463 3394 342514 1.37431e+06 84722 832934 44873 5137 2924 230119 10432 258885 819835 298492 521343 100647 1.03176e+06 851916 179846 8532 2631 9545 20600 11694 5058 204212 831316 756872 25907 6223 192483 158238 52002 25901 24897 5452 2131 374307 184814 43638 41107 6350 4023 34757 3855 2327 44033 938781 3321 24890 263552 260944 338775 59375
internal_count=6095837 5140290 955547 626340 3039895 2100395 2001265 5554 3034341 377701 329207 99130 42966 40531 624783 1588665 282269 275806 2656640 2435 25133 277205 15398 4332 3621 56164 7774 4011 412600 1819 766260 9388 1628 1890380 1783409 11387 20801 274152 48390 844628 6463 3394 342514 1374310 84722 832934 44873 5137 2924 230119 10432 258885 819835 298492 521343 100647 1031762 851916 179846 8532 2631 9545 20600 11694 5058 204212 831316 756872 25907 6223 192483 158238 52002 25901 24897 5452 2131 374307 184814 43638 41107 6350 4023 34757 3855 2327 44033 938781 3321 24890 263552 260944 338775 59375
is_linear=0
shrinkage=0.02


Tree=8
num_leaves=95
num_cat=0
split_feature=21 1 1 11 18 133 1 1 43 1 132 1 22 135 132 18 134 11 51 17 18 14 17 134 25 29 17 132 47 48 19 29 29 29 43 20 29 14 29 19 29 132 29 27 29 29 29 29 29 29 19 27 43 29 29 20 47 20 29 11 48 136 46 134 20 29 15 71 134 19 19 22 18 17 19 15 20 22 20 136 19 17 18 29 29 29 24 0 18 0 47 29 29 29
split_gain=1088.87 297.352 281.167 258.265 188.595 120.869 94.9607 91.5355 72.2185 72.8819 68.2446 63.5782 61.977 62.3773 66.2869 55.0919 47.5951 44.3751 40.8073 37.9323 35.225 37.9467 34.8789 59.2462 32.5889 30.7388 30.571 30.2994 30.28 28.0435 27.0171 26.5637 26.1983 40.9343 25.4863 25.0649 24.4847 23.9314 23.493 22.9765 22.7969 22.6482 21.949 27.4504 24.4657 103.784 76.0717 21.7426 90.0612 89.7698 88.031 50.6672 43.7129 38.1454 34.779 25.0046 26.6281 21.7448 21.3172 20.8839 20.8335 20.644 20.5458 20.0445 18.7922 21.2089 18.4121 18.3457 18.141 17.5936 16.6172 18.1028 23.2754 21.4018 16.1504 23.716 19.0465 27.4176 17.442 23.288 17.0798 18.1414 16.1252 15.9835 168.318 42.0277 40.3166 15.8813 15.3691 15.2969 14.7363 14.5756 14.1461 29.5479
threshold=0.18009379453525456 0.88556859269840549 0.52800222551928788 0.0039390387649440271 0.99209634898620147 0.020001843657817115 0.011394656401847182 0.85837827450817472 0.71398882505223549 0.011394656401847182 0.060935858157761653 0.60664207207322218 0.15126637627429998 0.015539221458380234 0.018549571315198087 0.23285169570306943 0.0094134349768643689 0.21592200297699107 0.62105216061047142 0.18391713234291948 0.56893581499536838 0.36496988289041282 0.26980146390077819 0.013286095046552546 0.500135648409333 0.50009640412699274 0.16306820022319121 0.077492472515233973 0.4010945232410339 0.027812539299130506 0.23795915453555463 0.50009470593891192 0.50010587612612079 0.50010474495639934 0.8206801598394059 0.11485474865945014 0.50009284189106118 0.67325713885946048 0.5001092538083064 0.33339684498230632 0.50009360666561486 0.017868776329733389 0.50009222539965936 0.17603489619375953 0.50009324879100914 0.50009314456359022 0.50009336196514964 0.50009324879100914 0.50009314456359022 0.50009346667994559 0.61598874968180584 0.56566668961854394 0.45958810805293521 0.50009320533215484 0.50009303191075039 0.83801316117527513 0.64340758522149899 0.42357880881621307 0.50009306654338415 0.13351020742613665 0.27177196011476662 0.97547970080417024 0.0053551008018974484 0.016689549720424194 0.29904988304020852 0.50013498921070321 0.43144934345652169 0.33389876250937839 0.43115836409455049 0.40967591897974498 0.58057726786049246 0.3013428330701573 0.34733705615753058 0.32667501353682732 0.30118568839215337 0.40343154413876586 0.67914074760599441 0.58665846362501994 0.59201651679994749 0.015647488938393787 0.24981209750310704 0.53021069623114758 0.80408647825210366 0.50009324879100914 0.50009320533215484 0.50009346667994559 0.73007775134477482 0.012287774539385534 0.42346739623730539 0.33550428595493847 0.07751745389763591 0.50009860960553454 0.50013511687856471 0.50013504389172692
decision_type=2 2 2 2 2 2 2 2 2 2 2 2 2 2 2 2 2 2 2 2 2 2 2 2 2 2 2 2 2 2 2 2 2 2 2 2 2 2 2 2 2 2 2 2 2 2 2 2 2 2 2 2 2 2 2 2 2 2 2 2 2 2 2 2 2 2 2 2 2 2 2 2 2 2 2 2 2 2 2 2 2 2 2 2 2 2 2 2 2 2 2 2 2 2
left_child=1 3 4 -1 8 12 -6 19 17 61 29 16 -4 22 15 41 62 -2 34 -7 31 36 23 -14 32 -12 37 -13 38 87 -9 70 33 42 59 -20 -22 -17 -29 -35 -28 -15 43 89 45 -44 -46 48 54 52 55 -52 -49 -53 57 56 -50 -21 -56 -18 -51 -10 -5 74 65 -34 -25 88 -62 -33 71 72 -16 -73 75 80 78 91 79 -76 81 -24 -79 84 -32 -85 -86 -3 -66 -19 -61 -78 93 -87
right_child=2 10 5 11 6 7 -8 30 9 -11 25 27 13 14 20 26 18 24 35 47 21 -23 63 66 -26 -27 40 28 -30 -31 83 69 64 39 -36 -37 -38 -39 -40 -41 -42 -43 44 -45 46 -47 -48 49 50 60 51 53 -54 -55 58 -57 -58 -59 -60 90 68 -63 -64 -65 67 -67 -68 -69 -70 -71 -72 73 -74 -75 76 -77 77 82 -80 -81 -82 -83 -84 85 86 92 -88 -89 -90 -91 -92 -93 -94 -95
leaf_value=-0.0084149709405057661 -0.00017964831496175321 -0.0028642943688099972 -0.0036333394910468592 0.004788330939404362 -0.0053028399714115113 -0.00025312314542106029 -0.00057432629651726517 -0.00061574844561320893 -0.0008740660255995154 5.8418435226050724e-05 -0.0012112622212807544 -0.00088566512067696798 0.00029851452597417334 -0.0023795119696274933 0.0024516846276333945 -0.00059198048493710803 -0.00077475754335620123 0.0035738067841696287 -0.0035321914277488763 -0.00019651571965278479 -0.0056693477325401101 0.00032702908508907863 0.00014100680608254823 -0.0015905131527250574 0.00019748460790569515 -0.00071086554443953304 0.0042559516142313724 -0.00044913189067590734 -0.00069716701195977979 -0.0011698579385244852 -0.00025704119743003522 -0.00069756224753402332 5.0067977398649856e-05 0.0001710084368736085 -0.00062460527184769212 -0.00091061812009170348 -0.00058456299859806053 0.0036782857193280523 -4.8764659510103799e-05 0.0013354857109797919 0.001658886557296466 0.0014258928495106168 0.00036451971658832578 0.00050117845441849677 0.0019842856238995545 -0.0009324453102322217 0.00042490826025162916 0.00029182483084299053 -0.00028008154963223296 -0.00014374870266838964 0.0003484882141017759 0.0020173376771442644 -0.0014678719810764117 0.0048817208048336294 -0.0017860518657638528 -0.0019125607292449366 0.0013328768616221198 0.000263628099432993 -0.00030990683264150326 0.00023287112486574565 0.00016471856001257806 -0.0043706295632423772 0.00052010154207596867 0.0030982775148751347 -0.00015029528132635769 -0.0017649347710461875 -0.0050165415359561547 0.00039165513419591195 -2.7202966281037818e-05 0.0013240846667944195 -9.0116208229079584e-05 0.0059470152137546953 -0.0020545936537489408 0.0023946636103407541 0.00024960046829442423 -0.0023854814462750764 -0.0038557783074425131 0.0011956404629251134 0.0017604527158776202 0.0018230316803184371 -0.0014302338548537446 0.0034375408728665839 -0.0010812198669612582 -0.0017004392578552205 0.00082778888054104956 -0.00025967193005042069 0.0058003751818301108 -0.0016844930334159558 0.00024973397889734564 0.0014805073897078836 -9.2939216608560392e-05 -0.00087428149110890048 -0.0011820714105905139 0.0024942342381528431
leaf_weight=1579 74529 5126 1337 1112 3599 244457 3236 122558 1088 512958 70514 65378 4738 1060 1107 1370 14175 1860 1894 58727 741 9211 2503 1185 669846 163360 6354 152443 107559 61939 41409 3260 81694 8827 32102 6487 792 839 95453 29807 1764 1509 229113 14011 12774 27647 621364 7301 7088 260143 2666 3498 24628 4075 5868 1671 9627 136418 11868 82697 370088 1862 778 1117 46975 2654 1400 415802 420913 3623 1298 783 772 5580 19617 1920 888 4522 5992 4665 1673 913 1703 8551 913 191257 2386 47121 209480 5928 168950 2596 6561 1565
leaf_count=1579 74529 5126 1337 1112 3599 244457 3236 122558 1088 512958 70514 65378 4738 1060 1107 1370 14175 1860 1894 58727 741 9211 2503 1185 669846 163360 6354 152443 107559 61939 41409 3260 81694 8827 32102 6487 792 839 95453 29807 1764 1509 229113 14011 12774 27647 621364 7301 7088 260143 2666 3498 24628 4075 5868 1671 9627 136418 11868 82697 370088 1862 778 1117 46975 2654 1400 415802 420913 3623 1298 783 772 5580 19617 1920 888 4522 5992 4665 1673 913 1703 8551 913 191257 2386 47121 209480 5928 168950 2596 6561 1565
internal_value=-1.70241e-07 -0.000576646 0.000123792 -0.000347405 0.000247818 -5.69788e-05 -0.00306913 -9.13359e-05 0.000255468 4.03385e-05 -0.00105777 -0.000329847 0.00063262 0.000692743 0.00129408 0.00247526 -0.00011151 0.000300717 -0.00013112 -2.42152e-05 0.00073229 -0.000156417 0.000257696 -0.0010269 0.000315783 -0.000861845 0.00312705 -0.000489694 -0.000416796 -0.00145883 -0.000371968 0.00131477 0.000362166 0.000432059 -9.2317e-05 -0.0015072 -0.00306582 0.00102552 -0.000295054 0.00107 0.00369545 -0.000138065 0.000405028 0.00103254 0.000389645 0.000224774 0.000456367 1.80165e-05 0.00018962 -2.02303e-05 0.00124279 0.00272891 -0.00106488 0.00356349 4.78856e-05 0.000413583 0.000647826 0.000125048 -0.000799786 -2.79494e-05 1.14875e-05 -0.00309148 0.00304792 0.000453734 0.000274256 -6.905e-06 -0.00345983 0.000309563 6.25671e-05 0.000363856 0.00199821 0.00232937 0.000589094 0.00283927 0.000390125 -0.000493681 0.000545598 -0.00022352 0.000792914 0.000553021 0.000217781 0.00103166 0.000569172 -0.00025362 8.90905e-05 -0.000327403 0.0044336 -0.00180089 0.000176381 0.00198499 1.40526e-05 -0.00164437 -0.000268376 -0.000237153
internal_weight=6.09479e+06 1.07867e+06 5.01612e+06 730607 2.97505e+06 2.04107e+06 6835 1.94424e+06 2.96822e+06 515908 348060 729028 96832 95495 40063 12896 308195 2.45231e+06 306305 1.56904e+06 27167 10744 55432 7323 2.37778e+06 233874 10327 420833 355455 114186 375200 16423 1.70794e+06 951331 297924 8381 1533 2209 247896 38634 8118 2569 912697 21799 890898 256760 634138 1.32458e+06 241506 1.08307e+06 28625 10239 31929 7573 212881 18386 16715 195145 17736 265822 1.05114e+06 2950 1890 48109 756605 84348 2585 672257 791001 6883 9540 8242 1879 6363 46992 7009 39983 9709 30274 24282 5089 3416 6225 252642 44708 207934 3299 52247 256455 7788 251647 3484 199383 192822
internal_count=6094789 1078667 5016122 730607 2975054 2041068 6835 1944236 2968219 515908 348060 729028 96832 95495 40063 12896 308195 2452311 306305 1569036 27167 10744 55432 7323 2377782 233874 10327 420833 355455 114186 375200 16423 1707936 951331 297924 8381 1533 2209 247896 38634 8118 2569 912697 21799 890898 256760 634138 1324579 241506 1083073 28625 10239 31929 7573 212881 18386 16715 195145 17736 265822 1051144 2950 1890 48109 756605 84348 2585 672257 791001 6883 9540 8242 1879 6363 46992 7009 39983 9709 30274 24282 5089 3416 6225 252642 44708 207934 3299 52247 256455 7788 251647 3484 199383 192822
is_linear=0
shrinkage=0.02


Tree=9
num_leaves=95
num_cat=0
split_feature=51 132 1 18 13 1 133 1 49 43 1 12 1 1 22 28 135 1 132 19 13 135 18 14 1 20 21 22 28 48 137 24 1 43 52 20 135 1 10 28 13 28 20 1 20 12 28 28 52 28 15 13 21 28 22 18 28 28 130 28 19 15 12 24 24 12 28 28 28 28 28 28 22 27 69 48 16 28 22 14 16 14 18 15 28 71 131 28 43 16 28 28 132 128
split_gain=1046.37 281.858 247.512 184.827 99.1538 86.5416 81.7216 72.1498 70.0634 69.9823 66.8144 61.8088 131.283 126.397 57.369 55.0785 51.5896 50.2626 43.1655 67.2276 41.3787 33.6384 30.3643 40.8964 27.2419 26.9045 32.288 29.1356 25.8721 25.5625 22.7051 22.4444 21.7958 29.9684 21.6675 20.1222 26.2237 23.8998 19.7813 18.8118 18.7846 26.7545 25.4588 18.7373 17.7464 16.3108 16.2309 18.6035 15.9562 24.7895 15.6943 24.819 24.666 18.5207 15.0305 14.6608 14.5473 26.4725 14.8544 82.3658 28.7985 54.0339 14.4475 14.3147 14.2841 14.2722 14.2401 22.5077 73.4461 56.183 14.0456 19.7094 24.2981 15.7781 14.6781 13.6507 13.2802 12.7599 21.6392 15.723 12.3875 24.8338 17.234 12.3546 12.3103 12.1479 12.1451 12.0483 17.7284 15.2182 16.1782 14.8106 11.738 11.4236
threshold=0.19621116032264799 0.10661312443657653 0.52800222551928788 0.99209634898620147 0.11456952168238708 0.011394656401847182 0.020001843657817115 0.80381484804085057 0.019967060664648508 0.71006314284579652 0.011394656401847182 0.0040676768053807535 0.0071171774837567097 0.5317741380927079 0.15126637627429998 0.50011909015293365 0.015539221458380234 0.81929520783670085 0.018549571315198087 0.26191620098020957 0.21733105281905765 0.68825866650468004 0.56893581499536838 0.35688880176467191 0.91728730016063653 0.73161205581605571 0.244068281830882 0.56236464540261 0.50009324879100914 0.13399191463520058 0.980094820806651 0.035633271435276566 0.1498160962678998 0.93739843603340278 0.33380414688318777 0.11113939911493941 0.018612834681319589 0.91331444955680774 0.97668286862301923 0.50009860960553454 0.45189587400009767 0.50010801471016164 0.25100110766697054 0.3154504403718244 0.34719585019440774 0.15291904644886281 0.50013511687856471 0.50013504389172692 0.11795920100965974 0.50010772380743729 0.41937439227444645 0.19374570032096478 0.39806274524521401 0.50009470593891192 0.54651458365353933 0.53335183128244645 0.50013511687856471 0.50013504389172692 0.021437812596912732 0.50009222539965936 0.64333714274920206 0.73114094213516612 0.027910293588066949 0.044017700735175837 0.86297338328999262 0.051206951412163297 0.50009766578860637 0.50009324879100914 0.50009320533215484 0.50009342302269355 0.50013406623112677 0.50010629252181049 0.37569054149614156 0.50013486176914201 0.35876446788391081 0.12216741603616431 0.817747191313971 0.5000937294974962 0.26075026812121632 0.21715990912660912 0.26129021753129178 0.18926557330032925 0.2129799866156705 0.16011833288686381 0.50009266981823641 0.74023895465841638 0.028813537990067525 0.5001089680736488 0.36011934127277662 0.32132815964523292 0.50009324879100914 0.50011265068313759 0.044627495565301517 0.01592686848562597
decision_type=2 2 2 2 2 2 2 2 2 2 2 2 2 2 2 2 2 2 2 2 2 2 2 2 2 2 2 2 2 2 2 2 2 2 2 2 2 2 2 2 2 2 2 2 2 2 2 2 2 2 2 2 2 2 2 2 2 2 2 2 2 2 2 2 2 2 2 2 2 2 2 2 2 2 2 2 2 2 2 2 2 2 2 2 2 2 2 2 2 2 2 2 2 2
left_child=1 8 3 9 24 -5 14 32 11 20 30 13 15 -1 28 -13 25 34 19 -18 31 43 50 -24 62 26 80 39 -6 70 -11 83 33 -3 -8 37 -37 -10 -14 -27 41 42 -28 87 -12 -23 47 66 49 54 51 -20 -52 -54 75 -43 57 58 59 -19 76 -62 -4 -60 -59 -36 67 68 -33 -69 71 72 -9 -72 -74 -34 -61 78 79 -21 82 -82 -16 -2 -67 -51 -64 88 89 90 -22 -89 -40 -39
right_child=2 7 4 5 6 -7 17 29 35 10 44 12 38 -15 16 -17 18 56 22 77 21 45 23 -25 -26 27 40 -29 -30 -31 -32 46 48 -35 65 36 -38 93 92 -41 -42 55 -44 -45 -46 -47 -48 -49 -50 85 52 -53 53 -55 -56 -57 -58 64 63 60 61 -63 86 -65 -66 84 -68 69 -70 -71 73 -73 74 -75 -76 -77 -78 -79 -80 -81 81 -83 -84 -85 -86 -87 -88 91 -90 -91 -92 -93 -94 -95
leaf_value=-0.0083730222830621214 -0.0022638509244339647 0.00044233454110691108 -0.0015580839303736597 -0.0052626851099176579 -0.0046274156445462065 -0.00061778288267205631 -0.00012007169858449227 -0.0010201491694732804 -0.0007495771591692511 -0.00082491576382207532 -0.00030744035985183818 -8.0101163115905641e-05 -0.0013772786800429146 -0.002013171245825421 0.00019125593553156886 0.0045673572709716429 -0.00035626966823522365 0.0044702432417183368 -0.0010784453116373094 0.0046882618654008005 -0.00023232950124328937 -0.00014856647063478338 -0.0033469600119409161 0.0003735081661206906 -0.00099153265767830422 -0.0037047994056393519 0.0037818876092882586 0.00025935222291836825 -0.00041694866176149087 -0.000392711313176222 -0.0044742567760159115 0.0001153455063881532 -0.00098574765793564231 -0.0030406635529666944 -0.00049175767963559932 0.00085011384097589352 -0.00068505267971498331 -0.0034194219366718943 -0.0026552972708265448 -0.0008685617124457117 0.0010138198469304967 -0.00037193191791159552 0.00048536668169284794 0.00028253342968366453 9.2232946544849629e-05 0.00023948461562440512 0.0016191119749676794 -0.0020947699120046686 -0.00015033229479870732 -0.00054765924215129384 -0.0019244794555129659 0.002509230403635656 0.0021677640457939055 0.00022332191273241085 0.00063328842175640722 -0.0028426108328035776 -0.001031844343184307 0.00065936009122511828 0.0019639481762437757 -0.0023679667473170147 -0.0041957418837862484 0.002230596134491523 -0.0020804097868781361 -0.00022141938031300598 0.0037628339754130942 0.00035556775542694679 -4.1073822640894977e-05 0.0024705504132714255 -0.0036140369189558313 0.00033012687283003007 -0.002551249414841846 -0.0004385957306628918 0.0018440445559846366 -0.00077912654950344155 -0.00035926031821288299 -0.00047444966829657368 -0.0054620602342745532 0.00077413243581735114 0.0041192147011107367 0.0014678377472556346 0.0027308568777516485 -0.0018093648118409544 -0.0035702165709304875 -0.00051265162555875533 6.3102804837471374e-05 0.00010341123579851854 -0.00031646590952695694 -1.5100889626353053e-05 0.00035143034102719288 0.0006346381528494374 0.00052119198682793399 0.00038861506416006407 -0.0015905478762231122 -0.0011991561587514602
leaf_weight=1532 2000 28912 4020 3498 1165 2983 312647 83670 85558 1164 49199 2143 51006 6817 725 1927 3218 829 881 760 17521 45936 1361 8740 37302 1621 1027 4863 1190 159957 1705 45902 28862 1017 17632 4792 59990 944 9217 2270 21818 7087 10571 511212 457412 744465 2757 1562 324184 15397 1200 5683 3727 4182 3990 1113 8943 1659 1196 1162 950 1150 1581 376748 939 61658 141012 5401 2209 53534 3576 67988 1304 4699 15636 76886 1145 978 4815 3174 763 1287 1419 8532 875763 44729 123347 41177 223821 296333 32444 303945 7839 83978
leaf_count=1532 2000 28912 4020 3498 1165 2983 312647 83670 85558 1164 49199 2143 51006 6817 725 1927 3218 829 881 760 17521 45936 1361 8740 37302 1621 1027 4863 1190 159957 1705 45902 28862 1017 17632 4792 59990 944 9217 2270 21818 7087 10571 511212 457412 744465 2757 1562 324184 15397 1200 5683 3727 4182 3990 1113 8943 1659 1196 1162 950 1150 1581 376748 939 61658 141012 5401 2209 53534 3576 67988 1304 4699 15636 76886 1145 978 4815 3174 763 1287 1419 8532 875763 44729 123347 41177 223821 296333 32444 303945 7839 83978
