tree
version=v4
num_class=1
num_tree_per_iteration=1
label_index=0
max_feature_idx=47
objective=regression
feature_names=mom_ret_5d mom_ret_20d mom_ret_60d mom_ret_120d mom_ma_gap_5 mom_ma_gap_20 mom_ma_gap_60 mom_macd_hist mom_rsi_14 mom_breakout_20d vol_std_10 vol_std_20 vol_std_60 vol_atr_14 vol_parkinson_20 vol_downside_20 vol_realized_rv liq_turnover_tl liq_volume_ratio_5 liq_volume_ratio_20 liq_amount_ma_20 liq_avg_trade_size liq_obv_20 liq_amihud_20 liq_amihud_60 liq_mfi_14 flow_net_amount_ratio flow_large_net_ratio flow_net_order_ratio flow_vpin_ma_20 micro_imbalance_volume micro_effective_spread micro_pressure_score micro_jump_flag style_ln_mv_float style_bp style_ep_ttm style_beta_60 style_idio_vol_60 style_residual_ret_20 style_valuation_composite style_size_percentile style_value_percentile ind_relative_volume_20 ind_relative_volatility_20 ind_strength_20 ind_momentum_rank_20 ind_value_rank
feature_infos=[-3.2363343238830566:3.2151505947113037] [-3.2788877487182617:3.1827065944671631] [-3.3422439098358154:3.1562831401824951] [-3.1616623401641846:3.1759219169616699] [-3.2541656494140625:3.2823915481567383] [-3.3011517524719238:3.258413553237915] [-3.2906086444854736:3.2179718017578125] [-2.8534424304962158:2.788325309753418] [-3.5878329277038574:3.4109840393066406] [-3.5606656074523926:3.078038215637207] [-3.2285420894622803:3.4290666580200195] [-3.2625620365142822:3.4121384620666504] [-3.2241718769073486:3.4262022972106934] [-1.3409852981567383:2.5374109745025635] [-3.2716875076293945:3.3703312873840332] [-3.1143591403961182:3.8912558555603027] [-2.5606367588043213:3.1309235095977783] [-1.5641891956329346:2.8111886978149414] [-3.1903507709503174:3.3342196941375732] [-3.0822610855102539:3.1127445697784424] [-1.4270170927047729:2.2882728576660156] [-1.8267288208007812:3.7286498546600342] [-2.8861937522888184:2.2860970497131348] [-0.56384968757629395:1.1636195182800293] [-0.50755506753921509:1.0454256534576416] [-3.5608639717102051:3.5537722110748291] [-3.5806782245635986:3.5675642490386963] [-2.8241031169891357:3.2791154384613037] [-3.2382931709289551:3.2275667190551758] [-3.531498908996582:3.3708987236022949] [-3.5695652961730957:3.5677642822265625] [-2.1553971767425537:2.9551596641540527] [-3.9417629241943359:4.0941052436828613] none [-3.2286415100097656:3.0154128074645996] [-0.19529113173484802:0.46620231866836548] [-1.3825275897979736:2.5704305171966553] [-3.5057098865509033:3.4836609363555908] [-2.2391183376312256:3.3560845851898193] [-3.1619329452514648:3.1102218627929688] [-3.1210587024688721:3.7206010818481445] [-1.7376390695571899:1.7320610284805298] [-1.7322813272476196:1.734876275062561] [-1.2646476030349731:2.4173367023468018] [-3.2835955619812012:3.3806695938110352] [-3.2852315902709961:3.2123034000396729] [-3.3993995189666748:3.4353475570678711] [-1.7322813272476196:1.734876275062561]
tree_sizes=880 871 881 879 872 873 883 894 879 893 873 873 891 880 858 870 879 893 872 865 872 862 868 858 877 879 866 898 881 876 886 862 886 877 870 871 881 875 863 872 873 874 887 878 865 874 829 852 876 861 881 890 879 878 877 885 870 883 881 886 882 858 875 873 868 890 877 846 879 877 883 865 886 889 896 854 867 877 872 894 869 881 869 876 866 878 861 881 864 880 889 871 887 880 883 877 885 886 893 876 877 878 875 880 887 873 877 879 871 886 872 881 867 891 874 885 886 875 896 878 893 873 886 874 869 884 871 860 882 869 867 888 863 875 868 887 886 887 854 873 872 871 870 869 881 889 886 882 867 877 872 877 886 898 885 884 876 881 889 883 850 869 872 896 875 873 878 866 885 875 865 847 887 883 866 884 875 856 899 893 874 885 893 882 873 878 875 881 896 884 881 870 870 866 897 886 873 858 889 875 882 883 898 876 883 880 860 859 883 896 878 873 891 889 880 870 884 890 890 882 874 892 881 878 891 880 865 882 848 891 869 893 882 876 878 882 859 873 881 884 866 903 891 895 892 896 870 897 870 879 883 868 883 865 892 877 888 886 866 885 876 888 871 865 885 885 864 874 874 881 890 901 894 870 870 897 877 880 865 861 867 884 868 890 886 874 878 880 872 893 900 896 874 882 892 864 859 899 883 886 881 895 884 883 877 892 868 876 889 877 881 869 868 880 864 876 868 895 890 891 859 867 895 855 879 870 883 889 875 866 891 884 870 883 893 884 883 893 863 857 901 889 878 887 886 871 885 874 888 866 882 894 890 887 873 897 881 879 891 903 885 879 885 869 901 893 895 886 880 879 879 893 886 889 899 897 882 882 876 862 871 869 890 905 881 888 869 872 867 892 864 885 897 892 840 885 881 872 878 870 866 901 870 878 903 870 893 878 901 893 884 894 894 856 899 883 877 895 868 892 877 888 859 874 885 896 872 876 904 870 871 871 876 860 876 870 880 889 885 869 879 890 886 883 879 881 888 862 885 884 878 888 896 867 879 877 864 885 882 886 890 890 889 875 897 885 896 892 873 871 898 872 907 898 883 884 890 874 896 889 898 874 890 865 889 887 869 890 872 888 878 866 900 877 870 887 890 879 881 885 889 896 868 902 882 908 900 882 893 900 860 863 873 899 880 879 894 880 875 874 872 875 879 899 899 884 907 891 879 871 869 887 900 885 885 886 895 891 898 891 872 891 873 877 878 881 879 883 877 870 888 896 890 893 875 892 882 863 870 888 882 870 878 865 902 886 902 888 877 889 900 869 887 880 903 882 883 868 867 885 890 893 892 891 878 904 862 901 910 894 872 890 901 883 870 887 881 885 879 873 877 885 876 894 883 866 886 884 884 887 889 896 879 899 885 892 889 888 882 899 875 892 898 882 884 886 903 887 875 871 875 886 893 879 850 895 870 870 878 884 895 886 893 900 862 894 881 883 887 893 900 887 873 873 882 893 863 868 908 881 878 884 897 893 882 886 908 868 893 884 873 900 875 886 878 869 903 885 898 871 896 872 894 892 891 880 891 862 901 891 888 891 876 871 867 879 880 861 884 874 893 869 908 882 881 868 879 898 886 896 880 876 897 872 881 895 893 903 909 884 892 878 875 882 896 892 873 870 876 897 893 886 876 889 869 889 906 895 879 867 885 882 904 899 878 905 896 848 882 871 890 905 877 861 868 888 905 873 879 893 889 879 879 873 891 881 891 847 866 879 895 887 896 893 886 868 873 880 879 884 892 900 879 880 888 889 892 884 882 867 886 887 880 888 881 870 872 872 860 883 901 884 888 892 853 892 885 872 883 879 876 882 875 898 871 883 900 877 900 891 886 859 891 897 856 882 874 890 900 898 898 882 876 901 893 866 873 876 870 874 883 878 880 866 876 878 882 886 886 893 885 890 895 895 887 859 869 886 900 901 883 900 872 892 851 865 866 881 879 879 884 888 900 885 876 893 894 883 890 880 880 883 901 900 896 875 887 889 859 872 886 884 900 875 869 893 876 874 883 884 898 888 874 886 880 904 889 909 890 901 884 899 881 878 859 880 897 887 886 873 896 866 869 882 866 898 886 877 886 892 874 865 856 867 887 893 904 889 888 884 891 890 878 894 882 882 874 890 867 869 896 879 879 889 884 898 893 882 875 891 892 888 890 872 876 886 899 896 871 909 883 900 849 872 847 891 900 882 877 863 871 882 875 870 898 874 859 884 875 884 873 886 874 861 896 881 872 871 875 883 890 874 872 873 889 894 888 874 894 900 872 883 873 892 876 870 899 881 902 896 891 898 878 881 867 881 864 877 852 889 881 884 879 889 874 897 882 858 894 870 892 895 892 891 870 882 865 892 893 865 831 866 883 883 888 863 885 883 874 882 873 878 859 867 880 896 894 889 905 877 874 872 896 877 903 874 873 887 894 854 859 871 864 872 874 897 888 902 897 877 862 871 879 850 894 872 888 877 880 874 876 886 873 879 900 889 878 882 897 875 905 906 884 891 873 892 881 887 872 876 874 863 888 886 904 889 896 900 854 881 880 869 862 886 888 885 886 898 889 865 857 862 878 860 887 860 907 876 892 906 873 897 904 881 874 869 894 902 874 902 887 888 880 907 864 880 878 857 884 878 882 890 873 894 877 901 890 876 880 879 860 875 884 891 881 891 889 877 908 890 882 872 897 876 881 874 899 898 899 895 873 880 862 888 871 908 893 871 886 880 892 874 892 903 890 901 885 877 901 878 889 878 893 868 866 876 879 892 871 877 889 868 882 865 864 876 876 891 892 896 882 870 888 890 872 880 894 888 898 908 868 881 878 892 898 895 904 863 882 874 854 870 874 892 872 895 899 882 869 868 870 912 873 872 895 857 865 894 868 893 855 892 887 882 896 896 846 878 892 868 874 882 880 885 879 887 889 873 879 869 895 877 864 900 864 876 859 875 909 904 851 880 886 872 870 871 893 885 862 892 902 882 878 892 889 880 901 868 880 885 889 890 886 885 887 879 880 867 887 899 866 890 868 877 879 861 873 863 877 900 859 882 891 883 876 881 897 887 823 880 875 881 880 862 876 883 886 902 890 891 881 895 872 858 869 889 860 853 867 878 909 879 879 889 883 890 899 904 874 903 893 897 858 868 896 890 880 897 898 868 881 901 895 857 886 902 903 859 868 876 879 892 884 888 898 862 861 894 902 882 867 873 866 879 874 859 882 869 890 875 873 887 907 874 874 888 881 886 880 890 857 884 861 881 858 892 890 881 870 868 853 899 874 874 863 883 881 896 852 867 881 866 898 895 891 901 864 867 869 879 851 862 863 863 879 865 872 878 890 879 887 868 885 880 895 900 901 894 888 897 899 902 889 872 880 877 888 906 894

Tree=0
num_leaves=7
num_cat=0
split_feature=17 6 14 19 32 19
split_gain=10467.2 3211.65 2100.67 1289.94 1456.35 605.901
threshold=1.9801582098007204 2.1993503570556645 0.66385623812675487 2.0204188823699956 -2.6883053779602046 2.1889069080352788
decision_type=2 2 2 2 2 2
left_child=2 -2 3 4 -1 -4
right_child=1 -3 5 -5 -6 -7
leaf_value=0.0035917492777342371 -0.0012811232848860426 -0.0033676791754927377 -0.00054525499235116425 -0.00077878107047980785 2.090771567653352e-05 -0.0019241758686356445
leaf_weight=11456.5 380086 91629 680729.5 207821.5 3277357.5 33459.5
leaf_count=14025 381005 92517 681897 208581 3280822 33682
internal_value=-0.000274139 -0.0016867 -0.000115871 -1.49122e-05 3.33888e-05 -0.000610019
internal_weight=4.68254e+06 471715 4.21082e+06 3.49664e+06 3.28881e+06 714189
internal_count=4692529 473522 4219007 3503428 3294847 715579
is_linear=0
shrinkage=1


Tree=1
num_leaves=7
num_cat=0
split_feature=5 44 21 32 5 5
split_gain=10284.2 2795.13 2003.23 1941.07 4456.41 1410.48
threshold=1.5254806876182558 1.0666725039482119 0.011246468406170608 -2.6883053779602046 -1.0000000180025095e-35 2.3309780359268193
decision_type=2 2 2 2 2 2
left_child=1 3 5 4 -1 -2
right_child=2 -3 -4 -5 -6 -7
leaf_value=-0.0049122837859928862 -0.0014023914453081346 -0.00055863276628770895 -0.00056126090385859621 0.00022350979237456748 0.0090436493066686063 -0.0029184732530834383
leaf_weight=3361 132070 501713.5 126495 3796505.5 7077.5 115317
leaf_count=3474 132734 502884 126741 3800340 9062 117294
internal_value=4.8281e-06 0.000142902 -0.00158604 0.000235384 0.00454013 -0.00210959
internal_weight=4.68254e+06 4.30866e+06 373882 3.80694e+06 10438.5 247387
internal_count=4692529 4315760 376769 3812876 12536 250028
is_linear=0
shrinkage=0.01


Tree=2
num_leaves=7
num_cat=0
split_feature=1 0 21 0 44 31
split_gain=9305.17 2295.74 1979.66 1402.1 1400.88 1023.88
threshold=1.5255706906318667 1.2289069890975954 0.011246468406170608 2.0243872404098515 1.0666725039482119 -0.80455562472343434
decision_type=2 2 2 2 2 2
left_child=1 4 3 -2 5 -1
right_child=2 -3 -4 -5 -6 -7
leaf_value=-8.1945244064596132e-05 -0.0014692364017185532 -0.00067257186794834173 -0.00053284513222323193 -0.0030575301784863257 -0.00036562943621513662 0.00034651813300755634
leaf_weight=689993 152850.5 324363 134426 87767.5 391553.5 2901586
leaf_count=690374 153265 326507 134659 89524 392454 2905746
internal_value=4.77896e-06 0.000136339 -0.00150593 -0.0020491 0.000202239 0.000264176
internal_weight=4.68254e+06 4.3075e+06 375044 240618 3.98313e+06 3.59158e+06
internal_count=4692529 4315081 377448 242789 3988574 3596120
is_linear=0
shrinkage=0.01


Tree=3
num_leaves=7
num_cat=0
split_feature=1 0 4 4 13 12
split_gain=9120.06 2250.1 2102.67 1442.88 1126.05 1073.2
threshold=1.5255706906318667 0.9412762224674226 2.2415107488632207 -2.5141166448593135 1.0000000180025095e-35 0.97235321998596203
decision_type=2 2 2 2 2 2
left_child=1 3 5 -1 -5 -2
right_child=2 -3 -4 4 -6 -7
leaf_value=-0.0015775381375606539 -0.00060364428561390804 -0.00050799302938376299 -0.0028268762493153976 0.00035464952922858713 -1.6449763891102162e-05 -0.0018781360588287286
leaf_weight=44299.5 180926 483130.5 89709 2584795 1195270.5 104409
leaf_count=44980 181205 485470 91473 2588497 1196134 104770
internal_value=4.72975e-06 0.000134975 -0.00149087 0.000216228 0.00023728 -0.0010704
internal_weight=4.68254e+06 4.3075e+06 375044 3.82436e+06 3.78007e+06 285335
internal_count=4692529 4315081 377448 3829611 3784631 285975
is_linear=0
shrinkage=0.01


Tree=4
num_leaves=7
num_cat=0
split_feature=1 14 21 16 16 1
split_gain=8938.64 2310.3 1932.53 1419.22 751.528 720.393
threshold=1.5255706906318667 0.61916115880012523 0.011246468406170608 1.9499000310897829 1.9953933358192446 2.4155659675598149
decision_type=2 2 2 2 2 2
left_child=1 4 3 -2 -1 -5
right_child=2 -3 -4 5 -6 -7
leaf_value=0.00027585415061935202 -0.0012285826510635245 -0.00034157419937299357 -0.0005145384801887008 -0.0019490671381597914 -0.00048909868394590944 -0.0034918184058832804
leaf_weight=3347452 118079 826586.5 134426 57639.5 133457 64899.5
leaf_count=3353156 119113 827904 134659 58012 134021 65664
internal_value=4.68104e-06 0.000133625 -0.00147597 -0.00201264 0.000246496 -0.00276718
internal_weight=4.68254e+06 4.3075e+06 375044 240618 3.48091e+06 122539
internal_count=4692529 4315081 377448 242789 3487177 123676
is_linear=0
shrinkage=0.01


Tree=5
num_leaves=7
num_cat=0
split_feature=4 6 41 6 4 9
split_gain=7815.74 2573 1971.77 1741.92 857.396 819.678
threshold=1.5182144045829775 1.5532467961311343 -0.79068130254745472 2.2760149240493779 -2.5141166448593135 1.5294356346130373
decision_type=2 2 2 2 2 2
left_child=1 2 4 5 -1 -2
right_child=3 -3 -4 -5 -6 -7
leaf_value=-0.0019271496575958454 -0.00086735399655016407 -0.00091582494168470404 3.9204642772334794e-05 -0.0027073697005481627 0.0005565326007077368 -0.0027110106275300473
leaf_weight=14042.5 270489 226948.5 2914583 78669.5 1147998 26542
leaf_count=14290 273041 227399 2918065 80077 1149519 26917
internal_value=-3.38024e-07 0.000120396 0.00017811 -0.00138355 0.000526417 -0.00103252
internal_weight=4.67927e+06 4.30357e+06 4.07662e+06 375700 1.16204e+06 297031
internal_count=4689308 4309273 4081874 380035 1163809 299958
is_linear=0
shrinkage=0.01


Tree=6
num_leaves=7
num_cat=0
split_feature=10 39 9 38 9 31
split_gain=7996.82 2667.7 2197.01 1873.62 1011.62 678.489
threshold=1.2177780270576479 2.4343496561050419 1.5294356346130373 0.32520762085914617 1.1611128449440005 -0.8631196618080138
decision_type=2 2 2 2 2 2
left_child=2 4 3 5 -2 -1
right_child=1 -3 -4 -5 -6 -7
leaf_value=-4.1740637711496162e-05 -0.00068410185628229713 -0.0026752836972493144 -0.0018498674546808733 -0.00019608451878573433 -0.0025110843375808997 0.00037015951671531084
leaf_weight=472820.5 471698.5 89587.5 53800 980842.5 32435.5 2578088
leaf_count=473103 473220 90785 54059 981973 33146 2583022
internal_value=-3.35281e-07 -0.00108478 0.000157237 0.000184049 -0.000801894 0.000306292
internal_weight=4.67927e+06 593722 4.08555e+06 4.03175e+06 504134 3.05091e+06
internal_count=4689308 597151 4092157 4038098 506366 3056125
is_linear=0
shrinkage=0.01


Tree=7
num_leaves=7
num_cat=0
split_feature=17 39 9 20 24 10
split_gain=9736.81 2436.89 2295.18 1988 975.262 710.115
threshold=1.9179964661598208 1.7696766853332522 1.4840136766433718 1.0000000180025095e-35 -0.10808526352047919 1.0486621856689455
decision_type=2 2 2 2 2 2
left_child=2 -2 3 5 -5 -1
right_child=1 -3 -4 4 -6 -7
leaf_value=0.00037373629579345619 -0.00092009840381891673 -0.002536367584728339 -0.0016250500040592912 -2.7498814775664344e-06 -0.00069140289029932247 -0.00027679355347391427
leaf_weight=2670124 362544 125789 71155.5 1012658.5 258134.5 178867
leaf_count=2675070 363388 126824 71811 1013638 258671 179906
internal_value=-3.32944e-07 -0.00133668 0.000155359 0.000186137 -0.000142718 0.000332858
internal_weight=4.67927e+06 488333 4.19094e+06 4.11978e+06 1.27079e+06 2.84899e+06
internal_count=4689308 490212 4199096 4127285 1272309 2854976
is_linear=0
shrinkage=0.01


Tree=8
num_leaves=7
num_cat=0
split_feature=1 20 10 0 32 9
split_gain=8367.92 2491.64 1717.97 1550.94 2712.16 1043.89
threshold=1.5255706906318667 0.02987174037843943 1.7545221447944643 0.98766574263572704 -2.6883053779602046 1.5294356346130373
decision_type=2 2 2 2 2 2
left_child=1 3 5 -1 -5 -2
right_child=2 -3 -4 4 -6 -7
leaf_value=0.00036185618793499013 -0.00069091160495477367 -0.00022782253858130643 -0.0023167027642519663 0.0077019137814177208 -0.00055730061437088245 -0.0029151926452632977
leaf_weight=2665500.5 211934.5 1369536.5 138928.5 4025 265877.5 23470
leaf_count=2669567 212570 1371136 140419 5032 266824 23760
internal_value=-3.30602e-07 0.000124349 -0.00143441 0.000288692 -0.000433481 -0.000913213
internal_weight=4.67927e+06 4.30494e+06 374333 2.9354e+06 269902 235404
internal_count=4689308 4312559 376749 2941423 271856 236330
is_linear=0
shrinkage=0.01


Tree=9
num_leaves=7
num_cat=0
split_feature=17 39 41 38 39 37
split_gain=9446.47 2346.44 2062.73 1488.45 808.546 729.427
threshold=1.9179964661598208 1.7696766853332522 -0.61126264929771412 -1.0000000180025095e-35 1.0071073174476626 1.0000000180025095e-35
decision_type=2 2 2 2 2 2
left_child=2 5 4 -4 -1 -2
right_child=1 -3 3 -5 -6 -7
leaf_value=0.00054091653777506668 -0.0014533250773168583 -0.0024938238305747483 0.00020201221951581815 -0.00025892677544172508 -0.00045160133751007202 -0.00053795524679836637
leaf_weight=1255586.5 146366 125789 1603661 1243991 87701 216178
leaf_count=1258289 146814 126824 1605059 1247604 88144 216574
internal_value=-3.2771e-07 -0.0013166 0.000153025 6.16636e-07 0.000476039 -0.000907813
internal_weight=4.67927e+06 488333 4.19094e+06 2.84765e+06 1.34329e+06 362544
internal_count=4689308 490212 4199096 2852663 1346433 363388
is_linear=0
shrinkage=0.01


Tree=10
num_leaves=7
num_cat=0
split_feature=1 14 14 32 1 35
split_gain=8047.64 2123.75 1691.6 1095.43 5466.7 836.471
threshold=1.5255706906318667 0.89161553978919994 1.6997244954109194 -2.6883053779602046 -0.0078298868611454946 0.02756004594266415
decision_type=2 2 2 2 2 2
left_child=1 3 -2 4 -1 -5
right_child=2 -3 -4 5 -6 -7
leaf_value=-0.0057704262299731078 -0.00091704304784774246 -0.00044426108923169353 -0.002332163291532414 0.00010329589503941359 0.0084332471197608727 0.0004323748268021103
leaf_weight=4242 245213.5 572460.5 129200 2625134.5 7440 1095179
leaf_count=4564 246911 573435 129903 2628311 9475 1096290
internal_value=4.79805e-07 0.000122818 -0.00140568 0.000209831 0.00326649 0.000200197
internal_weight=4.67887e+06 4.30446e+06 374414 3.732e+06 11682 3.72031e+06
internal_count=4688889 4312075 376814 3738640 14039 3724601
is_linear=0
shrinkage=0.01


Tree=11
num_leaves=7
num_cat=0
split_feature=17 45 4 17 38 18
split_gain=9135.16 2814.43 2710.63 3959.08 1186.45 937.433
threshold=1.9801582098007204 1.9232676625251772 1.3410442471504214 -1.2072781324386594 0.31296205520629888 -2.0328230857849117
decision_type=2 2 2 2 2 2
left_child=2 -2 4 -4 -1 -6
right_child=1 -3 3 -5 5 -7
leaf_value=0.00032228528210601781 -0.00087339474198375557 -0.0026594712601950448 0.010114022809933652 -0.00085515550280940232 -0.0052541678297019839 -6.1381450808737495e-05
leaf_weight=2910249.5 353862 117671.5 3314 314130 3479.5 976163
leaf_count=2913761 354649 118712 4036 316696 3763 977272
internal_value=4.74563e-07 -0.00131937 0.000148422 -0.000740011 0.000220952 -7.99807e-05
internal_weight=4.67887e+06 471534 4.20734e+06 317444 3.88989e+06 979642
internal_count=4688889 473361 4215528 320732 3894796 981035
is_linear=0
shrinkage=0.01


Tree=12
num_leaves=7
num_cat=0
split_feature=45 20 11 9 41 12
split_gain=7622.8 2462.47 1575.01 1107.77 1103.55 971.627
threshold=1.5699334740638735 1.0000000180025095e-35 1.6729337573051455 1.414176940917969 -1.0616956353187559 0.77062475681304943
decision_type=2 2 2 2 2 2
left_child=1 3 -2 4 -1 -3
right_child=2 5 -4 -5 -6 -7
leaf_value=0.00062091464898055644 -0.00089366610673344673 -4.3929830720549294e-05 -0.0022714705121767375 -0.0011375878253920113 0.00018531122644470301 -0.00060371567161787416
leaf_weight=813846 223555.5 953697 132319 53862 2041840.5 459749.5
leaf_count=815796 224694 954584 133519 54153 2045599 460544
internal_value=4.68973e-07 0.000116301 -0.00140628 0.000282664 0.000309491 -0.000226084
internal_weight=4.67887e+06 4.323e+06 355874 2.90955e+06 2.85569e+06 1.41345e+06
internal_count=4688889 4330676 358213 2915548 2861395 1415128
is_linear=0
shrinkage=0.01


Tree=13
num_leaves=7
num_cat=0
split_feature=11 6 19 31 21 19
split_gain=6738.01 3157.81 1880.98 1182.51 1108.62 796.644
threshold=1.0492295622825625 2.2760149240493779 2.0204188823699956 -0.83302313089370716 0.022449131123721603 -0.90649569034576405
decision_type=2 2 2 2 2 2
left_child=2 -2 3 -1 -3 -5
right_child=1 4 -4 5 -6 -7
leaf_value=-0.00015791400721210311 -0.00060607232445801171 -0.002996819586711445 -0.00065659294299196121 -8.0325923081689971e-05 -0.00082559970441358366 0.0003687257924888536
leaf_weight=692679 561824 86091 265220 466272 32559.5 2574224
leaf_count=693099 563540 87378 266076 466983 32657 2579156
internal_value=4.63343e-07 -0.00091939 0.000157037 0.000214869 -0.00240197 0.000299829
internal_weight=4.67887e+06 680474 3.9984e+06 3.73318e+06 118650 3.0405e+06
internal_count=4688889 683575 4005314 3739238 120035 3046139
is_linear=0
shrinkage=0.01


Tree=14
num_leaves=7
num_cat=0
split_feature=5 38 32 34 32 5
split_gain=8585.72 2656.84 2409.72 6456.74 1552.85 1501.65
threshold=1.5254806876182558 0.76747342944145214 -2.6883053779602046 -1.5438735485076902 -2.6883053779602046 2.3309780359268193
decision_type=2 2 2 2 2 2
left_child=1 2 3 -1 -3 -2
right_child=5 4 -4 -5 -6 -7
leaf_value=0.018473983219963644 -0.0009011421915154648 -0.0079257591834945382 0.00022608593163067278 0.00024179168355401771 -0.00039044129814401495 -0.0021830633760461038
leaf_weight=2655 212326 2736.5 3555552 7207 737404 160989
leaf_count=3537 213069 3024 3559194 8449 738487 163129
internal_value=4.57331e-07 0.000126617 0.000239815 0.00517405 -0.000418543 -0.00145427
internal_weight=4.67887e+06 4.30555e+06 3.56541e+06 9862 740140 373315
internal_count=4688889 4312691 3571180 11986 741511 376198
is_linear=0
shrinkage=0.01


Tree=15
num_leaves=7
num_cat=0
split_feature=1 38 4 11 4 0
split_gain=7429.16 2319.61 1764.48 1149.54 1068.56 1012.54
threshold=1.5255706906318667 0.53359544277191173 2.1511760950088505 1.9495273828506472 0.8110255002975465 0.9412762224674226
decision_type=2 2 2 2 2 2
left_child=1 5 3 -2 -3 -1
right_child=2 4 -4 -5 -6 -7
leaf_value=0.00029938851191086031 -0.00053287430299450158 -0.0001607447193699305 -0.0025209448239662752 -0.0019458879741128374 -0.0010340554304356876 -0.00028027090156441844
leaf_weight=3027970 197180 770684 95804 81506 171354.5 334464.5
leaf_count=3031959 197457 771941 97612 81814 171863 336316
internal_value=1.25525e-06 0.00011881 -0.00134964 -0.000946546 -0.000319713 0.000241699
internal_weight=4.67896e+06 4.30447e+06 374490 278686 942038 3.36243e+06
internal_count=4688962 4312079 376883 279271 943804 3368275
is_linear=0
shrinkage=0.01


Tree=16
num_leaves=7
num_cat=0
split_feature=17 1 9 20 32 24
split_gain=8673.6 2563.55 2037.1 1783.46 1180.18 900.11
threshold=1.9801582098007204 2.4155659675598149 1.4462442994117739 1.0000000180025095e-35 -2.6883053779602046 -0.10992576926946639
decision_type=2 2 2 2 2 2
left_child=2 -2 3 4 -1 -5
right_child=1 -3 -4 5 -6 -7
leaf_value=0.0037234576755999812 -0.00095681351856965167 -0.0029427651574620009 -0.0013667929115314206 3.0879582974954246e-06 0.00030435245441806554 -0.00065012123627220062
leaf_weight=10127 392731 77979 87228 1008693 2835574 266631
leaf_count=12513 393751 78768 88010 1009681 2839075 267164
internal_value=1.2413e-06 -0.00128608 0.00014526 0.000177292 0.000316568 -0.000133404
internal_weight=4.67896e+06 470710 4.20825e+06 4.12102e+06 2.8457e+06 1.27532e+06
internal_count=4688962 472519 4216443 4128433 2851588 1276845
is_linear=0
shrinkage=0.01


Tree=17
num_leaves=7
num_cat=0
split_feature=5 38 41 10 16 38
split_gain=8306.48 2603.16 1794.76 1452.2 1305.03 878.359
threshold=1.5254806876182558 0.97755756974220287 -0.85900628566741932 1.7545221447944643 -1.2173551917076109 -1.0000000180025095e-35
decision_type=2 2 2 2 2 2
left_child=1 2 -1 -2 -3 -4
right_child=3 4 5 -5 -6 -7
leaf_value=0.00059298815809119716 -0.00097897952394530494 -0.0069816375105938465 0.00022927788532789626 -0.0022945961752049858 -0.00046342886092245859 -0.00014016661264975409
leaf_weight=967495 246383 3080.5 1736569.5 127619.5 575741.5 1022074
leaf_count=969507 247656 3333 1737923 129212 576640 1024691
internal_value=1.22842e-06 0.000125441 0.000222379 -0.00142822 -0.000498412 9.23629e-05
internal_weight=4.67896e+06 4.30496e+06 3.72614e+06 374002 578822 2.75864e+06
internal_count=4688962 4312094 3732121 376868 579973 2762614
is_linear=0
shrinkage=0.01


Tree=18
num_leaves=7
num_cat=0
split_feature=0 11 11 20 16 7
split_gain=6933.92 2936.19 1485.78 1465.48 1375.73 1956.32
threshold=1.4676162600517275 1.2945219278335574 1.7716201543807986 -0.42239587008953089 -1.2683389782905576 1.0000000180025095e-35
decision_type=2 2 2 2 2 2
left_child=1 3 4 -1 5 -2
right_child=2 -3 -4 -5 -6 -7
leaf_value=0.00038123244228057784 0.0082106821199219165 -0.00069937453693101072 -0.0025370935214209045 -8.3782115221305148e-06 -0.0010702299881966888 -0.0021103126101233586
leaf_weight=2098226 3852.5 398410 74709.5 1787280.5 313012 3472.5
leaf_count=2100061 4825 399445 75768 1790432 314770 3661
internal_value=1.21506e-06 0.000118138 -0.00126643 0.000201992 -0.000969701 0.00330806
internal_weight=4.67896e+06 4.28392e+06 395046 3.88551e+06 320337 7325
internal_count=4688962 4289938 399024 3890493 323256 8486
is_linear=0
shrinkage=0.01


Tree=19
num_leaves=7
num_cat=0
split_feature=17 6 0 41 17 0
split_gain=8316.82 2527.62 2071.03 1740.29 1473.91 2291.74
threshold=1.9801582098007204 2.2760149240493779 0.98766574263572704 -0.4070474356412887 -1.2072781324386594 2.2124894857406621
decision_type=2 2 2 2 2 2
left_child=2 -2 3 -1 5 -4
right_child=1 -3 4 -5 -6 -7
leaf_value=0.00049026078066687474 -0.00091394197940413075 -0.0028163436319200885 -0.0018895172155300041 4.8134060393204723e-05 -0.00054449657607610609 0.013019881864687012
leaf_weight=1456635.5 385308 85402 2066.5 2291255.5 456272 2023.5
leaf_count=1458999 386257 86262 2069 2293980 458801 2594
internal_value=1.2021e-06 -0.00125936 0.000142228 0.000219996 -0.000490672 0.00547618
internal_weight=4.67896e+06 470710 4.20825e+06 3.74789e+06 460362 4090
internal_count=4688962 472519 4216443 3752979 463464 4663
is_linear=0
shrinkage=0.01


Tree=20
num_leaves=7
num_cat=0
split_feature=1 38 32 8 32 16
split_gain=6928.93 2138.57 2522.08 2533.99 1599.49 1383.6
threshold=1.5255706906318667 0.53359544277191173 -2.6883053779602046 -1.0000000180025095e-35 -2.6883053779602046 1.9499000310897829
decision_type=2 2 2 2 2 2
left_child=1 2 3 -1 -3 -2
right_child=5 4 -4 -5 -6 -7
leaf_value=-0.0032362024411215231 -0.00075597821886089905 -0.0071607395014818796 0.00021280104879097821 0.0083541771498873204 -0.00028659993703001934 -0.0019788626009836045
leaf_weight=2537.5 205131 3388.5 3353103.5 7172 938487 169140.5
leaf_count=2655 206329 3714 3356890 9191 939915 170350
internal_value=-3.85024e-06 0.000109599 0.000227577 0.00531462 -0.000311512 -0.00130893
internal_weight=4.67896e+06 4.30469e+06 3.36281e+06 9709.5 941876 374272
internal_count=4689044 4312365 3368736 11846 943629 376679
is_linear=0
shrinkage=0.01


Tree=21
num_leaves=7
num_cat=0
split_feature=10 6 32 34 39 16
split_gain=6598.71 2757.55 1458.87 5993.02 1656.94 1284.76
threshold=0.99605652689933788 2.2760149240493779 -2.6883053779602046 -1.5438735485076902 -1.2433040142059324 1.4860806465148928
decision_type=2 2 2 2 2 2
left_child=2 -2 3 -1 -5 -4
right_child=1 -3 5 4 -6 -7
leaf_value=0.016466552937213913 -0.0005964168428522678 -0.0022326817044912742 0.00019881553038265546 -0.010669790796485546 0.0014731230452178945 -0.00050351118420050446
leaf_weight=2779.5 616420 123743.5 3647170.5 1323.5 7110 280413
leaf_count=3679 618791 125248 3650814 1364 8285 280863
internal_value=-3.81227e-06 -0.000870136 0.00015896 0.00375959 -0.000431045 0.000148646
internal_weight=4.67896e+06 740164 3.9388e+06 11213 8433.5 3.92758e+06
internal_count=4689044 744039 3945005 13328 9649 3931677
is_linear=0
shrinkage=0.01


Tree=22
num_leaves=7
num_cat=0
split_feature=17 4 17 4 19 4
split_gain=7998.4 2297.22 3932.71 2068.28 1405.11 3776.76
threshold=1.9179964661598208 1.4706721901893618 -1.2072781324386594 2.1511760950088505 -1.6732644438743589 -2.0929185152053829
decision_type=2 2 2 2 2 2
left_child=1 4 -3 -2 5 -1
right_child=3 2 -4 -5 -6 -7
leaf_value=-0.015535857592191137 -0.00092547371052679669 0.010464905571470378 -0.00088202210763332802 -0.0026802954555555925 0.00021046103055914344 -0.00083093618593421909
leaf_weight=2027.5 407645.5 3078.5 268210.5 80524 3905097.5 12376.5
leaf_count=2405 408501 3809 270694 81543 3909667 12425
internal_value=-3.77405e-06 0.000137318 -0.000752511 -0.00121519 0.000198935 -0.00291707
internal_weight=4.67896e+06 4.19079e+06 271289 488170 3.9195e+06 14404
internal_count=4689044 4199000 274503 490044 3924497 14830
is_linear=0
shrinkage=0.01


Tree=23
num_leaves=7
num_cat=0
split_feature=0 38 32 4 38 32
split_gain=6573.63 2761.97 1829.32 1640.48 1511.1 1397.47
threshold=1.5116287469863894 1.0225989818573 -2.6883053779602046 2.3031105995178227 1.0000000180025095e-35 -2.6883053779602046
decision_type=2 2 2 2 2 2
left_child=1 -1 4 -4 -2 -3
right_child=2 5 3 -5 -6 -7
leaf_value=0.00020506016216713052 0.0079822083473798707 -0.0084992686163895565 -0.00082827551874943019 -0.0021917460956258549 -0.0017878888207520525 -0.00051832610464330015
leaf_weight=3744710.5 3849 2194.5 226746.5 144869.5 2655 553935
leaf_count=3749664 4866 2430 227346 146809 3107 554822
internal_value=-3.73696e-06 0.000107382 -0.00126786 -0.00136012 0.00398198 -0.000550151
internal_weight=4.67896e+06 4.30084e+06 378120 371616 6504 556130
internal_count=4689044 4306916 382128 374155 7973 557252
is_linear=0
shrinkage=0.01


Tree=24
num_leaves=7
num_cat=0
split_feature=0 20 34 34 20 38
split_gain=6442.82 2775.2 3957.35 1920.26 2974.94 1787.66
threshold=1.5116287469863894 -0.028486762195825573 -1.9246340990066526 -1.7074471116065977 -0.014660535380244253 1.3915557861328127
decision_type=2 2 2 2 2 2
left_child=1 -1 -3 4 -2 -4
right_child=3 2 5 -5 -6 -7
leaf_value=0.00029708634630514082 -0.00041457023612549146 0.014116773770507809 -9.7633200127544709e-05 -0.0013351635611604975 0.016550707617583104 -0.001008887935916981
leaf_weight=2749963 3153 1909.5 1290506.5 373447.5 1519.5 258461
leaf_count=2752693 3173 2292 1292916 377093 1862 259015
internal_value=-3.70013e-06 0.000106307 -0.000231911 -0.00125519 0.00510476 -0.000249755
internal_weight=4.67896e+06 4.30084e+06 1.55088e+06 378120 4672.5 1.54897e+06
internal_count=4689044 4306916 1554223 382128 5035 1551931
is_linear=0
shrinkage=0.01


Tree=25
num_leaves=7
num_cat=0
split_feature=17 5 5 41 32 9
split_gain=7827.55 2432.81 2155.91 1802.13 1212.24 912.315
threshold=1.9801582098007204 2.1668341159820561 1.1253392696380617 -0.44780284166336054 -2.6883053779602046 1.5294356346130373
decision_type=2 2 2 2 2 2
left_child=2 -2 3 4 -1 -4
right_child=1 -3 5 -5 -6 -7
leaf_value=0.0050433980757094285 -0.00085130451514910392 -0.002615378022774882 -0.00040330819109027274 3.827215023854938e-05 0.00046709333249741829 -0.0019230382984853772
leaf_weight=5806.5 372381.5 99072 332893 2380442 1444225.5 44876.5
leaf_count=7090 373120 100193 334272 2383789 1445893 45427
internal_value=-3.64062e-07 -0.00122227 0.000136506 0.000207606 0.000485522 -0.000584153
internal_weight=4.6797e+06 471454 4.20824e+06 3.83047e+06 1.45003e+06 377770
internal_count=4689784 473313 4216471 3836772 1452983 379699
is_linear=0
shrinkage=0.01


Tree=26
num_leaves=7
num_cat=0
split_feature=0 14 34 22 1 41
split_gain=6451.9 2945.15 1715.36 2778.21 1520.05 1506.97
threshold=1.4676162600517275 1.3862758874893191 -1.7074471116065977 -0.085596609860658632 2.465217232704163 -0.44780284166336054
decision_type=2 2 2 2 2 2
left_child=1 5 3 -2 -4 -1
right_child=2 -3 4 -5 -6 -7
leaf_value=0.00044096517209168436 -0.00013699449225484421 -0.00076685499393486592 -0.0010150123770763526 0.016503830929157973 -0.0026841317712596726 3.757632456827229e-05
leaf_weight=1492438.5 3434 349784.5 324853 1400.5 65707.5 2442079
leaf_count=1494892 3453 350462 327294 1738 66932 2445013
internal_value=-3.60422e-07 0.00011242 -0.00122261 0.00468714 -0.00129614 0.000190616
internal_weight=4.6797e+06 4.2843e+06 395395 4834.5 390560 3.93452e+06
internal_count=4689784 4290367 399417 5191 394226 3939905
is_linear=0
shrinkage=0.01


Tree=27
num_leaves=7
num_cat=0
split_feature=6 20 21 19 32 38
split_gain=5684.33 1913.06 1724.43 1530.63 1256.8 962.645
threshold=1.5532467961311343 0.02987174037843943 0.011246468406170608 2.0204188823699956 -2.6883053779602046 1.4272000789642336
decision_type=2 2 2 2 2 2
left_child=1 3 -2 4 -1 -3
right_child=2 5 -4 -5 -6 -7
leaf_value=0.003960421266543189 -0.0017264109584543144 -9.7078891454903258e-05 -0.00029372135201936563 -0.00059963856366367768 0.00029302406769254853 -0.00084121025551113829
leaf_weight=9371 230054.5 1163657.5 132635.5 200337.5 2739165.5 204475.5
leaf_count=11655 232209 1164833 132867 200964 2742361 204895
internal_value=-3.56554e-07 0.000100643 -0.00120278 0.000244045 0.000305579 -0.000208372
internal_weight=4.6797e+06 4.31701e+06 362690 2.94887e+06 2.74854e+06 1.36813e+06
internal_count=4689784 4324708 365076 2954980 2754016 1369728
is_linear=0
shrinkage=0.01


Tree=28
num_leaves=7
num_cat=0
split_feature=45 10 10 24 45 16
split_gain=6190.86 2014.23 1355.43 836.065 688.056 594.935
threshold=1.6202666759490969 0.87986427545547496 1.7545221447944643 -1.0000000180025095e-35 2.4702801704406743 -1.2683389782905576
decision_type=2 2 2 2 2 2
left_child=1 3 -2 -1 -4 -3
right_child=2 5 4 -5 -6 -7
leaf_value=6.1384935644377534e-05 -0.00079608697246713752 -0.0042265789671136296 -0.0013318200410977943 0.00036498589951648139 -0.0027823092186542637 -0.00040422123309538893
leaf_weight=2166893.5 206533.5 4095.5 62665 1561322.5 69347 608840
leaf_count=2168559 207385 4473 63152 1565379 70357 610479
internal_value=-3.53392e-07 0.000101198 -0.0013028 0.000188556 -0.00209468 -0.000429993
internal_weight=4.6797e+06 4.34115e+06 338546 3.72822e+06 132012 612936
internal_count=4689784 4348890 340894 3733938 133509 614952
is_linear=0
shrinkage=0.01


Tree=29
num_leaves=7
num_cat=0
split_feature=4 20 41 44 39 41
split_gain=6213.33 2927 1636.25 1523.5 1141.66 773.959
threshold=1.7463722825050356 -0.028486762195825573 -1.6208351850509641 1.6223881840705874 2.4343496561050419 -1.5389188528060911
decision_type=2 2 2 2 2 2
left_child=1 -1 -3 -4 5 -2
right_child=4 2 3 -5 -6 -7
leaf_value=0.00029169142614843914 0.0019128659198950904 0.0077714040927787699 -0.00012797469712775306 -0.00099178171892372866 -0.0027722493151053685 -0.0012124401864430385
leaf_weight=2779164 8154.5 2531 1353669.5 240531.5 49603 246043.5
leaf_count=2781816 8449 2802 1355970 241190 50729 248828
internal_value=-3.50489e-07 9.56389e-05 -0.000245534 -0.000258373 -0.00138325 -0.00111172
internal_weight=4.6797e+06 4.3759e+06 1.59673e+06 1.5942e+06 303801 254198
internal_count=4689784 4381778 1599962 1597160 308006 257277
is_linear=0
shrinkage=0.01


Tree=30
num_leaves=7
num_cat=0
split_feature=1 1 23 21 1 12
split_gain=6208.32 1738.22 1278.22 1156.76 839.078 819.585
threshold=1.1833540797233584 2.4155659675598149 -0.019775731489062306 0.1070242039859295 -2.4868432283401485 2.0124388933181767
decision_type=2 2 2 2 2 2
left_child=2 -2 5 -3 -4 -1
right_child=1 3 4 -5 -6 -7
leaf_value=1.5856889294594912e-05 -0.00066954011010656681 -0.0025459045374476514 -0.0019609625528986983 -0.0005879326689920834 0.00034813170145418169 -0.00086337811531877562
leaf_weight=2215301.5 393998.5 100256 15853.5 43383 1798537 111330.5
leaf_count=2217296 395281 101641 16154 43485 1803407 111500
internal_value=-2.30019e-06 -0.00101327 0.000128935 -0.00195532 0.00032789 -2.61755e-05
internal_weight=4.67866e+06 537638 4.14102e+06 143639 1.81439e+06 2.32663e+06
internal_count=4688764 540407 4148357 145126 1819561 2328796
is_linear=0
shrinkage=0.01


Tree=31
num_leaves=7
num_cat=0
split_feature=4 34 23 41 6 21
split_gain=5828.73 2621.78 3360.35 1909.41 1373.68 1147.26
threshold=1.7463722825050356 -1.7074471116065977 0.00670145032927394 -1.0750412344932554 1.5532467961311343 0.1070242039859295
decision_type=2 2 2 2 2 2
left_child=3 2 -2 -1 -5 -3
right_child=1 5 -4 4 -6 -7
leaf_value=0.00051662536118287597 0.018150125820989741 -0.0018621569697600086 -0.00050685319310696253 3.9583201796573657e-05 -0.00076945946400894629 -0.00051559092703882376
leaf_weight=848180 1550.5 207888.5 2504 3303151 224090 91296
leaf_count=849584 1981 211469 2522 3307162 224540 91506
internal_value=-2.27775e-06 -0.00134301 0.00663035 9.0622e-05 -1.179e-05 -0.00145162
internal_weight=4.67866e+06 303239 4054.5 4.37542e+06 3.52724e+06 299184
internal_count=4688764 307478 4503 4381286 3531702 302975
is_linear=0
shrinkage=0.01


Tree=32
num_leaves=7
num_cat=0
split_feature=10 4 4 41 10 34
split_gain=5732.26 2577.54 1787.87 1358.07 918.363 900.717
threshold=1.1606025695800783 2.1511760950088505 0.89733290672302257 -0.44780284166336054 2.3684675693511967 -1.6570557951927183
decision_type=2 2 2 2 2 2
left_child=2 4 3 -1 -2 -4
right_child=1 -3 5 -5 -6 -7
leaf_value=0.0004651285288247895 -0.00033872294464348752 -0.0022880790722767416 0.0024416793340088379 6.1641893473579845e-05 -0.0012820303103370249 -0.00047326552526427181
leaf_weight=1352840.5 377975.5 109080.5 10806.5 2177662 142222.5 508072.5
leaf_count=1354709 378811 111154 11297 2179876 142878 510039
internal_value=-2.25465e-06 -0.00089019 0.000135709 0.000216282 -0.000596836 -0.000412318
internal_weight=4.67866e+06 629278 4.04938e+06 3.5305e+06 520198 518879
internal_count=4688764 632843 4055921 3534585 521689 521336
is_linear=0
shrinkage=0.01


Tree=33
num_leaves=7
num_cat=0
split_feature=5 14 19 5 19 5
split_gain=6686.29 2571.52 1068.76 2623.49 1011.36 936.781
threshold=1.9916505217552187 1.6126248240470888 -1.6732644438743589 -2.321422696113586 2.102973580360413 0.79489547014236461
decision_type=2 2 2 2 2 2
left_child=1 2 3 -1 -2 -4
right_child=4 -3 5 -5 -6 -7
leaf_value=-0.014478782371654182 -0.0011285555987092266 -0.00087628931197906328 0.0002105654350468869 -0.0010009449215855667 -0.0024846118742032986 -0.00023956788151984103
leaf_weight=1643.5 141922 262292.5 3641521.5 11614.5 90304.5 529361.5
leaf_count=1907 143439 262817 3647286 11805 91301 530209
internal_value=-2.23213e-06 8.41417e-05 0.000144374 -0.00268889 -0.00165639 0.000153411
internal_weight=4.67866e+06 4.44643e+06 4.18414e+06 13258 232226 4.17088e+06
internal_count=4688764 4454024 4191207 13712 234740 4177495
is_linear=0
shrinkage=0.01


Tree=34
num_leaves=7
num_cat=0
split_feature=0 20 34 20 11 11
split_gain=5769.46 2480.64 1863.55 2559.72 1423.63 925.415
threshold=1.613844156265259 0.02987174037843943 -1.7074471116065977 -0.067928686738014207 1.2046577334403994 1.7232254147529604
decision_type=2 2 2 2 2 2
left_child=1 -1 3 -2 -3 -4
right_child=2 4 5 -5 -6 -7
leaf_value=0.0002655747930075196 -0.0003263908750069963 -6.6496999271550375e-05 -0.0010587208261017304 0.016018685107260587 -0.00080403213319260136 -0.0023310613042048069
leaf_weight=2890914.5 2726 1102026 264999.5 1457.5 343373 73163.5
leaf_count=2895405 2745 1102953 267489 1803 344127 74242
internal_value=-2.21109e-06 9.64374e-05 -0.00125199 0.00536888 -0.000241781 -0.00133436
internal_weight=4.67866e+06 4.33631e+06 342346 4183.5 1.4454e+06 338163
internal_count=4688764 4342485 346279 4548 1447080 341731
is_linear=0
shrinkage=0.01


Tree=35
num_leaves=7
num_cat=0
split_feature=5 38 32 34 41 32
split_gain=6392.94 2377.83 1617.28 6087.9 1248.75 1194.88
threshold=1.9142366647720339 1.0225989818573 -2.6883053779602046 -1.5438735485076902 -0.85900628566741932 -2.6883053779602046
decision_type=2 2 2 2 2 2
left_child=1 2 3 -1 -4 -3
right_child=-2 5 4 -5 -6 -7
leaf_value=0.017024304080913152 -0.0015506976346898282 -0.0076797839840587745 0.00047435449858267056 -0.0003278223865765915 6.1884978632819495e-05 -0.00048164338328579522
leaf_weight=2696.5 251156 2307.5 988369 7950 2854799.5 572061.5
leaf_count=3553 253729 2551 989525 9243 2857764 572977
internal_value=1.27449e-06 8.93245e-05 0.000178804 0.00406952 0.000167989 -0.000510869
internal_weight=4.67934e+06 4.42818e+06 3.85382e+06 10646.5 3.84317e+06 574369
internal_count=4689342 4435613 3860085 12796 3847289 575528
is_linear=0
shrinkage=0.01


Tree=36
num_leaves=7
num_cat=0
split_feature=10 1 0 41 9 38
split_gain=5573.5 2332.82 1765.37 1266.8 880.733 735.178
threshold=1.281249523162842 2.4155659675598149 0.9412762224674226 -0.44780284166336054 1.8146551847457888 -1.0000000180025095e-35
decision_type=2 2 2 2 2 2
left_child=2 -2 3 -1 -4 -5
right_child=1 -3 4 5 -6 -7
leaf_value=0.00044016730094002652 -0.00064035971328515312 -0.0023487786102140773 -0.00037757264248135692 0.00020350357372976035 -0.0033579643137653533 -0.0001661930107287036
leaf_weight=1395039 460469.5 96802 471841 1351990 10128.5 893070
leaf_count=1397138 462516 98071 473951 1352915 10233 894518
internal_value=1.26148e-06 -0.00093734 0.000128179 0.000203502 -0.000440481 5.63961e-05
internal_weight=4.67934e+06 557272 4.12207e+06 3.6401e+06 481970 2.24506e+06
internal_count=4689342 560587 4128755 3644571 484184 2247433
is_linear=0
shrinkage=0.01


Tree=37
num_leaves=7
num_cat=0
split_feature=16 45 45 41 32 21
split_gain=5460.52 1879.45 1634.75 1375.66 1043.5 784.484
threshold=1.9499000310897829 2.4182072877883916 0.7734074890613557 -0.84511795639991749 -2.6883053779602046 0.14418806880712512
decision_type=2 2 2 2 2 2
left_child=2 -2 3 4 -1 -3
right_child=1 5 -4 -5 -6 -7
leaf_value=0.0052752097687547381 -0.00070903765284107843 -0.0028624636002037886 -0.00036940157777937078 7.8913676732401787e-05 0.00049630568297165975 -0.0006372049200207003
leaf_weight=4585.5 402344.5 66292.5 590830 2624319 969980.5 20988
leaf_count=5520 403768 67069 592631 2628213 971132 21009
internal_value=1.24787e-06 -0.000997994 0.000118049 0.000198102 0.000518948 -0.00232864
internal_weight=4.67934e+06 489625 4.18972e+06 3.59888e+06 974566 87280.5
internal_count=4689342 491846 4197496 3604865 976652 88078
is_linear=0
shrinkage=0.01


Tree=38
num_leaves=7
num_cat=0
split_feature=16 4 4 41 16 8
split_gain=5351.9 1672.27 1652.72 1337.96 985.966 3160.52
threshold=1.9499000310897829 1.3410442471504214 2.1511760950088505 -0.44780284166336054 -1.2683389782905576 0.0098901577293872851
decision_type=2 2 2 2 2 2
left_child=1 3 -2 -1 5 -3
right_child=2 4 -4 -5 -6 -7
leaf_value=0.00040971180689532101 -0.00070062182297981517 0.0091812306430856371 -0.0021646383364775342 2.7378948242153812e-05 -0.00072529000480702291 -0.002079628133526848
leaf_weight=1469484 393589 4136 96036 2428583 281294 6218
leaf_count=1471576 394683 5274 97163 2431155 282796 6695
internal_value=1.23499e-06 0.000116869 -0.000988019 0.000171536 -0.000613436 0.00241349
internal_weight=4.67934e+06 4.18972e+06 489625 3.89807e+06 291648 10354
internal_count=4689342 4197496 491846 3902731 294765 11969
is_linear=0
shrinkage=0.01


Tree=39
num_leaves=7
num_cat=0
split_feature=14 4 6 19 4 24
split_gain=5290.52 2499.04 1825.02 1133.56 3240.34 871.546
threshold=1.4212920665740969 1.7463722825050356 2.4538185596466069 -1.6732644438743589 -1.7209747433662412 1.0000000180025095e-35
decision_type=2 2 2 2 2 2
left_child=1 3 -2 4 -1 -5
right_child=2 -3 -4 5 -6 -7
leaf_value=-0.01468895724643903 -0.0007539650743131342 -0.00090881387551041608 -0.0024659062598599828 6.1501173182908043e-05 -0.00064094095884885687 0.00036632637435343225
leaf_weight=1939 355113 228528 75614.5 2508479.5 10546 1499120
leaf_count=2275 355940 232008 76194 2511861 10592 1500472
internal_value=1.2223e-06 0.000108306 -0.00105478 0.000166153 -0.0028407 0.000175553
internal_weight=4.67934e+06 4.24861e+06 430728 4.02008e+06 12485 4.0076e+06
internal_count=4689342 4257208 432134 4025200 12867 4012333
is_linear=0
shrinkage=0.01


Tree=40
num_leaves=7
num_cat=0
split_feature=1 21 11 11 9 9
split_gain=5231.13 1419.31 1376.67 985.317 820.205 755.002
threshold=1.5255706906318667 0.011246468406170608 0.89507299661636364 1.149848520755768 1.4462442994117739 1.5294356346130373
decision_type=2 2 2 2 2 2
left_child=2 3 4 5 -1 -2
right_child=1 -3 -4 -5 -6 -7
leaf_value=0.00018684468955448038 -0.00053383442415626985 -0.00030929519059721153 -0.00035567398343302526 -0.0021482373494230459 -0.0010089213120700029 -0.0031579478453730337
leaf_weight=3666072.5 90635 134250 579813 137531 58240.5 12496.5
leaf_count=3671981 91069 134467 581318 139083 58451 12716
internal_value=-1.1308e-06 -0.00113405 9.75318e-05 -0.00159368 0.000168116 -0.000853045
internal_weight=4.67904e+06 374912 4.30413e+06 240662 3.72431e+06 103132
internal_count=4689085 377335 4311750 242868 3730432 103785
is_linear=0
shrinkage=0.01


Tree=41
num_leaves=7
num_cat=0
split_feature=4 12 41 21 41 39
split_gain=5271.85 1733.78 1118.43 1009.6 988.975 1331.14
threshold=1.7463722825050356 0.97235321998596203 -0.44780284166336054 -0.1469437777996063 -1.5665941238403318 1.0000000180025095e-35
decision_type=2 2 2 2 2 2
left_child=1 2 -1 -2 5 -5
right_child=3 -3 -4 4 -6 -7
leaf_value=0.00039157812567664792 -0.0019569585032444712 -0.00040144372410231394 3.4785116918384283e-05 0.011694120745558178 -0.00089610497309709552 -0.00049053760090161783
leaf_weight=1404118 126937.5 622675.5 2349167.5 1465 172428 2247
leaf_count=1406171 128381 623823 2351792 1680 174973 2265
internal_value=-1.12049e-06 8.71964e-05 0.00016829 -0.00127657 -0.000785585 0.00430996
internal_weight=4.67904e+06 4.37596e+06 3.75329e+06 303078 176140 3712
internal_count=4689085 4381786 3757963 307299 178918 3945
is_linear=0
shrinkage=0.01


Tree=42
num_leaves=7
num_cat=0
split_feature=16 1 20 9 35 32
split_gain=5196.52 1732.49 1614.28 1208.33 775.099 662.855
threshold=1.9499000310897829 2.4155659675598149 0.02987174037843943 1.414176940917969 -0.066445723176002489 -2.6883053779602046
decision_type=2 2 2 2 2 2
left_child=2 -2 3 5 -4 -1
right_child=1 -3 4 -5 -6 -7
leaf_value=0.0028885666355431047 -0.00069860507011343712 -0.0022544176646116607 -4.5941694569521626e-06 -0.0010922253519475506 -0.00051525286065530387 0.00027090255830745631
leaf_weight=9706 402707 87159.5 909952.5 65642.5 441700 2762171
leaf_count=11857 404104 87961 911014 66276 442429 2765444
internal_value=-1.10911e-06 -0.000975668 0.00011283 0.000248329 -0.000171546 0.000280115
internal_weight=4.67904e+06 489866 4.18917e+06 2.83752e+06 1.35165e+06 2.77188e+06
internal_count=4689085 492065 4197020 2843577 1353443 2777301
is_linear=0
shrinkage=0.01


Tree=43
num_leaves=7
num_cat=0
split_feature=16 11 39 16 34 16
split_gain=5093.13 1497.75 1213.17 973.935 619.669 849.052
threshold=1.9499000310897829 1.0492295622825625 2.4343496561050419 -1.1845331788063047 -0.38990226387977595 -1.3579193353652952
decision_type=2 2 2 2 2 2
left_child=1 4 -2 -3 5 -1
right_child=2 3 -4 -5 -6 -7
leaf_value=0.0037938186022749443 -0.00075028761406859283 -0.0040119678811938921 -0.0021172840277423727 -0.00038214380159288846 8.2452148906881321e-05 0.00033347399064948045
leaf_weight=7126 412683.5 7520 77183 424831 2457968 1291727
leaf_count=8253 414165 8366 77900 425725 2460703 1293973
internal_value=-1.09848e-06 0.000111702 -0.000965914 -0.000445601 0.000175866 0.000352565
internal_weight=4.67904e+06 4.18917e+06 489866 432351 3.75682e+06 1.29885e+06
internal_count=4689085 4197020 492065 434091 3762929 1302226
is_linear=0
shrinkage=0.01


Tree=44
num_leaves=7
num_cat=0
split_feature=0 38 32 10 32 21
split_gain=5106.88 2074.36 1409.99 1865.49 1325.94 1206.65
threshold=1.4676162600517275 1.0225989818573 -2.6883053779602046 1.0000000180025095e-35 -2.6883053779602046 0.011246468406170608
decision_type=2 2 2 2 2 2
left_child=1 -1 3 -2 -3 -4
right_child=2 4 5 -5 -6 -7
leaf_value=0.00018394249722271551 0.008700942888743346 -0.0082592421886990529 -0.001559648260860671 -0.001947439643443856 -0.00044118898203463169 -0.00037420001436229785
leaf_weight=3730930.5 3358.5 2169.5 259639.5 3186.5 551081.5 128672.5
leaf_count=3735822 4305 2407 262029 3707 551965 128850
internal_value=-1.08756e-06 9.91884e-05 -0.00108931 0.00350635 -0.000472176 -0.00116711
internal_weight=4.67904e+06 4.28418e+06 394857 6545 553251 388312
internal_count=4689085 4290194 398891 8012 554372 390879
is_linear=0
shrinkage=0.01


Tree=45
num_leaves=7
num_cat=0
split_feature=17 45 9 20 23 9
split_gain=6173.64 1830.62 1645.13 1308.94 717.551 584.763
threshold=1.9801582098007204 1.9232676625251772 1.4840136766433718 0.02987174037843943 -0.096307873725891099 1.2311760783195498
decision_type=2 2 2 2 2 2
left_child=2 -2 3 -1 -5 -3
right_child=1 5 -4 4 -6 -7
leaf_value=0.00026461009977307709 -0.00072679237595174584 -0.0018446584535681627 -0.0013812857447273428 -3.1771385419692673e-05 -0.00075465545786551212 -0.0037206121601697801
leaf_weight=2886802.5 353835.5 96797 71584 1093396.5 157087 20249
leaf_count=2892790 354620 97285 72254 1094429 157576 20784
internal_value=0 -0.00108586 0.000121504 0.000147533 -0.000122666 -0.00217034
internal_weight=4.67975e+06 470882 4.20887e+06 4.13729e+06 1.25048e+06 117046
internal_count=4689738 472689 4217049 4144795 1252005 118069
is_linear=0
shrinkage=0.01


Tree=46
num_leaves=7
num_cat=0
split_feature=17 4 17 32 4 19
split_gain=6050.84 1804.59 3079.45 1593.25 1528.59 1279.64
threshold=1.9801582098007204 1.3410442471504214 -1.2072781324386594 -2.6883053779602046 2.1511760950088505 -1.6732644438743589
decision_type=2 2 2 2 2 2
left_child=1 5 3 -3 -2 -1
right_child=4 2 -4 -5 -6 -7
leaf_value=-0.0028074885857534543 -0.0008192300827953589 0.014363729142131866 -0.00070524412423438173 0 -0.0023469169648819865 0.0001905311748452232
leaf_weight=14275.5 392121 2058.5 314637.5 1243.5 78760.5 3876655
leaf_count=14688 392951 2736 317185 1294 79738 3881146
internal_value=0 0.000120288 -0.000604 0.00898606 -0.00107501 0.000179499
internal_weight=4.67975e+06 4.20887e+06 317940 3302 470882 3.89093e+06
internal_count=4689738 4217049 321215 4030 472689 3895834
is_linear=0
shrinkage=0.01


Tree=47
num_leaves=7
num_cat=0
split_feature=4 14 32 34 1 31
split_gain=4768.96 2465.26 2153.71 3335.97 1385.23 974.906
threshold=1.5182144045829775 1.6559481620788576 -2.6883053779602046 -1.7074471116065977 2.465217232704163 -0.85577574372291554
decision_type=2 2 2 2 2 2
left_child=1 5 3 -2 -4 -1
right_child=2 -3 4 -5 -6 -7
leaf_value=-0.00018240684961619459 0.018936958686676948 -0.00085837337176505933 -0.00092983097263028966 0.0011219291869828969 -0.0026579060318952046 0.00022591925176506449
leaf_weight=708516 1278.5 255463 313890 5795.5 54536.5 3340272
leaf_count=708941 1682 256023 315690 7076 55332 3344994
internal_value=0 9.43026e-05 -0.00108077 0.00437798 -0.00118597 0.000154439
internal_weight=4.67975e+06 4.30425e+06 375500 7074 368426 4.04879e+06
internal_count=4689738 4309958 379780 8758 371022 4053935
is_linear=0
shrinkage=0.01


Tree=48
num_leaves=7
num_cat=0
split_feature=17 1 1 23 23 8
split_gain=5872.86 1764.59 1251.96 990.495 831.743 725.433
threshold=1.9801582098007204 2.4155659675598149 0.75548875331878673 -0.0068305621389299622 -0.32112199068069452 -2.3462288379669185
decision_type=2 2 2 2 2 2
left_child=2 -2 3 -1 -4 -5
right_child=1 -3 4 5 -6 -7
leaf_value=4.4441124094930007e-05 -0.00078657805309176462 -0.0024368914958189016 -0.0019803667577981111 -0.0017331830681361763 -0.00021644948589038396 0.00040167386316672328
leaf_weight=2028195.5 393202 77679.5 28007 16056 592201.5 1544410
leaf_count=2029926 394223 78466 28039 16330 594106 1548648
internal_value=0 -0.00105908 0.000118506 0.000190222 -0.000296295 0.000379633
internal_weight=4.67975e+06 470882 4.20887e+06 3.58866e+06 620208 1.56047e+06
internal_count=4689738 472689 4217049 3594904 622145 1564978
is_linear=0
shrinkage=0.01


Tree=49
num_leaves=7
num_cat=0
split_feature=1 41 16 32 23 41
split_gain=4626.74 1656.73 1477.58 1044.03 6995.62 981.925
threshold=1.7324144244194033 -1.0616956353187559 1.5427893400192263 -2.6883053779602046 0.029597527347505096 0.59612137079238903
decision_type=2 2 2 2 2 2
left_child=1 3 -3 4 -1 -2
right_child=5 2 -4 -5 -6 -7
leaf_value=0.017253546747116141 -0.0016739746336189563 5.3485159505488807e-05 -0.00063481122322834097 0.00044694774130131211 -0.0079146225542862606 -0.00051751016716848315
leaf_weight=2319.5 177418.5 3154201.5 346095 871842.5 2085.5 125789
leaf_count=3063 179034 3159019 346999 873026 2239 126358
internal_value=0 8.27756e-05 -1.45438e-05 0.000471642 0.00532436 -0.00119457
internal_weight=4.67975e+06 4.37654e+06 3.5003e+06 876248 4405 303208
internal_count=4689738 4384346 3506018 878328 5302 305392
is_linear=0
shrinkage=0.01


Tree=50
num_leaves=7
num_cat=0
split_feature=10 6 9 23 32 9
split_gain=4497.95 1613.78 1460.58 1185.91 1102.31 748.648
threshold=1.3444767594337466 2.4538185596466069 1.4462442994117739 -0.017667056992650029 -2.6883053779602046 1.2010959386825564
decision_type=2 2 2 2 2 2
left_child=2 5 3 -1 -5 -2
right_child=1 -3 -4 4 -6 -7
leaf_value=-1.425308296688897e-05 -0.00054197421336062417 -0.0022023365941543525 -0.0011862768447004094 0.0039229339120639486 0.00031285257019006814 -0.0023024751502671126
leaf_weight=2318969.5 418429.5 78244.5 85522 8494.5 1743230 25673
leaf_count=2320916 419845 79388 85942 10610 1745584 26303
internal_value=-3.04327e-06 -0.000877677 0.000106857 0.000134052 0.000330438 -0.000644021
internal_weight=4.67856e+06 522347 4.15622e+06 4.07069e+06 1.75172e+06 444102
internal_count=4688588 525536 4163052 4077110 1756194 446148
is_linear=0
shrinkage=0.01


Tree=51
num_leaves=7
num_cat=0
split_feature=17 1 5 23 5 23
split_gain=5679.48 1715.58 1323.03 1003.56 927.955 558.628
threshold=1.9179964661598208 2.4155659675598149 1.0958594679832461 -0.01357016898691654 -2.5592219829559322 -0.32112199068069452
decision_type=2 2 2 2 2 2
left_child=2 -2 3 5 -5 -1
right_child=1 -3 -4 4 -6 -7
leaf_value=-0.0007174590664559674 -0.00076204202440930627 -0.0023706492491576141 -0.00044038575371125178 -0.0025561380037824187 0.00037543890243352279 6.4056620807905243e-05
leaf_weight=95745.5 409823.5 79203.5 387715 10850 1659377 2035848.5
leaf_count=95814 410863 80028 389646 11205 1663526 2037506
internal_value=-3.01331e-06 -0.00102282 0.000116003 0.000172772 0.00035632 2.89029e-05
internal_weight=4.67856e+06 489027 4.18954e+06 3.80182e+06 1.67023e+06 2.13159e+06
internal_count=4688588 490891 4197697 3808051 1674731 2133320
is_linear=0
shrinkage=0.01


Tree=52
num_leaves=7
num_cat=0
split_feature=16 6 6 18 6 34
split_gain=4338.27 1377.22 952.089 671.392 1237.86 638.159
threshold=1.9499000310897829 2.4538185596466069 0.8180433213710786 -2.0328230857849117 -1.4214391112327573 -0.31591609120368952
decision_type=2 2 2 2 2 2
left_child=2 -2 3 4 -1 -5
right_child=1 -3 -4 5 -6 -7
leaf_value=-0.010474531257627807 -0.00066859467908628319 -0.0021456696637535849 -0.00028662606445486295 0.00032896891378430274 -0.0009435909876157006 5.8492394685352999e-05
leaf_weight=1562.5 414898.5 74560.5 550024 1462407 10511.5 2164599
leaf_count=1751 416349 75306 551767 1465894 10731 2166790
internal_value=-2.98374e-06 -0.000893845 0.000101083 0.000159711 -0.00219292 0.000167577
internal_weight=4.67856e+06 489459 4.1891e+06 3.63908e+06 12074 3.62701e+06
internal_count=4688588 491655 4196933 3645166 12482 3632684
is_linear=0
shrinkage=0.01


Tree=53
num_leaves=7
num_cat=0
split_feature=17 38 2 10 17 2
split_gain=5511.01 1217.44 853.969 528.597 511.857 867.299
threshold=1.9179964661598208 0.31296205520629888 2.3525195121765141 -1.4971829056739805 -1.1398117542266843 -1.0517705678939817
decision_type=2 2 2 2 2 2
left_child=1 3 -2 -1 5 -3
right_child=2 4 -4 -5 -6 -7
leaf_value=-0.00064469629358838401 -0.00082479852822413182 -0.0097599991547663283 -0.0019664846432147754 0.00023587432880393678 -0.00015585377032939775 -0.00080906320714613461
leaf_weight=69677 410862 1469.5 78165 3020328.5 1093906.5 4154.5
leaf_count=70016 412097 1582 78794 3025704 1096132 4263
internal_value=-2.95463e-06 0.000114283 -0.00100752 0.000215984 -0.000171435 -0.00317878
internal_weight=4.67856e+06 4.18954e+06 489027 3.09001e+06 1.09953e+06 5624
internal_count=4688588 4197697 490891 3095720 1101977 5845
is_linear=0
shrinkage=0.01


Tree=54
num_leaves=7
num_cat=0
split_feature=14 0 45 19 0 41
split_gain=4283.48 1996.75 1457.48 1139.77 3009.4 1210.97
threshold=1.4212920665740969 1.2289069890975954 2.4702801704406743 -1.6732644438743589 -2.0332154035568233 -0.44780284166336054
decision_type=2 2 2 2 2 2
left_child=1 3 -2 4 -1 -5
right_child=2 -3 -4 5 -6 -7
leaf_value=-0.015329367400273349 -0.00067871765958615448 -0.00058414697162923986 -0.0021884300918124629 0.00039966031022591351 -0.00091809940139655013 3.3720942983614685e-05
leaf_weight=1663.5 352321 394504 78246 1458070.5 10968 2382790
leaf_count=1955 353137 397908 78826 1460268 11081 2385413
internal_value=-2.92624e-06 9.33851e-05 -0.000953351 0.000162775 -0.00283452 0.000172666
internal_weight=4.67856e+06 4.248e+06 430567 3.85349e+06 12631.5 3.84086e+06
internal_count=4688588 4256625 431963 3858717 13036 3845681
is_linear=0
shrinkage=0.01


Tree=55
num_leaves=7
num_cat=0
split_feature=5 38 21 23 0 16
split_gain=4908.81 2062.68 1137.55 887.185 782.833 696.103
threshold=2.0795688629150395 1.3915557861328127 0.011246468406170608 -0.32112199068069452 0.81017193198204052 -1.2173551917076109
decision_type=2 2 2 2 2 2
left_child=1 3 -2 -1 -5 -3
right_child=2 5 -4 4 -6 -7
leaf_value=-0.00074119641973447923 -0.0019584351906906652 -0.0061740389927435451 -0.00036498344071915229 0.00021626604809527888 -0.000196860795795572 -0.00060856571103484205
leaf_weight=111908.5 149346 2255.5 64245 3455391.5 528616 367673.5
leaf_count=111988 151640 2441 64422 3460013 530661 368317
internal_value=1.27446e-06 7.21295e-05 -0.00147966 0.000136738 0.000161425 -0.000642935
internal_weight=4.67944e+06 4.46584e+06 213591 4.09592e+06 3.98401e+06 369929
internal_count=4689482 4473420 216062 4102662 3990674 370758
is_linear=0
shrinkage=0.01


Tree=56
num_leaves=7
num_cat=0
split_feature=4 32 44 1 23 32
split_gain=4242.56 2382.86 1902.87 1719.57 1124.04 1959.56
threshold=1.8152369260787966 -2.6883053779602046 1.6223881840705874 0.032897714525461204 0.0021394331706687812 -2.6883053779602046
decision_type=2 2 2 2 2 2
left_child=2 3 4 -2 -1 -6
right_child=1 -3 -4 -5 5 -7
leaf_value=3.6666124751825557e-06 0.0088883468128829156 -0.0013249874732208255 -0.00070119068148053387 -0.0011799292962866241 -0.0082198845327970376 0.00035928221650740797
leaf_weight=2539035.5 3979.5 278256 292512 2920 2656 1560077
leaf_count=2542442 5155 280783 293398 3419 2819 1561466
internal_value=1.26023e-06 -0.0011807 7.7986e-05 0.00461725 0.000133578 0.000344585
internal_weight=4.67944e+06 285156 4.39428e+06 6899.5 4.10177e+06 1.56273e+06
internal_count=4689482 289357 4400125 8574 4106727 1564285
is_linear=0
shrinkage=0.01


Tree=57
num_leaves=7
num_cat=0
split_feature=1 38 38 20 1 37
split_gain=4189.79 1418.07 1264.76 828.83 597.676 415.413
threshold=1.1540191173553469 1.0442880988121035 1.9161310791969302 -0.43075414001941675 2.4155659675598149 -0.17988300323486325
decision_type=2 2 2 2 2 2
left_child=2 -2 3 5 -3 -1
right_child=1 4 -4 -5 -6 -7
leaf_value=0.00014098661991865917 -0.00048198373857161604 -0.0010770523127150212 -0.00077092496654542029 -7.3548376088902337e-06 -0.0022927681691392969 0.00042249058756668712
leaf_weight=1047319 387490.5 97617 156393 1868488 69701.5 1052427
leaf_count=1048379 389097 98002 156806 1873143 70507 1053548
internal_value=1.24715e-06 -0.000814591 0.000111013 0.000145798 -0.0015842 0.00028213
internal_weight=4.67944e+06 554809 4.12463e+06 3.96823e+06 167318 2.09975e+06
internal_count=4689482 557606 4131876 3975070 168509 2101927
is_linear=0
shrinkage=0.01


Tree=58
num_leaves=7
num_cat=0
split_feature=5 10 21 34 9 24
split_gain=4695.38 1477.45 1110.69 738.541 661.19 663.473
threshold=2.0795688629150395 0.97044846415519725 0.011246468406170608 0.63836655020713817 1.414176940917969 -1.0000000180025095e-35
decision_type=2 2 2 2 2 2
left_child=1 4 3 -2 5 -1
right_child=2 -3 -4 -5 -6 -7
leaf_value=4.9464396731242218e-05 -0.0023212018638630832 -0.00038592709338714512 -0.00034570748516306272 -0.00068174048367878552 -0.00079537019645509264 0.00031830774580971562
leaf_weight=2207895 112752 611826 64245 36594 73606 1572518
leaf_count=2209566 114717 613574 64422 36923 73748 1576532
internal_value=1.23374e-06 7.05317e-05 -0.00144714 -0.00192023 0.000143021 0.000161321
internal_weight=4.67944e+06 4.46584e+06 213591 149346 3.85402e+06 3.78041e+06
internal_count=4689482 4473420 216062 151640 3859846 3786098
is_linear=0
shrinkage=0.01


Tree=59
num_leaves=7
num_cat=0
split_feature=1 44 16 23 8 23
split_gain=4045.64 1255.16 1029.01 981.547 713.386 571.65
threshold=1.1540191173553469 1.6223881840705874 1.9499000310897829 -0.019775731489062306 -2.7946519851684566 -0.33080832660198206
decision_type=2 2 2 2 2 2
left_child=2 5 3 -1 -5 -2
right_child=1 -3 -4 4 -6 -7
leaf_value=1.0424126774745623e-05 -0.0022330163748243248 -0.0015269675750291434 -0.00047617223222954134 -0.0025271862799467822 0.00034730112816348796 -0.00040375108092851236
leaf_weight=2158121 17932.5 166540.5 279940.5 8660.5 1677905 370336
leaf_count=2159967 17959 167867 280818 8868 1682223 371780
internal_value=1.22046e-06 -0.000800461 0.000109082 0.000151722 0.000332466 -0.00048855
internal_weight=4.67944e+06 554809 4.12463e+06 3.84469e+06 1.68657e+06 388268
internal_count=4689482 557606 4131876 3851058 1691091 389739
is_linear=0
shrinkage=0.01


Tree=60
num_leaves=7
num_cat=0
split_feature=45 10 19 19 19 34
split_gain=3936.45 1261.23 1169.66 942.81 732.366 583.557
threshold=1.5699334740638735 0.85800656676292431 2.102973580360413 -0.89755976200103749 -1.6732644438743589 -0.44918462634086603
decision_type=2 2 2 2 2 2
left_child=1 3 -2 -1 -3 -5
right_child=2 4 -4 5 -6 -7
leaf_value=-0.000209056728791642 -0.00071966220495805892 -0.0054260440899388399 -0.0021442134162316133 0.00042534494704717367 -0.00031005602742028947 0.00013058359673725993
leaf_weight=599516 282868.5 2803.5 72541 983996 616933.5 2121036
leaf_count=600094 284374 3259 73384 987091 618491 2123078
internal_value=8.73096e-07 8.40432e-05 -0.00101075 0.000153913 -0.000333448 0.000224028
internal_weight=4.67969e+06 4.32428e+06 355410 3.70455e+06 619737 3.10503e+06
internal_count=4689771 4332013 357758 3710263 621750 3110169
is_linear=0
shrinkage=0.01


Tree=61
num_leaves=7
num_cat=0
split_feature=17 6 0 17 0 20
split_gain=5088.62 1542.92 1179.88 1015.64 2161.95 919.615
threshold=1.9179964661598208 2.1993503570556645 0.9412762224674226 -1.2072781324386594 2.299031257629395 0.062119500711560256
decision_type=2 2 2 2 2 2
left_child=2 -2 5 4 -4 -1
right_child=1 -3 3 -5 -6 -7
leaf_value=0.00027307861688177142 -0.00069101926055782051 -0.0021204197600931678 -0.0019213471330057571 -0.00039506286767593312 0.012004152622701365 -7.66119878035625e-05
leaf_weight=2658523 395352 93486 2437 479747 2026 1048123.5
leaf_count=2662501 396286 94421 2449 482308 2620 1049186
internal_value=8.63333e-07 -0.000964622 0.000113507 -0.000350657 0.00439055 0.00017417
internal_weight=4.67969e+06 488838 4.19086e+06 484210 4463 3.70665e+06
internal_count=4689771 490707 4199064 487377 5069 3711687
is_linear=0
shrinkage=0.01


Tree=62
num_leaves=7
num_cat=0
split_feature=0 38 45 20 20 15
split_gain=3906.31 1840.18 990.613 740.055 678.107 431.798
threshold=1.670960605144501 1.0225989818573 2.4182072877883916 0.062119500711560256 -0.42239587008953089 -1.8419786095619199
decision_type=2 2 2 2 2 2
left_child=1 4 5 -3 -1 -2
right_child=2 3 -4 -5 -6 -7
leaf_value=0.00028182683268977731 -0.0052961738964845363 3.2812901372098208e-05 -0.0021144709895067242 -0.00072054797530611895 1.3189521185601091e-05 -0.00073005830442681862
leaf_weight=2058492 2086 202526.5 69855.5 364842 1730293 251599.5
leaf_count=2060350 2113 202942 71176 365570 1733452 254168
internal_value=8.53996e-07 7.96149e-05 -0.00105924 -0.000451458 0.00015917 -0.000768206
internal_weight=4.67969e+06 4.35615e+06 323541 567368 3.78878e+06 253686
internal_count=4689771 4362314 327457 568512 3793802 256281
is_linear=0
shrinkage=0.01


Tree=63
num_leaves=7
num_cat=0
split_feature=16 0 20 0 32 14
split_gain=3964.99 1270.22 1215.64 903.523 1593.24 757.946
threshold=1.9499000310897829 2.3521237373352055 0.10989817976951601 0.89585864543914806 -2.6883053779602046 2.6507343053817753
decision_type=2 2 2 2 2 2
left_child=2 5 3 -1 -5 -2
right_child=1 -3 -4 4 -6 -7
leaf_value=0.00027177595763367183 -0.00044123826495054435 -0.0018920601639034944 -0.00015796342659475023 0.0049997206698607901 -0.00041123623581871936 -0.001807383230876939
leaf_weight=2623827 347851 94684.5 1270206.5 5533 291538.5 46054
leaf_count=2627522 348822 95745 1271874 6869 292724 46215
internal_value=8.44846e-07 -0.000851643 0.000100252 0.000212576 -0.000309955 -0.000601259
internal_weight=4.67969e+06 488590 4.1911e+06 2.9209e+06 297072 393905
internal_count=4689771 490782 4198989 2927115 299593 395037
is_linear=0
shrinkage=0.01


Tree=64
num_leaves=7
num_cat=0
split_feature=16 4 38 32 4 16
split_gain=3886.12 1443.27 1346.83 1475.95 2246.49 1392.53
threshold=1.9499000310897829 2.1511760950088505 0.51991361379623424 -2.6883053779602046 -1.0000000180025095e-35 -1.2173551917076109
decision_type=2 2 2 2 2 2
left_child=2 -2 3 4 -1 -4
right_child=1 -3 5 -5 -6 -7
leaf_value=-0.003983372937282452 -0.0005742241158586583 -0.0019436117552607743 -0.0042295480266157925 0.00018054545477840412 0.0068133432079158065 -0.000206841388744293
leaf_weight=2579.5 392730 95859.5 8683.5 3292594.5 7441 879806.5
leaf_count=2692 393794 96988 9452 3296313 9388 881144
internal_value=8.35554e-07 -0.000843132 9.9249e-05 0.000192246 0.00402286 -0.000246316
internal_weight=4.67969e+06 488590 4.1911e+06 3.30262e+06 10020.5 888490
internal_count=4689771 490782 4198989 3308393 12080 890596
is_linear=0
shrinkage=0.01


Tree=65
num_leaves=7
num_cat=0
split_feature=17 6 41 37 38 37
split_gain=4729.2 1519.1 1285.55 1011.59 965.063 668.036
threshold=1.9179964661598208 2.4538185596466069 -1.0482547879219053 0.0087489858269691485 -1.0000000180025095e-35 -0.30365724861621851
decision_type=2 2 2 2 2 2
left_child=2 3 5 -2 -4 -1
right_child=1 -3 4 -5 -6 -7
leaf_value=0.00011780998616845225 -0.0013083551837989036 -0.0023545452109405732 0.00017316887894182009 -0.00031076569034082418 -0.00016870125713536806 0.00069408946654424004
leaf_weight=337943.5 169690.5 64847 1882898 254390.5 1470517.5 498679
leaf_count=338371 170231 65589 1884589 254933 1474844 500353
internal_value=2.12313e-06 -0.000928535 0.000110746 -0.000710195 2.32244e-05 0.000461432
internal_weight=4.67897e+06 488928 4.19004e+06 424081 3.35342e+06 836622
internal_count=4688910 490753 4198157 425164 3359433 838724
is_linear=0
shrinkage=0.01


Tree=66
num_leaves=7
num_cat=0
split_feature=5 20 24 19 19 0
split_gain=4274.96 1489.42 946.697 905.365 742.682 2046.83
threshold=1.5254806876182558 0.10989817976951601 -0.12237228453159331 2.102973580360413 -1.6732644438743589 -1.6999693512916563
decision_type=2 2 2 2 2 2
left_child=1 4 -3 -2 5 -1
right_child=3 2 -4 -5 -6 -7
leaf_value=-0.013354742575992012 -0.00066917556166034328 -3.4729460502002781e-05 -0.00065524577884828376 -0.0017087938757472615 0.00022468008050732365 -0.00068632749961801344
leaf_weight=1459.5 246398 993729 326866 127359.5 2973320 9834
leaf_count=1676 248100 994668 327361 128507 2978685 9913
internal_value=2.10141e-06 9.11849e-05 -0.000188396 -0.00102373 0.000214924 -0.00234273
internal_weight=4.67897e+06 4.30521e+06 1.3206e+06 373758 2.98461e+06 11293.5
internal_count=4688910 4312303 1322029 376607 2990274 11589
is_linear=0
shrinkage=0.01


Tree=67
num_leaves=7
num_cat=0
split_feature=4 32 38 8 32 1
split_gain=3893.97 2313.78 1840.41 1800.65 1242.09 972.707
threshold=2.1511760950088505 -2.6883053779602046 1.0225989818573 1.0000000180025095e-35 -2.6883053779602046 1.5767707824707033
decision_type=2 2 2 2 2 2
left_child=2 3 -1 -2 -4 -6
right_child=1 -3 4 -5 5 -7
leaf_value=0.00014480047105600252 0.0090351208050617436 -0.0015086201311037115 -0.0077635683187325345 -0.0013074413817949788 -0.00024661569746512249 -0.0013516238107389659
leaf_weight=3869651 3759 206104 2306 3011 499259 94876
leaf_count=3874385 4934 208393 2545 3517 499956 95180
internal_value=2.07875e-06 -0.00131924 6.50837e-05 0.00442531 -0.000451937 -0.00042326
internal_weight=4.67897e+06 212874 4.46609e+06 6770 596441 594135
internal_count=4688910 216844 4472066 8451 597681 595136
is_linear=0
shrinkage=0.01


Tree=68
num_leaves=7
num_cat=0
split_feature=5 41 38 32 5 41
split_gain=4130.69 1504.48 1393.11 1162.47 6217.52 1073.27
threshold=1.5254806876182558 -1.0616956353187559 -1.0000000180025095e-35 -2.6883053779602046 -0.016343447379767891 0.52829694747924816
decision_type=2 2 2 2 2 2
left_child=1 3 -3 4 -1 -2
right_child=5 2 -4 -5 -6 -7
leaf_value=-0.0096360675917936921 -0.0014671767095268413 0.00018107858388820543 -0.00022273320141545376 0.00043671565588001887 0.015185290883171923 -0.00038213553487397299
leaf_weight=1622.5 214909 1863428 1577609.5 859924.5 2624 158848.5
leaf_count=1767 217007 1864866 1581302 860960 3408 159600
internal_value=2.05705e-06 8.96248e-05 -4.02771e-06 0.000462651 0.00567771 -0.00100632
internal_weight=4.67897e+06 4.30521e+06 3.44104e+06 864171 4246.5 373758
internal_count=4688910 4312303 3446168 866135 5175 376607
is_linear=0
shrinkage=0.01


Tree=69
num_leaves=7
num_cat=0
split_feature=5 14 21 14 9 23
split_gain=4048.51 1288.45 1221.34 985.492 965.513 797.365
threshold=1.5254806876182558 1.8005504608154299 0.011246468406170608 1.6997244954109194 1.2311760783195498 -0.32112199068069452
decision_type=2 2 2 2 2 2
left_child=1 5 3 4 -2 -1
right_child=2 -3 -4 -5 -6 -7
leaf_value=-0.0007097979926331691 -0.00048056879171361243 -0.00072610219870574149 -0.00019479995974012204 -0.0024479083697970332 -0.002009361626321194 0.0001486630177133736
leaf_weight=111153 117129 185644.5 126223.5 66379.5 64025.5 4008411
leaf_count=111241 117697 186001 126444 66959 65507 4015061
internal_value=2.03614e-06 8.87287e-05 -0.00099626 -0.00140451 -0.00102152 0.000125474
internal_weight=4.67897e+06 4.30521e+06 373758 247534 181154 4.11956e+06
internal_count=4688910 4312303 376607 250163 183204 4126302
is_linear=0
shrinkage=0.01


Tree=70
num_leaves=7
num_cat=0
split_feature=17 6 23 38 17 34
split_gain=4473.48 1467.17 1091.69 937.91 566.245 500.097
threshold=1.9179964661598208 2.4538185596466069 -0.32112199068069452 0.31296205520629888 -1.1683182716369627 0.71755954623222362
decision_type=2 2 2 2 2 2
left_child=2 -2 -1 -4 -5 -3
right_child=1 5 3 4 -6 -7
leaf_value=-0.00087197046364644493 -0.00068990041927008742 -0.0027677712723033648 0.00022305458913421663 -0.0040208278730484203 -0.0001080143710540803 -0.00062961554985659692
leaf_weight=111075 424228.5 50828.5 3010221 3703 1065365.5 14111
leaf_count=111173 425339 51474 3015922 3892 1067598 14194
internal_value=3.62288e-07 -0.000904543 0.000106023 0.00013268 -0.000121698 -0.00230487
internal_weight=4.67953e+06 489168 4.19036e+06 4.07929e+06 1.06907e+06 64939.5
internal_count=4689592 491007 4198585 4087412 1071490 65668
is_linear=0
shrinkage=0.01


Tree=71
num_leaves=7
num_cat=0
split_feature=4 44 16 8 19 4
split_gain=3621.12 1641.16 1312.73 2480.18 956.414 1463.58
threshold=1.8152369260787966 1.4988757371902468 -1.2683389782905576 0.080351971089839949 -0.90649569034576405 -2.3872965574264522
decision_type=2 2 2 2 2 2
left_child=1 4 3 -2 5 -1
right_child=2 -3 -4 -5 -6 -7
leaf_value=-0.0075217850351634334 0.0085178384166027677 -0.00059857826096031412 -0.0012186941850994323 -0.0018168348346332605 0.00019143316406141202 -0.000205441096373837
leaf_weight=2737.5 4018.5 337682 275257.5 5449 3449157 605231
leaf_count=2988 5173 338651 277810 5920 3453326 605724
internal_value=3.57191e-07 7.11844e-05 -0.00109249 0.00256355 0.000126956 -0.000238672
internal_weight=4.67953e+06 4.39481e+06 284725 9467.5 4.05713e+06 607968
internal_count=4689592 4400689 288903 11093 4062038 608712
is_linear=0
shrinkage=0.01


Tree=72
num_leaves=7
num_cat=0
split_feature=4 11 23 19 9 11
split_gain=3549.04 1641.71 923.571 853.144 852.104 631.366
threshold=1.8152369260787966 1.2046577334403994 -0.32112199068069452 -0.90649569034576405 1.5294356346130373 0.5116097927093507
decision_type=2 2 2 2 2 2
left_child=1 2 -1 -4 5 -2
right_child=4 -3 3 -5 -6 -7
leaf_value=-0.00077191044870780962 -0.00026695039367085862 -0.00048427394731707452 -0.00019727506883921713 0.00022575505620007198 -0.0025876826122075013 -0.0012912014115167944
leaf_weight=108457.5 100574.5 475641 558363 3252346 33239.5 150911
leaf_count=108530 102254 476842 558981 3256336 34049 152600
internal_value=3.5271e-07 7.04717e-05 0.000137824 0.000163744 -0.00108157 -0.000882006
internal_weight=4.67953e+06 4.39481e+06 3.91917e+06 3.81071e+06 284725 251486
internal_count=4689592 4400689 3923847 3815317 288903 254854
is_linear=0
shrinkage=0.01


Tree=73
num_leaves=7
num_cat=0
split_feature=17 5 23 5 23 24
split_gain=4310.11 1207.62 1051.84 820.272 647.523 519.312
threshold=1.9179964661598208 2.3309780359268193 -0.32112199068069452 1.187075734138489 -0.0022629915038123723 -0.10808526352047919
decision_type=2 2 2 2 2 2
left_child=2 -2 -1 4 -4 -5
right_child=1 -3 3 5 -6 -7
leaf_value=-0.00085591391487399831 -0.00065601957192118574 -0.0019550157596403567 5.8357813339325147e-05 0.00014695569038598456 0.00032392850354498784 -0.00066755211574016579
leaf_weight=111075 401945.5 87222.5 2143410 128312 1607539.5 200028
leaf_count=111173 402755 88252 2145176 128653 1612034 201549
internal_value=3.47786e-07 -0.00088788 0.000104062 0.000130228 0.0001722 -0.000348951
internal_weight=4.67953e+06 489168 4.19036e+06 4.07929e+06 3.75095e+06 328340
internal_count=4689592 491007 4198585 4087412 3757210 330202
is_linear=0
shrinkage=0.01


Tree=74
num_leaves=7
num_cat=0
split_feature=5 41 21 5 20 24
split_gain=3648.82 1412.84 1249.6 983.757 729.353 1068.68
threshold=1.187075734138489 -0.87259197235107411 0.011246468406170608 2.3906114101409917 -1.0000000180025095e-35 -0.12070759385824202
decision_type=2 2 2 2 2 2
left_child=1 -1 3 -2 -3 -6
right_child=2 4 -4 -5 5 -7
leaf_value=0.00041327583269847696 -0.00078710740892360559 0.00012692096327692625 -0.0001271340214496639 -0.0019566857796083441 -1.7644412577125776e-05 -0.00066506020411989599
leaf_weight=1072212.5 241767.5 1734887 191032 102711 993823 343099.5
leaf_count=1074495 242811 1736508 191317 104580 994760 345121
internal_value=3.43805e-07 0.000100746 -0.000776414 -0.00113617 -8.3108e-06 -0.000183872
internal_weight=4.67953e+06 4.14402e+06 535510 344478 3.07181e+06 1.33692e+06
internal_count=4689592 4150884 538708 347391 3076389 1339881
is_linear=0
shrinkage=0.01


Tree=75
num_leaves=7
num_cat=0
split_feature=17 5 0 17 0 37
split_gain=4416.74 1326.49 964.91 819.735 2021.4 720.198
threshold=1.9801582098007204 2.3309780359268193 0.9412762224674226 -1.2072781324386594 2.299031257629395 1.0000000180025095e-35
decision_type=2 2 2 2 2 2
left_child=2 5 -1 4 -4 -2
right_child=1 -3 3 -5 -6 -7
leaf_value=0.0001583121779955424 -0.0012054932455977886 -0.0020437900580256626 -0.002186489893520389 -0.00035275914930204237 0.011408855119590189 -0.00031971859028763982
leaf_weight=3719468.5 151188 85616.5 2385 485643.5 1991 234758
leaf_count=3724530 151600 86615 2398 488226 2562 235143
internal_value=5.0887e-07 -0.000917209 0.000103341 -0.000313708 0.00398825 -0.000666988
internal_weight=4.68105e+06 471562 4.20949e+06 490020 4376 385946
internal_count=4691074 473358 4217716 493186 4960 386743
is_linear=0
shrinkage=0.01


Tree=76
num_leaves=7
num_cat=0
split_feature=5 41 32 5 21 12
split_gain=3801.48 1413.93 1247.38 5534.07 1238.63 1180.33
threshold=1.9142366647720339 -1.0482547879219053 -2.6883053779602046 -1.0000000180025095e-35 0.058247456327080734 1.8851941823959353
decision_type=2 2 2 2 2 2
left_child=1 2 3 -1 -2 -3
right_child=4 5 -4 -5 -6 -7
leaf_value=-0.0088501729608961091 -0.0016625030818451867 1.782209298494419e-05 0.00039711139263877464 0.014486468651486728 -0.00014250720819568324 -0.00087100114413737645
leaf_weight=1607.5 174257 3376600 891913.5 2712.5 77651 156309
leaf_count=1746 176625 3381729 893015 3499 77836 156624
internal_value=5.03047e-07 6.84875e-05 0.00042323 0.00577927 -0.00119438 -2.14768e-05
internal_weight=4.68105e+06 4.42914e+06 896234 4320 251908 3.53291e+06
internal_count=4691074 4436613 898260 5245 254461 3538353
is_linear=0
shrinkage=0.01


Tree=77
num_leaves=7
num_cat=0
split_feature=14 1 1 21 8 34
split_gain=3472.79 1138.3 1056.98 629.597 516.017 522.063
threshold=1.6126248240470888 2.4155659675598149 0.79369851946830761 0.058247456327080734 -2.7946519851684566 -0.36477109789848322
decision_type=2 2 2 2 2 2
left_child=2 -2 4 -3 -1 -6
right_child=1 3 -4 -5 5 -7
leaf_value=-0.0016326530128016861 -0.00065505727113314806 -0.0025712422559025566 -0.00029844190113482983 -0.00054329918486266718 0.0003023633333748389 5.6756366689238195e-05
leaf_weight=16300 261189 57501 640087 21055 1391098 2293820.5
leaf_count=16549 261786 58005 642475 21091 1394821 2296347
internal_value=4.97662e-07 -0.000973112 7.67162e-05 -0.00202911 0.000141624 0.000149503
internal_weight=4.68105e+06 339745 4.34131e+06 78556 3.70122e+06 3.68492e+06
internal_count=4691074 340882 4350192 79096 3707717 3691168
is_linear=0
shrinkage=0.01


Tree=78
num_leaves=7
num_cat=0
split_feature=17 9 41 9 14 20
split_gain=4245.33 1357.3 1162.21 1105.66 887.979 778.567
threshold=1.9801582098007204 1.4462442994117739 -1.0482547879219053 1.2311760783195498 2.6507343053817753 -1.0000000180025095e-35
decision_type=2 2 2 2 2 2
left_child=1 2 5 4 -2 -1
right_child=3 -3 -4 -5 -6 -7
leaf_value=0.00040388086860910783 -0.00057878013364705608 -0.0011322178019663926 4.3465310491450914e-05 -0.0025644372507675844 -0.0019009795557889671 0.0020587329514398325
leaf_weight=795118 375920 87326 3297532.5 36803.5 58839 29511.5
leaf_count=796042 376851 88112 3303011 37440 59067 30551
internal_value=4.91712e-07 0.000101309 0.000127467 -0.000899241 -0.000757992 0.00046325
internal_weight=4.68105e+06 4.20949e+06 4.12216e+06 471562 434759 824630
internal_count=4691074 4217716 4129604 473358 435918 826593
is_linear=0
shrinkage=0.01


Tree=79
num_leaves=7
num_cat=0
split_feature=17 9 41 9 38 37
split_gain=4160.89 1334.99 1133.24 1083.64 851.396 655.366
threshold=1.9801582098007204 1.5294356346130373 -1.1006146669387815 1.2311760783195498 -1.0000000180025095e-35 0.0087489858269691485
decision_type=2 2 2 2 2 2
left_child=1 2 -1 5 -4 -2
right_child=3 -3 4 -5 -6 -7
leaf_value=0.00046772450359416077 -0.0012310951116119581 -0.0014249025754343387 0.0001830170360596226 -0.0025387998457575946 -0.00013648624968623629 -0.00043599654471579972
leaf_weight=768697 171786.5 56596.5 1894525 36803.5 1489669.5 262972.5
leaf_count=770586 172381 57162 1896170 37440 1493798 263537
internal_value=4.86292e-07 0.000100296 0.000121109 -0.000890254 4.23471e-05 -0.000750415
internal_weight=4.68105e+06 4.20949e+06 4.15289e+06 471562 3.38419e+06 434759
internal_count=4691074 4217716 4160554 473358 3389968 435918
is_linear=0
shrinkage=0.01


Tree=80
num_leaves=7
num_cat=0
split_feature=4 32 34 41 4 23
split_gain=3271.72 1974.9 2800.65 1173.79 1016.57 821.807
threshold=1.3410442471504214 -2.6883053779602046 -1.5438735485076902 -1.1006146669387815 2.3031105995178227 -0.32112199068069452
decision_type=2 2 2 2 2 2
left_child=3 2 -2 -1 -3 -5
right_child=1 4 -4 5 -6 -7
leaf_value=0.00043180584093335355 0.015741928853515559 -0.00051506568612668454 0.0009364851288523173 -0.00081286726795912602 -0.0015017965092929623 3.4714359454945172e-05
leaf_weight=795317 1657.5 269174 5545 118467.5 171074.5 3318504
leaf_count=796654 2176 269791 6727 118569 173203 3322692
internal_value=-3.43876e-07 -0.000813545 0.00437461 8.56084e-05 -0.000898748 5.46806e-06
internal_weight=4.67974e+06 447451 7202.5 4.23229e+06 440248 3.43697e+06
internal_count=4689812 451897 8903 4237915 442994 3441261
is_linear=0
shrinkage=0.01


Tree=81
num_leaves=7
num_cat=0
split_feature=5 14 4 4 4 26
split_gain=3275.86 1366.67 799.936 832.505 642.037 490.7
threshold=2.0795688629150395 1.6559481620788576 -2.5141166448593135 0.8110255002975465 2.1511760950088505 -1.0000000180025095e-35
decision_type=2 2 2 2 2 2
left_child=1 2 5 -4 -2 -1
right_child=4 -3 3 -5 -6 -7
leaf_value=-0.00052447347757016876 -0.00065320393992298221 -0.00065924561966219171 0.00016903226331089338 -0.00023899232290059989 -0.0017527761182268315 -0.0030757447679025996
leaf_weight=20850.5 105169 251062.5 3602168.5 580466 108110 11913
leaf_count=20932 105528 251562 3606260 582872 110228 12430
internal_value=-3.39707e-07 5.74556e-05 0.000100166 0.000112382 -0.0012111 -0.00145584
internal_weight=4.67974e+06 4.46646e+06 4.2154e+06 4.18263e+06 213279 32763.5
internal_count=4689812 4474056 4222494 4189132 215756 33362
is_linear=0
shrinkage=0.01


Tree=82
num_leaves=7
num_cat=0
split_feature=4 41 12 1 41 22
split_gain=3156.07 1189.33 1048.35 793.826 623.548 1515.95
threshold=1.7463722825050356 -1.1006146669387815 1.8851941823959353 2.465217232704163 -1.5665941238403318 -0.14176058769226071
decision_type=2 2 2 2 2 2
left_child=1 -1 -3 4 5 -2
right_child=3 2 -4 -5 -6 -7
leaf_value=0.00041258598584992023 -0.00023891500206106686 2.6573814925583599e-05 -0.00079665025624136481 -0.0021223167799415371 -0.00083859560117454605 0.011227204425264866
leaf_weight=814986 5293 3399708.5 162053 51284.5 244956 1458.5
leaf_count=816360 5318 3403813 162418 52407 247814 1682
internal_value=-3.37308e-07 6.79708e-05 -1.08553e-05 -0.000987355 -0.000755638 0.00223622
internal_weight=4.67974e+06 4.37675e+06 3.56176e+06 302992 251708 6751.5
internal_count=4689812 4382591 3566231 307221 254814 7000
is_linear=0
shrinkage=0.01


Tree=83
num_leaves=7
num_cat=0
split_feature=4 20 16 10 4 10
split_gain=3101.95 1412.3 962.829 2182.38 941.934 781.015
threshold=1.3410442471504214 -0.014660535380244253 -1.2683389782905576 0.021235847845673565 2.3031105995178227 2.1947314739227299
decision_type=2 2 2 2 2 2
left_child=1 -1 3 -2 -4 -3
right_child=2 5 4 -5 -6 -7
leaf_value=0.00021969754664126994 0.0072241237301402727 -9.4500517502604889e-05 -0.00049484024465633032 -0.0019370298481713719 -0.0014490706562791222 -0.00093372725034565119
leaf_weight=2718369.5 4732.5 1393394 268009.5 5724 168985 120525
leaf_count=2720905 5897 1396010 268612 6219 171169 121000
internal_value=-3.3377e-07 8.33583e-05 -0.000792156 0.0022026 -0.000864093 -0.000161384
internal_weight=4.67974e+06 4.23229e+06 447451 10456.5 436994 1.51392e+06
internal_count=4689812 4237915 451897 12116 439781 1517010
is_linear=0
shrinkage=0.01


Tree=84
num_leaves=7
num_cat=0
split_feature=4 32 20 32 39 19
split_gain=3040.23 1903.59 1384.2 1459.04 1270.39 1200.63
threshold=1.3410442471504214 -2.6883053779602046 -0.014660535380244253 -2.6883053779602046 0.031422570347785957 -1.48001492023468
decision_type=2 2 2 2 2 2
left_child=2 4 3 5 -2 -1
right_child=1 -3 -4 -5 -6 -7
leaf_value=-0.013333587054144848 0.0079341685434929643 -0.00086789121564818581 -0.00015977108164905434 0.00022585126772271702 -0.00051993351299232807 -0.0013337543926623984
leaf_weight=1409.5 4122.5 440248.5 1513919 2714881.5 3080 2078.5
leaf_count=1596 5311 442994 1517010 2717168 3592 2141
internal_value=-3.30806e-07 -0.000784236 8.25242e-05 0.000217501 0.00430937 -0.00623573
internal_weight=4.67974e+06 447451 4.23229e+06 2.71837e+06 7202.5 3488
internal_count=4689812 451897 4237915 2720905 8903 3737
is_linear=0
shrinkage=0.01


Tree=85
num_leaves=7
num_cat=0
split_feature=5 38 34 0 0 16
split_gain=3173.44 1541.63 769.182 746.74 590.217 585.401
threshold=2.1668341159820561 1.9161310791969302 0.60793104767799389 0.71732458472251903 -2.3280128240585323 -1.1405749917030332
decision_type=2 2 2 2 2 2
left_child=1 3 -2 4 -1 -3
right_child=2 5 -4 -5 -6 -7
leaf_value=-0.0008982276916055733 -0.0016285778670318133 -0.0070041057527170181 -0.00021419638740558544 -0.0002121007307005186 0.00016508955709264382 -0.00077820981131510676
leaf_weight=52941 142910.5 1517 52839.5 678036 3563160.5 188113.5
leaf_count=53452 144932 1657 53203 680318 3567459 188467
internal_value=-1.00566e-06 5.33861e-05 -0.00124733 9.23737e-05 0.000149492 -0.00082891
internal_weight=4.67952e+06 4.48377e+06 195750 4.29414e+06 3.6161e+06 189630
internal_count=4689488 4491353 198135 4301229 3620911 190124
is_linear=0
shrinkage=0.01


Tree=86
num_leaves=7
num_cat=0
split_feature=4 32 41 41 41 23
split_gain=2967.78 2099.8 1650.35 1153.41 885.775 799.366
threshold=2.1511760950088505 -2.6883053779602046 -1.4029154181480405 -1.1006146669387815 0.67664676904678356 -0.31396433711051935
decision_type=2 2 2 2 2 2
left_child=3 2 -2 -1 -3 -5
right_child=1 4 -4 5 -6 -7
leaf_value=0.00039119631083415433 0.013980764762560074 -0.0018002782861840439 0.0017633666111343243 -0.00075434393179611399 -0.00040627544295554057 7.3444438667976908e-06
leaf_weight=826267 1399 137050.5 5282 143413.5 68615 3497491
leaf_count=827646 1735 138937 6600 143533 69081 3501956
internal_value=-9.9668e-07 -0.00115606 0.0043537 5.38893e-05 -0.00133573 -2.26326e-05
internal_weight=4.67952e+06 212346 6681 4.46717e+06 205666 3.6409e+06
internal_count=4689488 216353 8335 4473135 208018 3645489
is_linear=0
shrinkage=0.01


Tree=87
num_leaves=7
num_cat=0
split_feature=4 38 16 8 21 23
split_gain=2920.77 1288.06 872.851 2227.62 1024.31 862.122
threshold=1.5182144045829775 1.9161310791969302 -1.2683389782905576 1.0000000180025095e-35 0.011246468406170608 -0.31396433711051935
decision_type=2 2 2 2 2 2
left_child=1 5 3 -2 -4 -1
right_child=2 -3 4 -5 -6 -7
leaf_value=-0.00069647188591456485 0.0077691710054472833 -0.00074989053679565796 -0.0013041033416610174 -0.0018167509299423688 -0.00018438870206249588 0.00013521058310392018
leaf_weight=128611.5 4060 182197 242337 5960.5 123590.5 3992761.5
leaf_count=128708 5207 182701 244853 6435 123773 3997811
internal_value=-9.86009e-07 7.28343e-05 -0.000846271 0.00206108 -0.000926213 0.000109231
internal_weight=4.67952e+06 4.30357e+06 375948 10020.5 365928 4.12137e+06
internal_count=4689488 4309220 380268 11642 368626 4126519
is_linear=0
shrinkage=0.01


Tree=88
num_leaves=7
num_cat=0
split_feature=0 32 41 41 21 21
split_gain=2821.12 1128.72 1301.07 1062.76 1036.03 671.955
threshold=1.4676162600517275 -2.6883053779602046 -1.3081862926483152 -1.1006146669387815 0.011246468406170608 -1.1731418967247007
decision_type=2 2 2 2 2 2
left_child=3 2 -2 5 -3 -1
right_child=1 4 -4 -5 -6 -7
leaf_value=-0.00058203378392137999 0.011673264326161484 -0.0012423770288619411 0.00090373520807508312 -2.14177163663913e-06 -0.00014533931590313682 0.00048591126910851597
leaf_weight=63913.5 1439.5 259846.5 5084 3478972 129062.5 741200
leaf_count=63960 1760 262218 6229 3483492 129247 742582
internal_value=-9.765e-07 -0.000809157 0.00330972 7.35991e-05 -0.000878587 0.000401003
internal_weight=4.67952e+06 395432 6523.5 4.28409e+06 388909 805114
internal_count=4689488 399454 7989 4290034 391465 806542
is_linear=0
shrinkage=0.01


Tree=89
num_leaves=7
num_cat=0
split_feature=5 19 5 16 31 34
split_gain=3010.45 1128.23 2331.59 1084.48 886.079 747.062
threshold=2.1668341159820561 -1.6732644438743589 -2.321422696113586 1.6030474305152895 -0.8711663782596587 0.60793104767799389
decision_type=2 2 2 2 2 2
left_child=1 2 -1 4 -3 -2
right_child=5 3 -4 -5 -6 -7
leaf_value=-0.012317645296382788 -0.0015905824142076932 -0.00020838185134239049 -0.0010810819859195331 -0.00040256338849222454 0.00018224988621044248 -0.00019668366735769524
leaf_weight=2135 142910.5 703924.5 13513.5 452614 3311581 52839.5
leaf_count=2448 144932 704347 13768 453602 3317188 53203
internal_value=-9.66502e-07 5.20094e-05 -0.00262741 6.14217e-05 0.000113746 -0.00121486
internal_weight=4.67952e+06 4.48377e+06 15648.5 4.46812e+06 4.01551e+06 195750
internal_count=4689488 4491353 16216 4475137 4021535 198135
is_linear=0
shrinkage=0.01


Tree=90
num_leaves=7
num_cat=0
split_feature=10 0 19 45 41 0
split_gain=2918.47 1302.66 1182.79 971.507 812.582 658.437
threshold=1.7545221447944643 0.87304407358169567 -0.83879217505455006 2.4702801704406743 -0.44780284166336054 -2.4948339462280269
decision_type=2 2 2 2 2 2
left_child=1 2 5 -2 -4 -1
right_child=3 -3 4 -5 -6 -7
leaf_value=-0.0035724229570896012 -0.00061775341774293765 -0.00035773748615057911 0.00045211751399137792 -0.0019449118130397509 0.00010748455504191469 -0.00017732864873006075
leaf_weight=5748 273442 605815.5 1082372.5 69248.5 1862464 780564.5
leaf_count=5926 274904 608684 1084149 70229 1864550 781307
internal_value=2.09608e-06 7.23169e-05 0.000142171 -0.000886277 0.000234189 -0.000202319
internal_weight=4.67966e+06 4.33696e+06 3.73115e+06 342690 2.94484e+06 786312
internal_count=4689749 4344616 3735932 345133 2948699 787233
is_linear=0
shrinkage=0.01


Tree=91
num_leaves=7
num_cat=0
split_feature=17 9 9 19 32 32
split_gain=3610.55 1186.99 1091.61 1051.05 2106.75 1640
threshold=1.9801582098007204 1.5294356346130373 1.2311760783195498 -0.89755976200103749 -2.6883053779602046 -2.6883053779602046
decision_type=2 2 2 2 2 2
left_child=1 3 -2 5 -5 -1
right_child=2 -3 -4 4 -6 -7
leaf_value=-0.0067380380938673193 -0.00068769823786982316 -0.0013416226912252886 -0.0024858917992349534 0.0047452234832138264 0.00017190723206812809 -0.00020702642302657072
leaf_weight=3858 434796.5 56711 36654 10094 3459868.5 677673
leaf_count=4430 435980 57283 37288 12200 3463981 678587
internal_value=2.07414e-06 9.50676e-05 -0.000827765 0.000114721 0.000185253 -0.000244242
internal_weight=4.67966e+06 4.2082e+06 471450 4.15149e+06 3.46996e+06 681531
internal_count=4689749 4216481 473268 4159198 3476181 683017
is_linear=0
shrinkage=0.01


Tree=92
num_leaves=7
num_cat=0
split_feature=14 6 18 41 20 20
split_gain=2826.59 1152.23 925.742 882.106 603.442 432.332
threshold=1.3862758874893191 2.4538185596466069 1.600951671600342 -1.0482547879219053 -1.0732120871543882 -0.34541171789169306
decision_type=2 2 2 2 2 2
left_child=2 -2 3 4 -1 -5
right_child=1 -3 -4 5 -6 -7
leaf_value=-0.00046241298002297048 -0.00052162515132751503 -0.001867619673571484 -0.000398870488208603 0.00017863920522466438 0.0005146450484598378 -5.8726343670140882e-05
leaf_weight=69255.5 372709.5 76799.5 365366.5 1433957.5 711862 1649704.5
leaf_count=69296 373547 77392 367499 1435699 713408 1652908
internal_value=2.0524e-06 -0.00075185 8.21897e-05 0.000127695 0.000427884 5.16206e-05
internal_weight=4.67966e+06 449509 4.23015e+06 3.86478e+06 781118 3.08366e+06
internal_count=4689749 450939 4238810 3871311 782704 3088607
is_linear=0
shrinkage=0.01


Tree=93
num_leaves=7
num_cat=0
split_feature=10 9 41 9 20 20
split_gain=2799.46 1452.99 1065.71 764.767 760.764 603.756
threshold=1.7545221447944643 1.5294356346130373 -1.2135253548622129 1.2625816464424136 -1.0732120871543882 -0.014660535380244253
decision_type=2 2 2 2 2 2
left_child=1 2 4 -2 -1 -4
right_child=3 -3 5 -5 -6 -7
leaf_value=-0.00047523222243137016 -0.00073975333957585637 -0.0014775025534763554 0.00013025148818887456 -0.002615646200770521 0.00058631064998900201 -0.00013355132958932782
leaf_weight=76276 319321.5 59757.5 2178564 23369 580896 1441471
leaf_count=76329 320870 60191 2181001 24263 582435 1444660
internal_value=2.03097e-06 7.08056e-05 9.2464e-05 -0.00086804 0.000462943 2.51795e-05
internal_weight=4.67966e+06 4.33696e+06 4.27721e+06 342690 657172 3.62004e+06
internal_count=4689749 4344616 4284425 345133 658764 3625661
is_linear=0
shrinkage=0.01


Tree=94
num_leaves=7
num_cat=0
split_feature=17 19 19 41 37 8
split_gain=3475.07 944.195 1081.77 1000.32 867.736 730.698
threshold=1.9801582098007204 -0.89755976200103749 2.25532078742981 -0.44780284166336054 0.0087489858269691485 -2.7946519851684566
decision_type=2 2 2 2 2 2
left_child=1 5 3 -3 -2 -1
right_child=4 2 -4 -5 -6 -7
leaf_value=-0.004495086444901205 -0.0013380013334681193 0.00043905149998501946 -0.0005480802871369215 7.5155791057030178e-05 -0.0004613769080429324 -0.00022134360936400027
leaf_weight=4017 188500 1163243 203632 2157141.5 282950.5 680171
leaf_count=4212 189431 1165829 204551 2160235 283837 681654
internal_value=2.0097e-06 9.32421e-05 0.000159261 0.000202672 -0.000812111 -0.000246647
internal_weight=4.67966e+06 4.2082e+06 3.52402e+06 3.32038e+06 471450 684188
internal_count=4689749 4216481 3530615 3326064 473268 685866
is_linear=0
shrinkage=0.01


Tree=95
num_leaves=7
num_cat=0
split_feature=4 19 4 11 1 19
split_gain=2617.57 1196.08 3151.52 985.309 971.753 757.906
threshold=1.4706721901893618 -1.6732644438743589 -2.0929185152053829 2.6108688116073613 2.465217232704163 -0.83879217505455006
decision_type=2 2 2 2 2 2
left_child=1 2 -1 5 -2 -3
right_child=4 3 -4 -5 -6 -7
leaf_value=-0.013662917075521409 -0.00057650109644600839 -0.00017400926306527866 -0.00081627732602360472 -0.0010079714195820604 -0.0019876351670446075 0.00016704424005687939
leaf_weight=2239.5 336872 806834.5 12795 81609.5 57168 3381410.5
leaf_count=2672 340127 807653 12872 81841 58315 3385521
internal_value=-1.55393e-06 7.01513e-05 -0.00274434 8.00911e-05 -0.00078153 0.000101319
internal_weight=4.67893e+06 4.28489e+06 15034.5 4.26985e+06 394040 4.18824e+06
internal_count=4689001 4290559 15544 4275015 398442 4193174
is_linear=0
shrinkage=0.01


Tree=96
num_leaves=7
num_cat=0
split_feature=17 45 9 41 13 31
split_gain=3290.71 1123.54 1111.96 986.25 617.259 443.296
threshold=1.9801582098007204 2.4182072877883916 1.4840136766433718 -0.44780284166336054 2.0206315517425542 2.4072246551513676
decision_type=2 2 2 2 2 2
left_child=2 -2 3 5 -5 -1
right_child=1 -3 -4 4 -6 -7
leaf_value=0.00034866494873545326 -0.00057617156195474792 -0.0018912845806960596 -0.0011468466752072809 -6.1583989175611114e-05 0.00043995954901064979 -0.0004692905527857283
leaf_weight=1450144 393490.5 77934.5 71747 2342210 274084 69319
leaf_count=1453436 394545 78728 72422 2346058 274407 69405
internal_value=-1.53964e-06 -0.00079383 8.72095e-05 0.000108645 -9.00239e-06 0.000311281
internal_weight=4.67893e+06 471425 4.2075e+06 4.13576e+06 2.61629e+06 1.51946e+06
internal_count=4689001 473273 4215728 4143306 2620465 1522841
is_linear=0
shrinkage=0.01


Tree=97
num_leaves=7
num_cat=0
split_feature=17 9 9 38 17 8
split_gain=3225.24 1089.84 986.479 769.885 513.97 473.24
threshold=1.9801582098007204 1.4840136766433718 1.2311760783195498 0.18959861993789676 -1.185682415962219 -0.51062944531440724
decision_type=2 2 2 2 2 2
left_child=1 3 -2 5 -5 -1
right_child=2 -3 -4 4 -6 -7
leaf_value=2.1283952676792508e-05 -0.00065262374320969416 -0.0011353798047762942 -0.0023610563155510686 -0.0041137459237857435 -8.7948459489052119e-05 0.00029129402918910881
leaf_weight=992647.5 434722 71747 36703 3170.5 1259764.5 1880174.5
leaf_count=993565 435922 72422 37351 3301 1261995 1884445
internal_value=-1.52473e-06 8.63369e-05 -0.000785894 0.000107558 -9.81666e-05 0.000198033
internal_weight=4.67893e+06 4.2075e+06 471425 4.13576e+06 1.26294e+06 2.87282e+06
internal_count=4689001 4215728 473273 4143306 1265296 2878010
is_linear=0
shrinkage=0.01


Tree=98
num_leaves=7
num_cat=0
split_feature=4 11 31 37 24 24
split_gain=2529.04 1194.29 852.81 653.12 638.28 469.753
threshold=2.1511760950088505 1.9495273828506472 -0.90954601764678944 -0.81236669421195973 0.0046185334213078031 -0.15115884691476819
decision_type=2 2 2 2 2 2
left_child=1 2 5 -4 -2 -1
right_child=4 -3 3 -5 -6 -7
leaf_value=-4.1285410634300084e-05 -0.00067605640782512964 -0.00068905407897176449 -0.00012544260967424021 0.00021182071759015951 -0.0018382437429187667 -0.0006007919369370705
leaf_weight=402183 140881 208862.5 715524.5 2900237.5 71473.5 239767
leaf_count=402436 143409 209621 716289 2904351 73009 239886
internal_value=-1.51009e-06 4.91626e-05 8.54009e-05 0.000145052 -0.00106776 -0.000250422
internal_weight=4.67893e+06 4.46657e+06 4.25771e+06 3.61576e+06 212354 641950
internal_count=4689001 4472583 4262962 3620640 216418 642322
is_linear=0
shrinkage=0.01


Tree=99
num_leaves=7
num_cat=0
split_feature=14 9 19 19 45 31
split_gain=2579.48 1517.65 907.716 856.1 1768.91 785.792
threshold=1.6997244954109194 1.5294356346130373 2.1889069080352788 -1.6732644438743589 -2.2557789087295528 -0.90954601764678944
decision_type=2 2 2 2 2 2
left_child=1 3 -2 4 -1 -5
right_child=2 -3 -4 5 -6 -7
leaf_value=-0.012605558252496936 -0.00073423186889351238 -0.0014676643719708654 -0.0027958087649417548 -0.0002303353892214769 -0.0011404882888007375 0.00014815540937920078
leaf_weight=1500.5 281383.5 64025 23153 645324.5 12672 3650870.5
leaf_count=1701 282229 64757 23387 645747 13113 3658067
internal_value=-1.49592e-06 6.04352e-05 -0.000891382 8.31598e-05 -0.00236942 9.12792e-05
internal_weight=4.67893e+06 4.37439e+06 304536 4.31037e+06 14172.5 4.2962e+06
internal_count=4689001 4383385 305616 4318628 14814 4303814
is_linear=0
shrinkage=0.01


Tree=100
num_leaves=7
num_cat=0
split_feature=5 14 19 4 23 19
split_gain=2583.19 1167.48 954.313 3075.9 744.021 646.117
threshold=1.9916505217552187 1.7494762539863589 -1.6732644438743589 -1.7209747433662412 -0.32112199068069452 2.102973580360413
decision_type=2 2 2 2 2 2
left_child=1 2 3 -1 -4 -2
right_child=5 -3 4 -5 -6 -7
leaf_value=-0.013726815030465403 -0.00060515960368563704 -0.00065847083477754502 -0.00069078881443647596 -0.00052613447607257669 0.00012268772569665122 -0.001689059476305323
leaf_weight=2075.5 141954.5 218084.5 115562 11621.5 4099500.5 90255
leaf_count=2426 143459 218524 115653 11725 4106036 91265
internal_value=1.23823e-06 5.4953e-05 9.17706e-05 -0.00254228 0.00010036 -0.00102693
internal_weight=4.67905e+06 4.44684e+06 4.22876e+06 13697 4.21506e+06 232210
internal_count=4689088 4454364 4235840 14151 4221689 234724
is_linear=0
shrinkage=0.01


Tree=101
num_leaves=7
num_cat=0
split_feature=10 4 19 4 4 38
split_gain=2401.46 1020.15 1098.58 1200.8 919.039 770.949
threshold=1.4879674911499026 0.8110255002975465 -0.83879217505455006 -2.3872965574264522 2.1511760950088505 1.3259748816490176
decision_type=2 2 2 2 2 2
left_child=1 2 3 -1 -2 -3
right_child=4 5 -4 -5 -6 -7
leaf_value=-0.0057280259069061104 -0.00047444946610345504 -0.00018745799400898973 0.00023261143439184945 -0.00016460360331734813 -0.0016296401427975901 -0.0014413468572851019
leaf_weight=3890.5 366093 586167 2814464.5 769912.5 84979.5 53546.5
leaf_count=4092 367294 588858 2817912 770524 86684 53724
internal_value=1.22418e-06 7.52432e-05 0.000140849 -0.000192778 -0.000692334 -0.000292591
internal_weight=4.67905e+06 4.22798e+06 3.58827e+06 773803 451072 639714
internal_count=4689088 4235110 3592528 774616 453978 642582
is_linear=0
shrinkage=0.01


Tree=102
num_leaves=7
num_cat=0
split_feature=5 12 4 32 32 34
split_gain=2499.42 929.35 755.852 1982.04 1441.07 735.21
threshold=1.9916505217552187 1.8851941823959353 -2.5141166448593135 -2.6883053779602046 -2.6883053779602046 0.5093999207019807
decision_type=2 2 2 2 2 2
left_child=1 2 4 -4 -1 -2
right_child=5 -3 3 -5 -6 -7
leaf_value=-0.010211762807014732 -0.0013847860735555066 -0.00063109764470298561 0.0044663957590755426 8.6721218844454398e-05 -0.00087903112488923779 -0.00016325001447450781
leaf_weight=1723.5 160907 189495.5 10349.5 4207401 37874.5 71302.5
leaf_count=1982 162950 189915 12411 4211860 38196 71774
internal_value=1.21046e-06 5.40475e-05 8.45683e-05 9.75023e-05 -0.00129024 -0.00101015
internal_weight=4.67905e+06 4.44684e+06 4.25735e+06 4.21775e+06 39598 232210
internal_count=4689088 4454364 4264449 4224271 40178 234724
is_linear=0
shrinkage=0.01


Tree=103
num_leaves=7
num_cat=0
split_feature=1 41 41 11 0 41
split_gain=2342.74 1005.49 819.839 600.735 564.219 554.021
threshold=1.5255706906318667 -1.0750412344932554 0.60929071903228771 0.91560941934585582 0.89585864543914806 -1.6766896247863767
decision_type=2 2 2 2 2 2
left_child=1 5 3 -2 -3 -1
right_child=2 4 -4 -5 -6 -7
leaf_value=-0.00045875644147885244 -0.00044054179562637318 3.9775342160612178e-05 -0.000193185917948294 -0.0015313148419437146 -0.00034630946373981109 0.00045347068231969714
leaf_weight=72696.5 78446.5 3021676 152931 143255.5 432694 777354
leaf_count=72807 78850 3025557 153549 144621 434406 779298
internal_value=1.19731e-06 6.72322e-05 -0.000757238 -0.00114585 -8.55751e-06 0.000375335
internal_weight=4.67905e+06 4.30442e+06 374633 221702 3.45437e+06 850050
internal_count=4689088 4312068 377020 223471 3459963 852105
is_linear=0
shrinkage=0.01


Tree=104
num_leaves=7
num_cat=0
