tree
version=v4
num_class=1
num_tree_per_iteration=1
label_index=0
max_feature_idx=50
objective=regression
feature_names=mom_ret_1d mom_ret_5d mom_ret_20d liq_volume liq_amount liq_turnover_os open high low close volume factor mom_ret_10d mom_ma_gap_5 mom_ma_gap_20 mom_macd_hist mom_rsi_14 mom_kdj_k mom_breakout_20d vol_std_20 vol_atr_14 vol_parkinson_20 vol_gk_20 vol_rs_20 vol_downside_20 vol_realized_rv vol_jump_zadj liq_volume_ma_20 liq_volume_ratio_5 liq_amount_ma_20 liq_amount_ratio_5 liq_mfi_14 liq_amihud_20 liq_amihud_60 liq_accdist_20 flow_net_amount flow_net_amount_ratio flow_large_net_amount flow_vpin flow_vpin_ma_5 flow_vpin_ma_20 style_ln_mv_total style_ln_mv_float style_beta_20 style_beta_60 style_idio_vol_20 style_residual_ret_20 ind_ret_1d ind_ret_20d ind_strength_20 ind_momentum_rank_20
feature_infos=[-0.83727961778640747:3.0610854625701904] [-0.83727961778640747:3.0610854625701904] [-0.83727961778640747:5.7304549217224121] [0:3113115392] [0:29924286464] [1.1700000186465331e-06:1.1944639682769775] [0.31700000166893005:248871.609375] [0.33000001311302185:259845.671875] [0.30399999022483826:247988.640625] [0.31700000166893005:252151.21875] [0:3113115392] none [-0.83727961778640747:3.1176471710205078] [-0.8045504093170166:1.5189445018768311] [-0.83016985654830933:2.5220246315002441] [-4589.17333984375:3108.813720703125] [0:100] [0:100] [-0.83727961778640747:0] [0:0.76586371660232544] [0:20767.83203125] [0:0.13959525525569916] [0:0.14472088217735291] [0:0.14768533408641815] [0:0.19250503182411194] [0:1928.3421630859375] [-2.4142189025878906:64.128868103027344] [0:2253442816] [0:0.05000000074505806] [0:13384461312] [0:0.05000000074505806] [0:99.850875854492188] [1.279057914270465e-12:2.3504040655097924e-05] [1.5193112610015214e-12:6.639581329181965e-07] [-223516835840:222497472512] [-1467570432:10051675136] [-1:1] [-1385346432:10028089344] [0:0.64293199777603149] [0:0.41930180788040161] [0:0.37003770470619202] [18.54106330871582:28.664907455444336] [18.54106330871582:28.664907455444336] [-0.18021653592586517:0.2260977029800415] [-0.085056737065315247:0.12854966521263123] [0:0.65733802318572998] [-1.5813610553741455:3.1292660236358643] [-0.096770815551280975:0.092051103711128235] [-0.22656464576721191:0.49875989556312561] [-0.95044010877609253:5.7765488624572754] [0.1666666716337204:1]
tree_sizes=3314 3322 3328 3282 3347 3327 3356 3332 3343 3334 3348 3334 3307 3335 3326 3353 3353 3334 3375 3348 3330 3327 3380 3323 3330 3346 3356 3340 3334 3349 3353 3352 3349 3341 3323 3331 3367 3355 3366 3343 3382 3335 3324 3362 3376 3326 3338 3378 3356 3368 3321 3363 3325 3364 3350 3346 3350 3367 3369 3337 3335 3365 3352 3373 3367 3337 3385 3329 3337 3358 3340 3341 3353 3361 3396 3336 3348 3354 3340 3371 3374 3375 3321 3350 3348 3372 3375 3347 3354 3321 3322 3373 3350 3350 3329 3378 3376 3373 3356 3352 3327 3371 3343 3379 3364 3354 3345 3321 3331 3384 3343 3403 3351 3386 3382 3354 3381 3345 3372 3373 3326 3324 3346 3327 3374 3355 3370 3327 3351 3308 3322 3345 3340 3372 3355 3376 3304 3328 3366 3392 3343 3395 3366 3414 3356 3379 3342 3375 3378 3354 3347 3365 3385 3373 3344 3377 3391 3381 3377 3310 3346 3355 3367 3387 3364 3373 3326 3366 3363 3337 3413 3404 3380 3332 3371 3333 3390 3363 3382 3360 3364 3353 3373 3332 3353 3348 3352 3395 3316 3349 3380 3351 3374 3376 3392 3349 3350 3367 3358 3381 3287 3364 3345 3361 3317 3386 3386 3364 3317 3363 3370 3375 3344 3341 3350 3366 3327 3277 3346 3391 3361 3390 3396 3340 3327 3357 3368 3384 3363 3363 3373 3330 3308 3358 3382

Tree=0
num_leaves=31
num_cat=0
split_feature=5 4 13 4 49 28 0 25 22 5 4 14 3 13 0 4 4 49 28 33 14 36 22 2 28 28 4 0 28 33
split_gain=2680.97 696.22 624.113 582.706 274.984 269.016 250.329 350.464 233.188 226.679 216.855 202.951 132.341 125.444 111.031 94.2804 93.6273 79.9804 73.9723 71.8227 71.683 63.4074 62.5449 61.9959 60.225 51.7197 50.5564 47.2987 45.4493 45.2765
threshold=0.047076299786567695 72965960.000000015 0.14638915657997134 183242304.00000003 0.025534110143780712 0.02104129828512669 0.09888815134763719 1.0000000180025095e-35 0.023413361981511119 0.11803841963410379 3248785.0000000005 -0.012675946112722157 1.0000000180025095e-35 -0.019973377697169777 -0.046138025820255273 4395102.0000000009 77888232.000000015 0.10069234296679498 0.016847350634634498 4.2264930444346765e-10 -0.11536914110183714 -0.04866096377372741 0.03174941614270211 0.019603515043854717 0.003819885198026896 0.029008283279836181 371978048.00000006 0.0032720329472795133 0.029008283279836181 6.1431912334875004e-10
decision_type=2 2 2 2 2 2 2 2 2 2 2 2 2 2 2 2 2 2 2 2 2 2 2 2 2 2 2 2 2 2
left_child=1 2 4 16 6 8 7 14 -3 19 -8 20 17 -10 21 -4 -2 -6 -13 27 24 -1 -15 -19 -9 -7 -11 -5 -22 -18
right_child=3 5 15 9 12 25 10 11 13 26 -12 18 -14 22 -16 -17 29 23 -20 -21 28 -23 -24 -25 -26 -27 -28 -29 -30 -31
leaf_value=0.00068387182014694587 3.6960551794851346e-05 0.00033312419966961869 0.0094416013063753895 -0.00077309211563484227 -0.00040542627486742436 -0.00093745626757046473 0.009610457741983016 -0.0019189326355185149 0.00024164988626734703 -0.0016577631123023766 0.0011490567244149491 0.00086592760311789575 0.00020392674809707617 -0.00011235452517676482 0.00063604684676347859 0.0044531348656452942 -0.00051897757628383164 -0.0037505615525445768 -0.00016168649592036038 -0.0023301941234923152 0.00040184778162086448 -0.007499170084017329 -0.00048171051161548164 -0.00094903946014623789 0.0011057657474281754 -0.0023003549658941946 -0.0024251473472627601 -0.0013164121992393903 -0.0056588701323409879 -0.0014208054727764641
leaf_weight=427 141302 770831 3008 133011 35024 51648 2295 2719 274891 58911 2572 907582 489983 472282 1132 3082 208135 5937 28898 18374 1116931 3194 299944 6783 80690 14224 82822 124002 494 24959
leaf_count=427 141302 770831 3008 133011 35024 51648 2295 2719 274891 58911 2572 907582 489983 472282 1132 3082 208135 5937 28898 18374 1116931 3194 299944 6783 80690 14224 82822 124002 494 24959
internal_value=0.000132548 0.000318502 0.000524951 -0.000942161 0.000510439 2.36268e-05 0.000611739 0.000601439 6.91275e-05 -0.00145629 0.00514215 0.000613508 0.000106004 -0.000125222 -0.00482263 0.00691983 -0.000369337 -0.00089914 0.000834206 -0.00112172 0.000441385 -0.00653155 -0.000255831 -0.00225763 0.00100702 -0.00123194 -0.00210627 -0.00103527 0.000399154 -0.000615592
internal_weight=5.36609e+06 4.57457e+06 2.69075e+06 791516 2.68466e+06 1.88382e+06 2.14693e+06 2.14207e+06 1.81795e+06 417120 4867 2.13731e+06 537727 1.04712e+06 4753 6090 374396 47744 936480 275387 1.20083e+06 3621 772226 12720 83409 65872 141733 257013 1.11742e+06 233094
internal_count=5366087 4574571 2690751 791516 2684661 1883820 2146934 2142067 1817948 417120 4867 2137314 537727 1047117 4753 6090 374396 47744 936480 275387 1200834 3621 772226 12720 83409 65872 141733 257013 1117425 233094
is_linear=0
shrinkage=1


Tree=1
num_leaves=31
num_cat=0
split_feature=45 2 49 0 3 29 48 3 48 38 32 45 13 42 24 3 14 3 3 29 14 48 1 0 48 45 23 45 0 3
split_gain=1959.31 472.961 428.861 497.912 578.92 321.717 209.164 189.649 174.787 161.117 145.923 131.73 129.852 111.166 104.399 91.8887 88.6875 84.9276 102.44 96.3639 83.2257 80.0462 77.9018 71.8772 63.0881 58.9485 56.5553 55.29 51.4717 49.4662
threshold=0.027466597035527233 0.11496859416365625 0.047526618465781219 0.09888815134763719 1241918.5000000002 76123900.000000015 -0.099121417850255952 14335494.000000002 1.0000000180025095e-35 1.0000000180025095e-35 2.488439038161872e-10 0.01819646451622248 0.011526943650096657 22.984367370605472 0.023973559029400352 1.0000000180025095e-35 0.12790798395872119 192449.00000000003 1.0000000180025095e-35 76301268.000000015 -1.0000000180025095e-35 -0.022229454480111595 -0.10584498941898345 -0.046138025820255273 -0.018421710468828675 0.020374846644699577 0.028561223298311237 0.043922761455178268 -0.095511168241500841 3077401.0000000005
decision_type=2 2 2 2 2 2 2 2 2 2 2 2 2 2 2 2 2 2 2 2 2 2 2 2 2 2 2 2 2 2
left_child=2 9 3 5 -5 8 15 27 14 23 21 -7 -8 16 28 -4 -9 18 -13 22 -12 -11 -19 29 -21 -10 -14 -3 -1 -2
right_child=1 7 6 4 -6 11 12 13 25 10 20 17 26 -15 -16 -17 -18 19 -20 24 -22 -23 -24 -25 -26 -27 -28 -29 -30 -31
leaf_value=-0.0026348003146172434 -0.0079361749075203963 -0.00057843033718505332 -0.0036026580572587571 0.0078501185065860818 -2.9807617011455192e-06 0.00026080862107616919 0.00013090691489417826 -0.0015025157901446245 0.00070403647944908949 -0.0002675860029340207 0.00015068696885616435 0.0011087217302402778 -0.00028970901452445827 -0.00097714349352262487 0.0010753434906378384 -0.0011626933978611249 -0.0024863016825996636 0.00037636082418305536 0.0083324313875251833 0.00020138272756907284 -0.00045747395627435117 -0.00077787600705121729 -0.0012945198551796461 -0.00092083690726497025 -0.00022909961938060193 0.00029883551407721093 -0.00092851705224546459 -0.0013307088531348331 0.00022093139616803618 -0.0030543705018767821
leaf_weight=2530 1772 162190 7361 7554 7460 644374 308252 90212 867943 194885 240011 7292 202535 78876 59802 38470 61860 14505 880 204128 144004 333512 48290 2111 408974 172200 76371 51532 924619 1582
leaf_count=2530 1772 162190 7361 7554 7460 644374 308252 90212 867943 194885 240011 7292 202535 78876 59802 38470 61860 14505 880 204128 144004 333512 48290 2111 408974 172200 76371 51532 924619 1582
internal_value=1.12566e-06 -0.000653959 0.000224077 0.000313783 0.00394775 0.000297519 -0.000253574 -0.00118932 0.000456052 -0.000394587 -0.000374066 5.56013e-05 -0.000151981 -0.0015867 0.00026538 -0.00155487 -0.00190278 -0.000137684 0.00188875 -0.000162202 -7.73454e-05 -0.000589689 -0.000908404 -0.00381828 -8.57571e-05 0.000636964 -0.000464668 -0.00075987 0.000213125 -0.00563812
internal_weight=5.36609e+06 1.36255e+06 4.00354e+06 3.37055e+06 15014 3.35554e+06 632989 444670 2.02709e+06 917877 912412 1.32844e+06 587158 230948 986951 45831 152072 684069 8172 675897 384015 528397 62795 5465 613102 1.04014e+06 278906 213722 927149 3354
internal_count=5366087 1362547 4003540 3370551 15014 3355537 632989 444670 2027094 917877 912412 1328443 587158 230948 986951 45831 152072 684069 8172 675897 384015 528397 62795 5465 613102 1040143 278906 213722 927149 3354
is_linear=0
shrinkage=0.02


Tree=2
num_leaves=31
num_cat=0
split_feature=5 45 0 4 4 5 4 4 17 38 17 4 0 27 24 33 29 45 24 38 2 47 4 4 47 4 38 47 29 0
split_gain=2517.09 690.301 641.623 530.75 418.561 209.092 202.511 199.835 133.22 123.869 113.756 83.7213 80.6154 80.0192 70.2992 65.7886 65.0464 59.6774 53.2409 66.6336 55.8085 50.9296 47.286 47.1432 46.1808 45.7356 43.993 43.8217 41.342 41.1557
threshold=0.048070365563035018 0.023108754307031635 0.09888815134763719 183242304.00000003 13470293.000000002 0.11803841963410379 77888232.000000015 87522156.000000015 4.6017370223999032 1.0000000180025095e-35 43.857675552368171 77888232.000000015 -0.0040605459362268439 1.0000000180025095e-35 0.025132375769317154 3.1654499854649748e-10 48808190.000000007 0.013747151009738447 0.024143694899976257 1.0000000180025095e-35 1.0000000180025095e-35 0.035474542528390891 371978048.00000006 27374365.000000004 0.00032043391547631478 3248785.0000000005 1.0000000180025095e-35 -0.015160279348492621 19696382.000000004 0.0032720329472795133
decision_type=2 2 2 2 2 2 2 2 2 2 2 2 2 2 2 2 2 2 2 2 2 2 2 2 2 2 2 2 2 2
left_child=1 2 7 11 25 15 8 10 9 -3 18 -2 24 21 -10 29 -9 -18 19 -1 -21 27 -7 -15 -8 -4 -16 -12 -25 -5
right_child=3 6 4 5 -6 22 12 16 14 -11 13 -13 -14 23 26 -17 17 -19 -20 20 -22 -23 -24 28 -26 -27 -28 -29 -30 -31
leaf_value=-0.0049341217701182058 -0.00010389944224702798 -0.0075239119558558488 0.0091876912469671286 -0.00085090944408254597 0.00078152955820135286 -0.0017374848703149248 3.1944281091669189e-06 -0.00095451735158017025 6.1578742588671529e-06 -0.00076537837612881802 -0.001751696387314098 -0.00073330396151762185 -0.00058528529369436609 0.00076424851134137737 -0.003795908395516879 -0.0020621832783730811 0.00033663344366398308 -9.2253194110506032e-06 0.0011029969732786425 0.00020336325713461869 0.00058143753048385549 -0.0042281589160777493 -0.0024796651892146394 -0.00027161723316564281 -0.00049835466624620307 0.0055899113796477459 0.00062505708821461242 0.00011694237031619624 0.00052924146642901776 -0.0013815506065522557
leaf_weight=985 134982 1738 4913 122906 5581 58911 211933 23859 520731 2894 5550 226372 444542 449623 907 32664 295815 613125 30973 929885 187750 1197 82822 26986 112336 2018 99205 52432 570648 111804
leaf_count=985 134982 1738 4913 122906 5581 58911 211933 23859 520731 2894 5550 226372 444542 449623 907 32664 295815 613125 30973 929885 187750 1197 82822 26986 112336 2018 99205 52432 570648 111804
internal_value=1.10285e-06 0.000178464 0.000340231 -0.0010568 0.00486029 -0.00155015 -0.000192953 0.000322491 7.42626e-05 -0.00330452 0.000424297 -0.000498222 -0.000410362 0.000569068 9.94925e-05 -0.00122086 7.62548e-05 0.000103324 0.000284952 0.000262292 0.000266885 -0.000146289 -0.00217126 0.000609502 -0.000170527 0.00814258 0.000584866 -6.17772e-05 0.000493062 -0.00110373
internal_weight=5.36609e+06 4.59563e+06 3.20134e+06 770461 12512 409107 1.39429e+06 3.18883e+06 625475 4632 2.25603e+06 361354 768811 1.10644e+06 620843 267374 932799 908940 1.14959e+06 1.11862e+06 1.11764e+06 59179 141733 1.04726e+06 324269 6931 100112 57982 597634 234710
internal_count=5366087 4595626 3201340 770461 12512 409107 1394286 3188828 625475 4632 2256029 361354 768811 1106436 620843 267374 932799 908940 1149593 1118620 1117635 59179 141733 1047257 324269 6931 100112 57982 597634 234710
is_linear=0
shrinkage=0.02


Tree=3
num_leaves=31
num_cat=0
split_feature=5 45 4 13 28 5 41 28 4 4 5 42 5 5 14 4 13 17 33 4 27 45 24 14 24 38 17 14 4 13
split_gain=2418.71 640.177 536.719 488.761 292.447 216.778 187.223 184.564 152.369 121.309 107.704 111.251 92.1443 85.7953 82.0556 80.86 79.4914 75.7805 72.132 66.603 67.5201 65.9365 60.6402 74.5206 60.0671 51.4728 50.8678 47.446 45.4465 44.9982
threshold=0.046172136440873153 0.023108754307031635 176901544.00000003 0.14638915657997134 0.017130637541413311 0.12572114169597629 22.039640426635746 0.02104129828512669 77888232.000000015 54301768.000000007 0.00072627997724339377 20.68576812744141 0.00072627997724339377 0.014233629684895279 -0.019393827766180035 80943124.000000015 -0.020362537354230877 4.6017370223999032 4.2264930444346765e-10 3248785.0000000005 6332348.2500000009 0.01038362178951502 0.020351109094917778 -0.012675946112722157 0.025132375769317154 1.0000000180025095e-35 4.6017370223999032 -0.10194583237171172 434286640.00000006 -0.023336311802268025
decision_type=2 2 2 2 2 2 2 2 2 2 2 2 2 2 2 2 2 2 2 2 2 2 2 2 2 2 2 2 2 2
left_child=1 3 15 4 6 18 10 8 12 -5 11 -1 27 14 -8 -2 -10 -6 29 20 -16 -21 23 -12 -14 -26 -9 -3 -7 -4
right_child=2 7 5 9 17 28 13 26 16 -11 22 -13 24 -15 19 -17 -18 -19 -20 21 -22 -23 -24 -25 25 -27 -28 -29 -30 -31
leaf_value=0.0091423634312161727 -0.00010291494198279325 -0.0085511832476152898 -0.00063328312349395215 0.0074748450562043883 -0.006796050644707112 -0.0017962631336989907 0.00017288446791509433 -0.0057969185988379071 6.866666481315378e-06 -0.00079947882466394765 0.00033822584859830024 -0.0010003338157057095 1.1551429166038995e-05 8.9756777361244683e-05 0.00083310909374248216 -0.00069833017902600858 -0.00046848702944367766 -0.0005354224828597534 -0.0023116319655998975 0.00072878831430817418 0.0082406922382131445 0.00035508414979790659 0.0011902813520020567 0.00073414919424580674 -0.0040136565433589663 0.00059379016654886386 -0.0014340391838552045 0.00081499696815257321 -0.0025404214149840486 -0.0012397508836371328
leaf_weight=1179 155957 744 63100 4759 777 67219 589732 1102 192352 830 340054 680 512435 717647 1114 219983 523782 138664 21304 271299 886 622211 66278 431766 978 98597 36583 302 64489 219284
leaf_count=1179 155957 744 63100 4759 777 67219 589732 1102 192352 830 340054 680 512435 717647 1114 219983 523782 138664 21304 271299 886 622211 66278 431766 978 98597 36583 302 64489 219284
internal_value=1.0805e-06 0.000180292 -0.00100498 0.000335554 0.000325171 -0.00148298 0.000366216 -0.000181808 -0.000142667 0.00624435 0.000620286 0.00542837 8.87566e-05 0.000269335 0.000356098 -0.000451352 -0.000340794 -0.000570428 -0.00118901 0.00047674 0.00412214 0.000468565 0.000609603 0.000559724 9.89141e-05 0.000548397 -0.00156204 -0.00583924 -0.00216072 -0.00110427
internal_weight=5.36609e+06 4.55475e+06 811336 3.18788e+06 3.18229e+06 435396 3.04285e+06 1.36688e+06 1.32919e+06 5589 839957 1859 613056 2.20289e+06 1.48524e+06 375940 716134 139441 303688 895510 2000 893510 838098 771820 612010 99575 37685 1046 131708 282384
internal_count=5366087 4554751 811336 3187876 3182287 435396 3042846 1366875 1329190 5589 839957 1859 613056 2202889 1485242 375940 716134 139441 303688 895510 2000 893510 838098 771820 612010 99575 37685 1046 131708 282384
is_linear=0
shrinkage=0.02


Tree=4
num_leaves=31
num_cat=0
split_feature=5 22 13 28 5 3 14 3 41 48 5 3 3 48 3 28 0 3 14 48 30 0 46 0 48 22 32 14 3 3
split_gain=2323.83 500.66 350.474 400.262 328.553 257.638 182.776 168.887 165.345 173.715 140.228 140.226 135.896 116.997 107.686 97.5933 79.8115 113.939 76.42 64.2614 61.7448 59.056 58.1938 53.2685 52.3388 57.3804 51.4241 49.8251 46.0796 44.1818
threshold=0.054845614358782775 0.027915492653846744 0.14638915657997134 0.017429999075829986 0.12572114169597629 3119923.5000000005 -0.078999839723110185 5812582.5000000009 22.123028755187992 -0.09614927694201468 0.014947449788451196 1.0000000180025095e-35 11134436.000000002 0.029715972021222118 6634592.0000000009 0.029008283279836181 0.09888815134763719 377622.00000000006 0.075899787247180953 -0.077403623610734926 0.021520918235182766 0.09888815134763719 -0.076035015285015092 -0.095511168241500841 -0.022874849848449227 0.018935687839984897 2.7940164071260659e-10 -0.017377079464495179 1.0000000180025095e-35 579372.00000000012
decision_type=2 2 2 2 2 2 2 2 2 2 2 2 2 2 2 2 2 2 2 2 2 2 2 2 2 2 2 2 2 2
left_child=1 2 3 8 7 -4 19 -2 13 11 21 -10 26 16 -6 -5 -1 -18 -9 -3 -14 24 -13 -17 28 27 -8 -26 -11 -23
right_child=4 6 5 15 14 -7 12 18 9 10 -12 22 20 -15 -16 23 17 -19 -20 -21 -22 29 -24 -25 25 -27 -28 -29 -30 -31
leaf_value=0.00036437613667653052 -0.00035885676357411432 0.00082807086037795115 0.0069372565240316941 -0.00056082063890006226 -0.0011584888320912193 -0.00093424454622509053 -0.00030737088106021947 -0.00089682154507545505 -0.0032921808484985592 -0.00062213779457194701 -2.0699636643450306e-07 0.00041445796093343847 -0.00053792470855979304 0.00082752864451208965 -0.0022080134414988969 -0.0062549286273581844 0.0086419245711568185 -8.267195735987346e-05 -0.0015677325262467658 9.7714994759154491e-05 -0.0019095355034574547 0.0068334223461063697 -0.00072689165395834084 -0.0019402302675865812 0.00023825622085736826 0.00025291473968378354 4.9663596417248964e-05 0.00065142186447926021 0.0002276914973307695 0.0011861816009129116
leaf_weight=696644 176847 72968 5400 145631 58618 2400 300682 186448 7250 27056 606097 25124 386051 343999 117802 1268 1128 1270 106948 142008 13596 962 61801 11969 153907 429818 348176 484730 448170 1319
leaf_count=696644 176847 72968 5400 145631 58618 2400 300682 186448 7250 27056 606097 25124 386051 343999 117802 1268 1128 1270 106948 142008 13596 962 61801 11969 153907 429818 348176 484730 448170 1319
internal_value=1.05878e-06 0.000155123 0.000279679 0.000270096 -0.00112331 0.00451417 -0.000185559 -0.000847139 0.000317454 0.000220819 0.000257615 -0.000619921 -0.000294486 0.000525552 -0.00185936 -0.000710368 0.000376933 0.00401903 -0.00114142 0.000345664 -0.000584617 0.000358702 -0.00039689 -0.00235474 0.000353941 0.000431615 -0.000115772 0.000551868 0.000179286 0.00357421
internal_weight=5.36609e+06 4.71942e+06 3.45594e+06 3.44814e+06 646663 7800 1.26348e+06 470243 3.28928e+06 2.24623e+06 2.15206e+06 94175 1.0485e+06 1.04304e+06 176420 158868 699042 2398 293396 214976 399647 1.54596e+06 86925 13237 1.54368e+06 1.06846e+06 648858 638637 475226 2281
internal_count=5366087 4719424 3455943 3448143 646663 7800 1263481 470243 3289275 2246234 2152059 94175 1048505 1043041 176420 158868 699042 2398 293396 214976 399647 1545962 86925 13237 1543681 1068455 648858 638637 475226 2281
is_linear=0
shrinkage=0.02


Tree=5
num_leaves=31
num_cat=0
split_feature=5 4 13 4 30 49 23 17 38 0 48 5 4 3 14 36 5 4 14 30 30 4 33 48 48 49 30 48 3 24
split_gain=2216.13 644.239 530.043 415.892 265.357 247.435 238.719 227.827 320.913 221.368 183.732 179.32 151.51 97.4936 90.2592 87.3459 84.0669 71.6112 66.8589 63.074 62.9993 58.3041 56.2991 56.1705 55.4849 54.8032 52.9722 44.8259 48.0038 45.5438
threshold=0.052432324737310416 68359232.000000015 0.14638915657997134 157043696.00000003 0.020694364793598655 0.032912200316786773 0.029313187114894394 43.181306838989265 1.0000000180025095e-35 0.09888815134763719 -0.099121417850255952 0.12572114169597629 3248785.0000000005 1.0000000180025095e-35 -0.078999839723110185 -0.050217444077134125 0.01408920018002391 5194458.0000000009 -0.12443060427904128 0.0037076025037094955 0.029870677739381794 383003008.00000006 3.2938020366746206e-10 -0.09614927694201468 0.036754410713911063 0.077040996402502074 0.018094083294272426 -0.0088234511204063875 1.0000000180025095e-35 0.024332283996045593
decision_type=2 2 2 2 2 2 2 2 2 2 2 2 2 2 2 2 2 2 2 2 2 2 2 2 2 2 2 2 2 2
left_child=1 2 5 25 6 7 16 8 15 26 13 22 -11 -7 -8 -1 23 -4 19 -10 -6 -13 -5 -3 -20 -2 27 28 -9 -30
right_child=3 4 17 11 20 10 14 9 18 12 -12 21 -14 -15 -16 -17 -18 -19 24 -21 -22 -23 -24 -25 -26 -27 -28 -29 29 -31
leaf_value=0.00022190968017783561 -0.00029382369945926814 -0.00061157367103555353 0.0083232433537130304 -0.0010502030653947074 -0.00096416830285382649 -0.0033690228141784796 0.00017329417358299346 -0.0007281343762192275 -0.0021034006693520326 0.0086811596891546283 4.7279406682276978e-05 -0.0016101212193419946 0.00095551462752627495 -0.00088436470206585804 -0.00047564705433278685 -0.0067968412972816174 -7.5794499381065579e-05 0.0039525824295493801 0.00017845888233145675 0.0010424634702944449 -0.0024048748034749034 -0.0024301637525235317 -0.0018802295518369314 0.00028249344763862867 0.00053279167445597893 -0.00096951961019847916 -0.00040214727660844909 0.0007680675352479473 0.00042492859617324151 0.0012307180027635008
leaf_weight=902 207281 29354 3211 238959 67188 7864 101366 12888 2658 2317 405308 65752 1813 32214 555076 3270 627717 2842 956171 60808 14836 73688 37914 658264 216922 62521 18645 629366 234922 31883
leaf_count=902 207281 29354 3211 238959 67188 7864 101366 12888 2658 2317 405308 65752 1813 32214 555076 3270 627717 2842 956171 60808 14836 73688 37914 658264 216922 62521 18645 629366 234922 31883
internal_value=-6.83135e-07 0.000155006 0.000362656 -0.00106216 -0.000110289 0.000348982 -6.39165e-05 0.000437019 0.000259515 0.000673354 -8.04343e-05 -0.00145857 0.00529321 -0.00137222 -0.000375424 -0.00527728 9.15395e-05 0.00627378 0.000278208 0.000910524 -0.0012249 -0.00204356 -0.00116391 0.000244311 0.000243989 -0.000450442 0.000652771 0.000674419 0.000463652 0.000521262
internal_weight=5.36392e+06 4.6778e+06 2.624e+06 686115 2.0538e+06 2.61795e+06 1.97178e+06 2.17256e+06 1.24073e+06 931834 445386 416313 4130 40078 656442 4172 1.31534e+06 6053 1.23656e+06 63466 82024 139440 276873 687618 1.17309e+06 269802 927704 909059 279693 266805
internal_count=5363920 4677805 2624004 686115 2053801 2617951 1971777 2172565 1240731 931834 445386 416313 4130 40078 656442 4172 1315335 6053 1236559 63466 82024 139440 276873 687618 1173093 269802 927704 909059 279693 266805
is_linear=0
shrinkage=0.02


Tree=6
num_leaves=31
num_cat=0
split_feature=4 42 4 1 49 22 17 25 25 42 48 4 28 32 3 48 39 29 28 4 49 21 4 25 4 12 48 21 25 19
split_gain=1746.15 740.717 496.216 389.508 382.983 222.694 222.221 271.109 261.621 142.673 137.291 111.571 97.4867 93.8359 92.442 88.7739 83.7724 81.7203 84.206 81.6295 70.2667 66.5075 61.5126 63.0993 59.7338 56.7966 64.6055 55.3605 46.7679 46.5331
threshold=117009892.00000001 22.810819625854496 343138880.00000006 0.32351171970367437 0.047526618465781219 0.029496912844479087 46.500375747680671 1.0000000180025095e-35 1.0000000180025095e-35 21.689777374267582 -0.099121417850255952 12373231.000000002 0.016847350634634498 2.4110775875829665e-10 1.0000000180025095e-35 -0.024149546399712559 0.11927669867873193 99323064.000000015 0.014917984604835512 3248785.0000000005 0.0064006722532212743 0.024798125028610233 39642332.000000007 91.657409667968764 186415576.00000003 -0.1521031782031059 0.036754410713911063 1.0000000180025095e-35 12.144267559051515 1.0000000180025095e-35
decision_type=2 2 2 2 2 2 2 2 2 2 2 2 2 2 2 2 2 2 2 2 2 2 2 2 2 2 2 2 2 2
left_child=3 2 9 4 6 28 8 19 11 -2 14 -1 20 -4 -6 -7 -5 18 25 -8 22 -12 23 -9 -11 -10 -27 -20 -3 -22
right_child=1 5 13 16 10 15 7 12 17 24 21 -13 -14 -15 -16 -17 -18 -19 27 -21 29 -23 -24 -25 -26 26 -28 -29 -30 -31
leaf_value=-0.0071116139608793719 -0.0011828256845263603 0.00011717836098653254 -0.0016142324193898212 0.0067295683861043828 -0.0033221112433846605 -6.4979708091021353e-05 0.0082969024288266999 0.00080628461390346441 0.00088448637629808923 -0.00031500962678080813 0.00011206893237820055 -0.0011759014542415793 -0.00035994458318608521 -0.0026491232922264234 -0.00089576443041522122 -0.00077465788678765285 0.0012011012584344446 -5.5795891178499265e-05 -0.0084095412505861607 0.0017509458213393297 -0.00082633162827208456 -0.00035703701602573113 0.00047403362898585765 0.0063341956364287846 -0.00077136304002695436 0.00021461595099865876 0.0005761108092935391 -0.00033164484740870551 -0.00047310274677564527 0.0003642739092747129
leaf_weight=2705 177991 619018 117516 4483 7628 100491 2315 463047 66580 259419 217508 2391 47328 50018 35698 236537 1458 370919 340 1143 13713 272077 384733 827 205867 1015422 245648 76010 58783 306307
leaf_count=2705 177991 619018 117516 4483 7628 100491 2315 463047 66580 259419 217508 2391 47328 50018 35698 236537 1458 370919 340 1143 13713 272077 384733 827 205867 1015422 245648 76010 58783 306307
internal_value=-6.69547e-07 -0.000503034 -0.000953733 0.000258532 0.000249922 -0.000142932 0.000337704 0.000545697 0.000195211 -0.000701209 -0.000244127 -0.00432937 0.000529782 -0.00192328 -0.00132325 -0.000563085 0.00537492 0.000208209 0.000277963 0.00613724 0.000565824 -0.000148607 0.000661071 0.000816175 -0.000516947 0.000315111 0.000285041 -0.000367858 6.59702e-05 0.000313222
internal_weight=5.36392e+06 1.82564e+06 810811 3.53828e+06 3.53234e+06 1.01483e+06 2.99943e+06 1.21941e+06 1.78002e+06 643277 532911 5096 1.21596e+06 167534 43326 337028 5941 1.77492e+06 1.404e+06 3458 1.16863e+06 489585 848607 463874 465286 1.32765e+06 1.26107e+06 76350 677801 320020
internal_count=5363920 1825640 810811 3538280 3532339 1014829 2999428 1219413 1780015 643277 532911 5096 1215955 167534 43326 337028 5941 1774919 1404000 3458 1168627 489585 848607 463874 465286 1327650 1261070 76350 677801 320020
is_linear=0
shrinkage=0.02


Tree=7
num_leaves=31
num_cat=0
split_feature=5 45 4 13 28 5 41 28 48 2 4 4 48 28 45 24 13 25 25 16 48 48 33 4 4 31 43 5 24 43
split_gain=2067.45 584.96 455.371 416.606 262.728 200.309 158.964 157.602 128.715 130.324 120.491 114.877 113.206 86.3247 84.7767 82.9814 82.6619 81.6376 79.8807 78.5692 70.4451 66.8697 61.4105 60.7474 60.4566 55.1479 45.594 43.8918 43.8577 42.9375
threshold=0.046172136440873153 0.023108754307031635 162590384.00000003 0.14638915657997134 0.014917984604835512 0.11142543703317644 22.123028755187992 0.017429999075829986 -0.085736569017171846 -0.11532843112945555 48340440.000000007 86407312.000000015 0.029715972021222118 0.021985429339110855 0.014209599234163763 0.019615469500422481 -0.094993345439434038 1.0000000180025095e-35 1.0000000180025095e-35 39.933326721191413 -0.022874849848449227 -0.12891340255737302 4.2264930444346765e-10 59343900.000000007 383003008.00000006 1.0000000180025095e-35 0.0097714685834944266 0.025823059491813186 0.024923312477767471 0.0091668958775699156
decision_type=2 2 2 2 2 2 2 2 2 2 2 2 2 2 2 2 2 2 2 2 2 2 2 2 2 2 2 2 2 2
left_child=1 3 23 4 6 22 12 10 9 -8 16 -5 15 -6 20 18 17 -3 -1 -12 -10 -11 26 -2 -7 -9 -4 -16 -18 -25
right_child=2 7 5 11 13 24 8 25 14 21 19 -13 -14 -15 27 -17 28 -19 -20 -21 -22 -23 -24 29 -26 -27 -28 -29 -30 -31
leaf_value=0.0058353093807289201 4.9817912201044546e-05 -0.00657093817058306 -0.0013149547109516297 0.0068771041528036267 -0.00015072117907701148 -0.0014987686633302533 0.00031261727009192789 -0.0055914446516465008 0.00015442935373056489 -0.0022498784622366204 0.0001673088419827812 -0.0017118509363506001 0.00090336758388679164 -0.0012057000678218773 0.00022855299409974485 0.0010520268016850796 9.2957049099273365e-05 -0.00039781150119590165 0.00032863826856191828 -0.00034204589652632325 0.00055223806414247077 -0.00064552514383692586 -0.0020692610506064003 -0.00091760798295127774 -0.0022698240319205406 -0.00099760374461061048 -0.0007713931154071413 -0.00015424163592239455 0.00066114750404527238 -0.00036530688407879084
leaf_weight=1055 93398 1429 93308 4859 238405 77081 63720 1060 245371 12730 144722 712 292096 35672 830318 74336 333840 2148 541168 742495 649817 56782 21331 83722 86435 75773 182958 139987 64920 172272
leaf_count=1055 93398 1429 93308 4859 238405 77081 63720 1060 245371 12730 144722 712 292096 35672 830318 74336 333840 2148 541168 742495 649817 56782 21331 83722 86435 75773 182958 139987 64920 172272
internal_value=-6.56322e-07 0.000165001 -0.00093133 0.000313431 0.000303858 -0.00134399 0.000359662 -0.000181197 0.00025994 -0.00034059 -0.000128758 0.00577749 0.000579005 -0.00028807 0.000302835 0.00042532 0.000158309 -0.0028679 0.000339382 -0.000258949 0.00044321 -0.000939509 -0.00103493 -0.000386683 -0.00190642 -0.00106118 -0.00095502 0.000173316 0.000185488 -0.000545977
internal_weight=5.36392e+06 4.55342e+06 810505 3.18703e+06 3.18146e+06 461113 2.90738e+06 1.36639e+06 1.99872e+06 133232 1.28955e+06 5571 908655 274077 1.86549e+06 616559 402337 3577 542223 887217 895188 69512 297597 349392 163516 76833 276266 970305 398760 255994
internal_count=5363920 4553415 810505 3187028 3181457 461113 2907380 1366387 1998725 133232 1289554 5571 908655 274077 1865493 616559 402337 3577 542223 887217 895188 69512 297597 349392 163516 76833 276266 970305 398760 255994
is_linear=0
shrinkage=0.02


Tree=8
num_leaves=31
num_cat=0
split_feature=5 23 5 13 28 10 16 10 17 41 48 10 10 5 10 48 2 0 10 2 48 30 17 28 38 2 23 48 48 48
split_gain=1986.05 434.514 316.261 303.025 332.835 223.513 175.125 138.11 136.151 135.063 142.261 120.182 114.297 107.125 104.218 103.095 72.5114 70.7758 102.435 67.0655 63.4343 55.6774 53.114 51.3872 47.8183 46.1468 41.7431 43.5732 41.4219 40.9682
threshold=0.052432324737310416 0.027546246536076072 0.11803841963410379 0.14638915657997134 0.017130637541413311 2218658.5000000005 40.635396957397468 4654890.0000000009 4.6017370223999032 22.123028755187992 -0.09614927694201468 1.0000000180025095e-35 12991775.000000002 0.021195185370743278 6634592.0000000009 0.029715972021222118 -0.13251945376396176 0.09888815134763719 466778.50000000006 0.13188708573579791 -0.099121417850255952 0.021520918235182766 36.282857894897468 0.025297676213085655 1.0000000180025095e-35 0.18722348660230639 0.019939425401389602 -0.022874849848449227 0.13240570574998858 0.13240570574998858
decision_type=2 2 2 2 2 2 2 2 2 2 2 2 2 2 2 2 2 2 2 2 2 2 2 2 2 2 2 2 2 2
left_child=1 3 7 4 9 -5 20 -2 -6 15 11 -11 28 22 -4 17 -13 -1 -19 -9 -3 -14 -12 -10 -24 -16 27 -26 -8 -17
right_child=2 6 14 5 8 -7 12 19 23 10 13 16 21 -15 25 29 -18 18 -20 -21 -22 -23 24 -25 26 -27 -28 -29 -30 -31
leaf_value=0.00034398233226800689 -0.00025345185670767721 0.00080497627805874356 -0.001039553168262557 0.0066107516677288069 -0.0059584189156929937 -0.0005823354837784689 -0.00015754208860888387 -0.00074556506792812949 -0.00040490510021934492 -0.0030464614770006294 0.00017662356577191241 0.0003390657768484399 -0.00051966446358114209 -8.1422998399692151e-05 -0.0016830900153077168 0.00073262795645800559 -0.00085516920701677343 0.0080822614418198935 -0.00018165283046950857 -0.0013358716044918493 0.00011169995947375994 -0.0018445060017929823 0.0044051495964357685 -0.001406547496192222 0.0001792676695060196 -0.0024440486482651216 0.00024221666390504624 0.00058444013474661435 0.00068259216480575995 0.0016613811458315705
leaf_weight=662283 161203 68094 66855 5183 1884 2588 665300 203977 139766 7157 687297 35472 344444 325886 74098 306712 47635 1152 1246 123803 235144 13180 1192 24021 134472 56179 417266 505830 24328 20273
leaf_count=662283 161203 68094 66855 5183 1884 2588 665300 203977 139766 7157 687297 35472 344444 325886 74098 306712 47635 1152 1246 123803 235144 13180 1192 24021 134472 56179 417266 505830 24328 20273
internal_value=-6.43388e-07 0.000146743 -0.00100551 0.000269547 0.000260308 0.00421416 -0.000155813 -0.000732831 -0.000613454 0.00030621 0.000217565 -0.000559638 -0.000278371 0.000251429 -0.00168182 0.000499478 -0.000345324 0.000356421 0.00378588 -0.000968559 0.000267415 -0.000568524 0.000313559 -0.000551875 0.000402441 -0.00201133 0.000397916 0.000499365 -0.000127889 0.000790246
internal_weight=5.36392e+06 4.6778e+06 686115 3.32732e+06 3.31954e+06 7771 1.35049e+06 488983 165671 3.15387e+06 2.16221e+06 90264 1.04725e+06 2.07194e+06 197132 991666 83107 664681 2398 327780 303238 357624 1.74606e+06 163787 1.05876e+06 130277 1.05757e+06 640302 689628 326985
internal_count=5363920 4677805 686115 3327315 3319544 7771 1350490 488983 165671 3153873 2162207 90264 1047252 2071943 197132 991666 83107 664681 2398 327780 303238 357624 1746057 163787 1058760 130277 1057568 640302 689628 326985
is_linear=0
shrinkage=0.02


Tree=9
num_leaves=31
num_cat=0
split_feature=5 45 0 4 4 28 5 41 30 48 49 4 48 28 45 13 24 25 48 13 49 33 4 48 3 14 48 0 31 48
split_gain=1911.31 528.571 479.756 446.545 365.71 251.095 191.863 142.158 136.416 116.961 171.24 102.994 93.812 91.6221 89.0441 88.2591 80.8286 78.7038 72.4141 71.8768 65.1598 62.4684 55.7108 52.0754 51.9259 45.4664 45.1925 43.604 41.7364 40.7777
threshold=0.044478209689259536 0.023631975986063484 0.09888815134763719 165241832.00000003 13470293.000000002 0.014917984604835512 0.11142543703317644 22.039640426635746 0.018094083294272426 -0.085736569017171846 0.0080699794925749319 48340440.000000007 0.029715972021222118 0.021985429339110855 0.014570175204426052 -0.094993345439434038 0.01921104080975056 1.0000000180025095e-35 -0.022874849848449227 -0.024268323555588719 0.077040996402502074 4.2264930444346765e-10 383003008.00000006 -0.11558105796575545 1.0000000180025095e-35 -0.017377079464495179 -0.1016542539000511 0.0032720329472795133 1.0000000180025095e-35 0.13240570574998858
decision_type=2 2 2 2 2 2 2 2 2 2 2 2 2 2 2 2 2 2 2 2 2 2 2 2 2 2 2 2 2 2
left_child=1 2 5 20 -4 7 21 12 11 10 -9 15 16 -7 18 17 -1 -3 -11 -13 23 27 -8 -2 26 -20 -12 -5 -10 -14
right_child=3 8 4 6 -6 13 22 9 28 14 24 19 29 -15 -16 -17 -18 -19 25 -21 -22 -23 -24 -25 -26 -27 -28 -29 -30 -31
leaf_value=0.00032015014802598248 0.0012943908844504914 -0.0064493321691980118 0.0072898915991573259 -0.00067638197952501686 0.00054874034318826224 -0.00015481022624335282 -0.0014416067383803497 0.00033419163644218076 -0.0052666404375568366 0.00014828825780591437 -0.0035496421908113359 7.2797642411895978e-05 0.00080758096049164121 -0.0012516269458581445 0.00015949081495203067 0.0001722841122335302 0.0010311006708660139 -0.00044210358070338794 0.00024372443915851409 -0.00036261209807767343 -0.00084399128500580053 -0.002031926255951574 -0.0021852947577100284 -0.00026328795701350231 -0.00083114054998929918 0.00062069165163354772 -0.0005139505038290772 -0.0011687227885621393 -0.00099959820447030894 0.0018015396427332239
leaf_weight=479983 8850 1512 6895 150792 6044 241382 75728 78169 930 270933 5646 199715 242575 34870 1010950 370343 73822 2070 167238 629706 85453 21401 86435 283647 57205 546584 3019 137911 66376 17736
leaf_count=479983 8850 1512 6895 150792 6044 241382 75728 78169 930 270933 5646 199715 242575 34870 1010950 370343 73822 2070 167238 629706 85453 21401 86435 283647 57205 546584 3019 137911 66376 17736
internal_value=-6.30587e-07 0.00016322 0.000298694 -0.000870504 0.00414206 0.000283294 -0.00128055 0.000337221 -0.000182539 0.000251631 -0.000298732 -0.000133519 0.000562167 -0.000293297 0.000291358 0.000142036 0.000414939 -0.0029817 0.000426722 -0.000257758 -0.000358107 -0.000988961 -0.00183807 -0.000216119 -0.00104998 0.000532388 -0.0024933 -0.000911607 -0.00105878 0.000875348
internal_weight=5.36392e+06 4.5137e+06 3.24305e+06 850217 12939 3.23011e+06 472267 2.95386e+06 1.27065e+06 2.13974e+06 144039 1.20335e+06 814116 276252 1.9957e+06 373925 553805 3582 984755 829421 377950 310104 162163 292497 65870 713822 8665 288703 67306 260311
internal_count=5363920 4513703 3243051 850217 12939 3230112 472267 2953860 1270652 2139744 144039 1203346 814116 276252 1995705 373925 553805 3582 984755 829421 377950 310104 162163 292497 65870 713822 8665 288703 67306 260311
is_linear=0
shrinkage=0.02


Tree=10
num_leaves=31
num_cat=0
split_feature=4 42 4 49 0 4 38 23 33 18 32 24 0 33 4 16 3 49 45 49 23 33 4 28 23 23 43 2 4 3
split_gain=1548.78 645.296 433.116 336.349 453.354 337.332 237.903 209.121 161.005 155.811 112.595 98.6268 96.7586 80.4996 79.6903 77.1161 70.5129 61.4752 57.0959 55.8739 55.8662 54.1146 53.3298 50.1767 49.4035 48.7531 46.1479 45.8564 42.8526 95.493
threshold=113747052.00000001 22.767501831054691 362145024.00000006 0.047526618465781219 0.09888815134763719 10488832.500000002 1.0000000180025095e-35 0.029820619150996212 4.7725365326378732e-10 -0.060023184865713113 4.3746621603002472e-10 0.023973559029400352 -0.046138025820255273 2.342322308335199e-10 212233648.00000003 47.403421401977546 1.0000000180025095e-35 0.0064006722532212743 0.020833861082792286 0.10069234296679498 0.039493296295404441 2.3173638008522348e-10 12373231.000000002 0.016574119217693809 1.0000000180025095e-35 0.026392621919512752 0.0081909382715821284 0.019603515043854717 3248785.0000000005 1.0000000180025095e-35
decision_type=2 2 2 2 2 2 2 2 2 2 2 2 2 2 2 2 2 2 2 2 2 2 2 2 2 2 2 2 2 2
left_child=3 2 8 4 6 -6 12 21 14 10 18 23 22 -4 26 -9 19 -11 28 -5 -17 -3 -1 -12 -19 -18 -2 -21 29 -8
right_child=1 7 13 16 5 -7 9 15 -10 17 11 -13 -14 -15 -16 20 25 24 -20 27 -22 -23 -24 -25 -26 -27 -28 -29 -30 -31
leaf_value=-0.0072058753450604971 -0.00076393043716558619 0.00011124956644877603 -0.0014069968278814207 -0.00046223221692846936 0.0072084857058787848 0.00074787833789304048 0.00086928419696840394 -8.4577707221230797e-05 -0.0016319597056346548 0.00062575742036002913 0.00034431379587429432 0.00095546509541310565 0.00047868414171725431 -0.0023499973022727211 -0.00091026883629335617 -0.00051637833746560804 4.6924799751267747e-05 -0.00060192882556738632 -7.4751345917296709e-05 -0.003432315321757866 -0.0011521583197538188 -0.00048526246250499354 -0.0022153580658668746 -0.00059393060642945602 0.00035995903498182167 -0.00035252736159458939 -0.00028660824383302142 -0.0010354221116940577 0.00018623522059618865 0.0075543027686174307
leaf_weight=2595 111387 643306 71969 20547 6641 6306 12534 102481 63712 696940 627446 110919 1461 73063 192391 158194 235049 23008 483368 5947 85070 67181 1290 23651 296535 254512 297670 6930 680715 917
leaf_count=2595 111387 643306 71969 20547 6641 6306 12534 102481 63712 696940 627446 110919 1461 73063 192391 158194 235049 23008 483368 5947 85070 67181 1290 23651 296535 254512 297670 6930 680715 917
internal_value=-1.96565e-06 -0.000467182 -0.000891794 0.000246305 0.000328551 0.00406284 0.000312221 -0.000141469 -0.000675841 0.000319848 0.000214722 0.000404153 -0.0039025 -0.00188214 -0.000574539 -0.000544884 -0.000221427 0.000520428 9.21265e-05 -0.00111024 -0.000738757 5.48309e-05 -0.00555236 0.000310216 0.000290667 -0.000160721 -0.00041661 -0.00214334 0.000208343 0.0013263
internal_weight=5.36374e+06 1.86642e+06 810192 3.49731e+06 2.97433e+06 12947 2.96138e+06 1.05623e+06 665160 2.95603e+06 1.93955e+06 762016 5346 145032 601448 345745 522985 1.01648e+06 1.17753e+06 33424 243264 710487 3885 651097 319543 489561 409057 12877 694166 13451
internal_count=5363735 1866424 810192 3497311 2974326 12947 2961379 1056232 665160 2956033 1939550 762016 5346 145032 601448 345745 522985 1016483 1177534 33424 243264 710487 3885 651097 319543 489561 409057 12877 694166 13451
is_linear=0
shrinkage=0.02


Tree=11
num_leaves=31
num_cat=0
split_feature=5 49 13 29 28 5 3 0 3 38 17 17 5 13 3 49 3 49 43 0 24 28 22 13 28 49 16 43 29 33
split_gain=1831.73 492.652 348.876 296.864 311.43 258.094 140.533 135.101 168.783 127.334 126.686 114.045 111.965 100.532 96.0116 71.3381 68.8181 66.5938 64.4242 54.4321 52.7008 52.5628 54.8545 65.3374 50.415 50.1143 47.5801 39.1894 35.3495 35.1242
threshold=0.054845614358782775 0.060934187844395644 0.14638915657997134 98073840.000000015 0.016574119217693809 0.14342317730188373 5240727.0000000009 0.09888815134763719 192449.00000000003 1.0000000180025095e-35 4.6017370223999032 53.896923065185554 0.013936405070126058 -1.0000000180025095e-35 2606567.0000000005 0.12809066474437716 8362809.0000000009 0.0064006722532212743 0.0086862198077142256 -0.046138025820255273 0.025351902469992641 0.025297676213085655 0.029902990907430652 1.0000000180025095e-35 0.021985429339110855 0.10069234296679498 37.206100463867195 0.0064251648727804431 176434992.00000003 1.7892118342466293e-10
decision_type=2 2 2 2 2 2 2 2 2 2 2 2 2 2 2 2 2 2 2 2 2 2 2 2 2 2 2 2 2 2
left_child=1 2 3 4 7 6 -2 9 -9 19 -6 20 -5 -3 -4 27 -7 -13 -14 -1 -11 22 23 25 -12 -15 -20 -8 -28 -17
right_child=5 13 14 12 10 16 15 8 -10 11 24 17 18 21 -16 29 -18 -19 26 -21 -22 -23 -24 -25 -26 -27 28 -29 -30 -31
leaf_value=-0.0058818525585202716 -0.00034073965071820182 -1.6456429256379204e-05 0.0062744904254569567 0.00018072128624104411 -0.0055794696126574631 -0.0012180750260685023 -0.0013240985902548807 0.0074966040433452385 0.00068688532669950982 0.00026551127475095784 -0.00029896586911707333 0.00070135992318927701 -0.00050454417822280901 -0.00052520096901789617 -0.00088787268392092906 -0.0009929416654202018 -0.0021310771955880331 0.00032854069896225336 0.00033284524597797748 0.00078853075350666371 0.00081453799177149875 -0.0016908792818717843 -0.0007373204693786235 -0.00021493936166674273 -0.0012130927887912491 -0.002499821904276524 4.2734580515631728e-05 -0.0006852898398144394 -0.00031026481222116753 -0.0017333311236137252
leaf_weight=1846 178822 262582 4825 592746 2001 54948 49670 2399 3711 1534140 104240 570250 190698 12016 883 41195 83050 288845 93512 662 73295 14417 183020 275662 31423 9007 196037 170321 269283 68229
leaf_count=1846 178822 262582 4825 592746 2001 54948 49670 2399 3711 1534140 104240 570250 190698 12016 883 41195 83050 288845 93512 662 73295 14417 183020 275662 31423 9007 196037 170321 269283 68229
internal_value=-1.92659e-06 0.000134865 0.000224201 0.000217067 0.00034126 -0.00100052 -0.000792211 0.000392758 0.00336305 0.000385402 -0.00058457 0.000389986 -2.46748e-05 -0.000332727 0.00516479 -0.00103726 -0.00176762 0.000576023 -0.00018712 -0.00411757 0.000290552 -0.000500776 -0.000464984 -0.000296949 -0.000510782 -0.00137175 -7.87827e-05 -0.000829572 -0.000161527 -0.0014547
internal_weight=5.36374e+06 4.7175e+06 3.9608e+06 3.95509e+06 2.61281e+06 646235 508237 2.47515e+06 6110 2.46904e+06 137664 2.46653e+06 1.34228e+06 756704 5708 329415 137998 859095 749530 2508 1.60744e+06 494122 479705 296685 135663 21023 558832 219991 465320 109424
internal_count=5363735 4717500 3960796 3955088 2612812 646235 508237 2475148 6110 2469038 137664 2466530 1342276 756704 5708 329415 137998 859095 749530 2508 1607435 494122 479705 296685 135663 21023 558832 219991 465320 109424
is_linear=0
shrinkage=0.02


Tree=12
num_leaves=31
num_cat=0
split_feature=4 42 4 13 45 23 33 28 0 4 4 41 0 47 17 24 33 16 4 17 25 4 33 23 42 24 42 45 33 4
split_gain=1437.19 612.29 390.962 355.305 285.686 192.549 153.02 150.246 225.787 101.771 95.19 94.623 92.6113 80.1136 76.5278 76.2425 76.0399 72.4549 68.128 66.9221 72.3377 57.6698 51.5485 51.1586 42.6304 37.2378 36.7655 35.4587 33.3014 31.2358
threshold=117009892.00000001 22.767501831054691 362145024.00000006 0.14638915657997134 0.025166094303131107 0.029820619150996212 4.6221640404020553e-10 0.016574119217693809 0.09888815134763719 5194458.0000000009 3248785.0000000005 21.746409416198734 -0.095511168241500841 -0.027867329306900498 4.6017370223999032 0.027557156048715118 2.1303703245934005e-10 48.667093276977546 212233648.00000003 47.949687957763679 4.706545591354371 44697986.000000007 2.3173638008522348e-10 0.039493296295404441 21.434308052062992 0.019485183991491798 22.032302856445316 0.036744298413395889 7.1049274796841654e-10 35042962.000000007
decision_type=2 2 2 2 2 2 2 2 2 2 2 2 2 2 2 2 2 2 2 2 2 2 2 2 2 2 2 2 2 2
left_child=3 2 6 4 7 22 18 8 11 -5 -10 25 13 -6 -9 21 -4 -7 24 -13 -21 -14 -3 -19 -2 -1 -20 -17 -23 -15
right_child=1 5 16 9 12 17 -8 14 10 -11 -12 19 15 29 -16 27 -18 23 26 20 -22 28 -24 -25 -26 -27 -28 -29 -30 -31
leaf_value=0.00051549338285631545 -0.00086898468657574076 0.00010630401189493296 -0.0013232817726093447 0.0073243369093074339 -5.9113103218755776e-05 -0.00011650410731826215 -0.0015857148151917294 -0.0065027609550616572 0.007812414214128093 0.0025322304968589111 0.0013710810358099729 0.00018073360547925889 5.0927486170553342e-05 -0.0067069830527697908 -0.00039247928863981159 0.00085392960398334491 -0.0022423588374215924 -0.00051218289556813573 -0.001210679041137039 0.00054309073821922173 0.00017165500823682268 -0.00026706737180252606 -0.00048251021795083881 -0.0011380140917487021 -0.00031174973960643095 0.0010421286811334992 -0.00064425689683992205 9.0328364143808822e-05 -0.00088157393510332612 -0.0028554900355744679
leaf_weight=497005 66501 632299 67081 3211 2865 114500 65142 826 2272 3980 1547 1192177 270686 1544 98796 42893 77951 148392 76535 579464 328842 354495 65643 80731 316112 60265 114631 56267 39194 1888
leaf_count=497005 66501 632299 67081 3211 2865 114500 65142 826 2272 3980 1547 1192177 270686 1544 98796 42893 77951 148392 76535 579464 328842 354495 65643 80731 316112 60265 114631 56267 39194 1888
internal_value=-1.8884e-06 -0.000457667 -0.000879865 0.000233265 0.000224216 -0.000139882 -0.000667043 0.000319206 0.000347751 0.00467416 0.00520682 0.000340763 -0.000116476 -0.00253187 -0.000443307 -9.65392e-05 -0.00181734 -0.000527432 -0.000562725 0.000279286 0.000408628 -0.00017376 5.09098e-05 -0.000732741 -0.000408629 0.000572465 -0.000871086 0.000420741 -0.000328273 -0.00459257
internal_weight=5.36374e+06 1.82552e+06 783953 3.53822e+06 3.53103e+06 1.04156e+06 638921 2.76119e+06 2.66157e+06 7191 3819 2.65775e+06 769832 6297 99622 763535 145032 343623 573779 2.10048e+06 908306 664375 697942 229123 382613 557270 191166 99160 393689 3432
internal_count=5363735 1825518 783953 3538217 3531026 1041565 638921 2761194 2661572 7191 3819 2657753 769832 6297 99622 763535 145032 343623 573779 2100483 908306 664375 697942 229123 382613 557270 191166 99160 393689 3432
is_linear=0
shrinkage=0.02


Tree=13
num_leaves=31
num_cat=0
split_feature=5 49 13 28 5 41 5 48 17 10 17 5 22 38 10 18 10 10 13 13 49 28 43 47 48 36 49 48 14 30
split_gain=1704.15 461.705 322.823 277.183 240.884 189.175 177.266 131.106 123.776 113.542 103.732 142.767 98.1587 91.2967 88.812 85.9665 84.5327 68.9739 58.6457 55.7789 53.1116 51.4823 48.7849 48.1689 49.6551 46.4932 43.7258 40.2098 39.0283 38.3415
threshold=0.054845614358782775 0.060934187844395644 0.14638915657997134 0.016574119217693809 0.11803841963410379 22.123028755187992 0.01998304016888142 -0.099121417850255952 4.6017370223999032 5812582.5000000009 46.170192718505866 0.00072627997724339377 0.027915492653846744 1.0000000180025095e-35 2606567.0000000005 -0.056536832824349396 6820017.0000000009 1.0000000180025095e-35 -0.00020144625159446147 -0.0047748684883117667 0.12809066474437716 0.021985429339110855 0.0086862198077142256 0.022674940526485447 -0.1016542539000511 -0.04866096377372741 -0.033732917159795754 -0.099121417850255952 0.1087363436818123 0.026046933606266979
decision_type=2 2 2 2 2 2 2 2 2 2 2 2 2 2 2 2 2 2 2 2 2 2 2 2 2 2 2 2 2 2
left_child=1 2 3 5 9 10 15 17 -5 -2 13 -12 18 25 -4 -7 -6 -3 -9 -14 -11 -10 -8 24 26 -1 -15 -24 -18 -20
right_child=4 7 14 8 16 6 22 12 21 20 11 -13 19 23 -16 -17 28 -19 29 -21 -22 -23 27 -25 -26 -27 -28 -29 -30 -31
leaf_value=0.0016585795717749176 -0.0003000446864858795 -0.0030887713274862835 0.0060364106995975265 -0.0052302659525874044 -0.00098069237838104245 0.00013944487213933223 -0.00046325075873418573 0.00039965619207641296 -0.00030058910552572778 -0.00076649812190144608 0.0069419344877347583 0.00064804694120139557 -0.0001350034894179795 0.0013375268993784046 -0.00085180920800531276 0.00041719121103180257 -0.0015703625588064213 -0.00099878062363261571 -0.00012435467181207415 -0.00066270144408668553 -0.0013565404302914507 -0.0010955105861086036 0.00079827320982082234 0.0010365407042087129 0.00022169549392026108 -0.005552003292885509 0.00017557019103270623 -8.9721612172007236e-05 -0.0022851885179472255 -0.0013669514608610272
leaf_weight=459 169204 7395 4825 2213 68626 1207782 150671 98856 149848 189788 1445 516456 121136 31306 883 706652 78200 43561 238429 236961 90063 41670 21413 34508 637907 1583 22136 429039 50354 10366
leaf_count=459 169204 7395 4825 2213 68626 1207782 150671 98856 149848 189788 1445 516456 121136 31306 883 706652 78200 43561 238429 236961 90063 41670 21413 34508 637907 1583 22136 429039 50354 10366
internal_value=-1.8508e-06 0.000130092 0.000216575 0.000209713 -0.000965041 0.000247713 0.000147892 -0.000322576 -0.000528017 -0.000709126 0.000449267 0.00066564 -0.000251819 0.000295302 0.00496912 0.000241971 -0.0015478 -0.00130234 -1.24039e-05 -0.000484222 -0.000956428 -0.000473603 -0.000151714 0.000307198 0.000270777 -0.0039263 0.000856437 -4.74854e-05 -0.00185045 -0.000176173
internal_weight=5.36374e+06 4.7175e+06 3.9608e+06 3.95509e+06 646235 3.76136e+06 2.51556e+06 756704 193731 449055 1.2458e+06 517901 705748 727899 5708 1.91443e+06 197180 50956 347651 358097 279851 191518 601123 725857 691349 2042 53442 450452 128554 248795
internal_count=5363735 4717500 3960796 3955088 646235 3761357 2515557 756704 193731 449055 1245800 517901 705748 727899 5708 1914434 197180 50956 347651 358097 279851 191518 601123 725857 691349 2042 53442 450452 128554 248795
is_linear=0
shrinkage=0.02


Tree=14
num_leaves=31
num_cat=0
split_feature=5 45 4 13 4 48 5 3 48 4 5 4 13 4 13 33 18 48 13 33 14 38 38 13 22 4 29 13 18 13
split_gain=1638.75 439.262 369.948 317.6 164.559 233.527 152.862 123.538 145.47 93.5629 84.7889 83.2174 77.0048 68.1722 64.6251 59.8521 55.3369 52.9747 49.4701 44.7652 41.8336 73.3627 41.3191 64.8535 40.8609 39.3492 38.1322 36.4353 36.2435 39.096
threshold=0.044478209689259536 0.025166094303131107 183242304.00000003 0.14638915657997134 68359232.000000015 1.0000000180025095e-35 0.11803841963410379 1.0000000180025095e-35 -0.1016542539000511 77888232.000000015 0.00072627997724339377 86407312.000000015 0.010395306162536146 57844562.000000007 -0.019603494554758068 2.6314095347146354e-10 -0.21889740973711011 0.13240570574998858 -0.072669543325901018 5.9794630358211986e-10 -0.015278932638466356 1.0000000180025095e-35 1.0000000180025095e-35 -0.0079023940488696081 1.0000000180025095e-35 3248785.0000000005 36532302.000000007 -0.027482436969876286 -0.051484087482094758 -0.01026780344545841
decision_type=2 2 2 2 2 2 2 2 2 2 2 2 2 2 2 2 2 2 2 2 2 2 2 2 2 2 2 2 2 2
left_child=1 3 13 4 5 7 15 8 -1 10 18 -5 28 -2 -11 27 25 20 -3 -15 24 -22 23 -18 -7 -9 -14 -4 29 -6
right_child=2 9 6 11 12 17 -8 16 -10 14 -12 -13 26 19 -16 -17 22 -19 -20 -21 21 -23 -24 -25 -26 -27 -28 -29 -30 -31
leaf_value=-0.0032301615627616373 8.4789702471209027e-05 -0.0074544934531719075 -0.00034601187909301758 0.0059661293278205178 0.00024016096703489544 -0.0067437006393015657 -0.0017524921737886864 -0.0052642440991504755 -0.00033489936859926851 -3.2764194675027611e-05 2.2482398836214169e-05 -0.0013331415332410929 -0.0010224483293178573 -0.00042963225913676434 -0.00049428745377583737 -0.0015942221078954219 -0.0028735720168527527 0.0013586803906295354 0.0017335986913512163 -0.0011509290312319779 0.0053801274326116281 0.00061829814794384401 0.00017676650034993157 0.0058228222048103432 0.0003400381480114774 0.0009893419005520519 -0.00010037454468457756 -0.00094961944246938553 0.00038756819681292666 -9.1952034029284629e-05
leaf_weight=7912 97690 945 50184 4862 335729 325 141452 405 56657 167912 472590 714 18730 274867 438185 48794 479 33523 309 39369 1296 739573 1009605 1192 258216 41021 426640 198276 250910 245373
leaf_count=7912 97690 945 50184 4862 335729 325 141452 405 56657 167912 472590 714 18730 274867 438185 48794 479 33523 309 39369 1296 739573 1009605 1192 258216 41021 426640 198276 250910 245373
internal_value=-1.81403e-06 0.000149954 -0.000807045 0.00026062 0.000252857 0.00035967 -0.00121121 0.000159249 -0.000689871 -0.000201845 8.67466e-06 0.0050296 7.30528e-05 -0.000376574 -0.000366445 -0.0009536 0.000211341 0.000576444 -0.0051829 -0.000520035 0.000550195 0.000626649 0.00018198 0.00332375 0.000331069 0.000927837 -0.000139177 -0.000827745 0.00018667 9.99076e-05
internal_weight=5.36374e+06 4.5131e+06 850632 3.43316e+06 3.42759e+06 2.1502e+06 438706 1.11727e+06 64569 1.07994e+06 473844 5576 1.27738e+06 411926 606097 297254 1.0527e+06 1.03293e+06 1254 314236 999410 740869 1.01128e+06 1671 258541 41426 445370 248460 832012 581102
internal_count=5363735 4513103 850632 3433162 3427586 2150204 438706 1117271 64569 1079941 473844 5576 1277382 411926 606097 297254 1052702 1032933 1254 314236 999410 740869 1011276 1671 258541 41426 445370 248460 832012 581102
is_linear=0
shrinkage=0.02


Tree=15
num_leaves=31
num_cat=0
split_feature=5 23 5 28 1 3 3 48 3 17 3 20 48 14 30 2 14 38 30 3 38 41 5 30 16 2 48 38 22 28
split_gain=1547.39 370.775 217.633 214.37 172.84 166.68 134.465 114.859 135.567 113.149 199.912 110.496 110.481 100.066 73.8927 67.0732 66.6014 132.658 66.4357 58.395 52.9029 50.9568 49.8181 45.9845 41.3806 40 94.2321 43.5311 39.7147 38.3787
threshold=0.057446194812655456 0.026392621919512752 0.15560782700777057 0.017790249548852447 0.32351171970367437 12782668.000000002 4908790.5000000009 -0.022874849848449227 1.0000000180025095e-35 4.6017370223999032 326129.00000000006 1.4061071276664736 -0.1016542539000511 -0.10194583237171172 0.0037076025037094955 0.13850211352109912 -0.01992943603545427 1.0000000180025095e-35 0.021520918235182766 11469888.500000002 1.0000000180025095e-35 21.471676826477054 0.015115750022232534 0.013255600817501547 39.353509902954109 -0.14010851085186002 -0.099121417850255952 1.0000000180025095e-35 0.036426484584808357 0.025297676213085655
decision_type=2 2 2 2 2 2 2 2 2 2 2 2 2 2 2 2 2 2 2 2 2 2 2 2 2 2 2 2 2 2
left_child=1 3 6 4 7 13 -2 8 12 -5 -11 16 -1 14 -3 -8 20 -18 24 -4 -9 -15 -13 -19 -7 27 -27 -10 -26 -12
right_child=2 5 19 9 -6 18 15 11 25 10 29 22 -14 21 -16 -17 17 23 -20 -21 -22 -23 -24 -25 28 26 -28 -29 -30 -31
leaf_value=-0.0031672748074897633 -0.00029657509559734882 -0.0028700157417343047 -0.0012802489190843857 -0.0054489466663064255 0.0051745590977357835 8.2543543328347129e-05 -0.00076863204760166176 -0.0059120945201805051 -0.0035499400892205065 0.0057173841591937084 -0.00039559949235300771 0.00028898206108140016 -0.00052788255293418815 0.00038896184944627212 0.00067920308077671341 -0.0013566464299802419 0.0053612580358079753 0.00058481091061116813 -0.001633759662488857 -0.0021699754471062446 0.00021836296004034959 -9.6268649772886762e-05 -5.432922834037928e-05 0.00018966616367024382 -0.00032632239106671936 -0.00068863809898122414 0.00015409003434422151 0.00049121084342099543 -0.00074595588315609542 -0.0012738743743945641
leaf_weight=7698 163288 2399 59620 1844 2885 66619 197373 563 1073 2061 107743 456047 36130 95845 103183 128026 2281 904767 17538 58603 302238 894023 268610 135530 298647 57418 700972 137518 129366 24432
leaf_count=7698 163288 2399 59620 1844 2885 66619 197373 563 1073 2061 107743 456047 36130 95845 103183 128026 2281 904767 17538 58603 302238 894023 268610 135530 298647 57418 700972 137518 129366 24432
internal_value=-2.78509e-07 0.000121044 -0.000951312 0.000247184 0.000282246 -0.000126096 -0.000764993 0.000277553 9.43043e-05 -0.000529259 -0.000461563 0.000360833 -0.000991758 1.31442e-05 0.000598438 -0.00100002 0.000468077 0.000543919 -0.000423927 -0.00172138 0.000206912 -4.92753e-05 0.000161713 0.000533341 -0.000381007 0.000147383 9.02728e-05 0.000459826 -0.000453181 -0.000558029
internal_weight=5.36434e+06 4.75743e+06 606910 3.14981e+06 3.01373e+06 1.60762e+06 488687 3.01084e+06 940809 136080 134236 2.07004e+06 43828 1.09545e+06 105582 325399 1.34538e+06 1.04258e+06 512170 118223 302801 989868 724657 1.0403e+06 494632 896981 758390 138591 428013 132175
internal_count=5364340 4757430 606910 3149810 3013730 1607620 488687 3010845 940809 136080 134236 2070036 43828 1095450 105582 325399 1345379 1042578 512170 118223 302801 989868 724657 1040297 494632 896981 758390 138591 428013 132175
is_linear=0
shrinkage=0.02


Tree=16
num_leaves=31
num_cat=0
split_feature=5 5 45 0 10 28 49 48 10 29 48 24 10 32 28 28 32 5 42 45 48 49 5 28 48 49 48 10 17 10
split_gain=1491.45 381.236 350.23 360.059 263.172 205.964 149.198 114.847 154.239 130.933 113.062 111.107 99.6144 96.7362 96.211 78.3917 64.4659 58.1161 56.9336 57.9373 56.6519 55.4489 51.7166 49.4725 47.5465 80.1179 47.1922 45.2429 42.2637 38.0742
threshold=0.037180125713348396 0.10097964107990266 0.024049532599747184 0.09888815134763719 646515.50000000012 0.014917984604835512 0.071187172085046782 -0.022874849848449227 1.0000000180025095e-35 76123900.000000015 -0.1016542539000511 0.02332180738449097 6634592.0000000009 2.4111260210624158e-10 0.017130637541413311 0.025297676213085655 3.9454850497833155e-10 0.00072627997724339377 20.335378646850589 0.013567632064223291 0.036140933632850654 0.0031643596012145285 0.1904803737998009 0.014498889911919834 -0.1120077036321163 -0.0021721536759287115 -0.022229454480111595 9632237.0000000019 4.6017370223999032 271413.50000000006
decision_type=2 2 2 2 2 2 2 2 2 2 2 2 2 2 2 2 2 2 2 2 2 2 2 2 2 2 2 2 2 2
left_child=2 6 3 5 -5 7 13 8 10 20 -1 24 -3 -2 16 -7 17 -4 -11 -20 -9 -18 -14 -15 25 -10 -19 -8 -16 -21
right_child=1 12 14 4 -6 15 27 9 11 18 -12 -13 22 23 28 -17 21 26 19 29 -22 -23 -24 -25 -26 -27 -28 -29 -30 -31
leaf_value=-0.0032119545239303426 -0.00048473528749522161 -0.00081086559176531028 -0.0062086045180634528 0.0061870698103750022 0.0004898228080233043 -0.00018737440153735602 -0.00048426700430814431 0.00040854870375198383 0.00040233360488048402 0.0079079482506434016 -0.00055631711975929002 0.00092814617161680814 -0.0013774667846979938 0.00016588805963901524 -0.0045619222103322225 -0.0016853545044671382 0.00039653394886295898 3.6449274517209687e-05 0.00044906672989905323 0.0013730128754285537 0.00068853672567062245 -0.0001497081760160721 -0.0021196723898745341 -0.00083880607478632253 0.00016105774035677552 -0.0010641603970828607 -0.00030612792554680169 -0.0010408330309630766 -0.00080913073743815972 4.4873014118267891e-05
leaf_weight=7821 325803 91198 642 7095 5981 258556 88740 691034 26556 381 35685 73958 109078 191565 1223 14774 164938 240424 229211 8782 497344 135282 57417 21837 811061 33932 485662 171487 65902 510971
leaf_count=7821 325803 91198 642 7095 5981 258556 88740 691034 26556 381 35685 73958 109078 191565 1223 14774 164938 240424 229211 8782 497344 135282 57417 21837 811061 33932 485662 171487 65902 510971
internal_value=-2.73211e-07 -0.000673423 0.000164937 0.000270174 0.00358213 0.000256637 -0.000457765 0.000305672 0.000130292 0.000395181 -0.00103401 0.000183877 -0.00134241 -0.000267927 -0.000144123 -0.000268385 -9.61614e-05 -0.000198016 0.000188125 0.000184174 0.000525734 0.000150359 -0.00163349 6.30294e-05 0.000120707 -0.000420165 -0.000192679 -0.000851079 -0.000877722 6.73358e-05
internal_weight=5.36434e+06 1.05712e+06 4.30722e+06 3.21314e+06 13076 3.20007e+06 799432 2.92674e+06 989013 1.93772e+06 43506 945507 257693 539205 1.09407e+06 273330 1.02695e+06 726728 749345 748964 1.18838e+06 300220 166495 213402 871549 60488 726086 260227 67125 519753
internal_count=5364340 1057125 4307215 3213142 13076 3200066 799432 2926736 989013 1937723 43506 945507 257693 539205 1094073 273330 1026948 726728 749345 748964 1188378 300220 166495 213402 871549 60488 726086 260227 67125 519753
is_linear=0
shrinkage=0.02


Tree=17
num_leaves=31
num_cat=0
split_feature=45 49 2 28 29 25 25 3 48 48 25 25 24 29 3 3 45 14 22 28 43 48 3 29 3 3 28 42 1 28
split_gain=1171.6 285.019 272.785 177.23 184.342 273.507 165.112 157.315 155.484 121.101 99.2029 92.5824 91.7369 86.1356 77.0829 155.826 83.8557 75.4632 67.2529 66.2291 60.901 59.3844 59.0584 58.7989 52.0335 47.4207 43.357 41.0474 40.8022 40.7729
threshold=0.028457641601562503 0.047526618465781219 0.11496859416365625 0.014769205357879402 75243944.000000015 1.0000000180025095e-35 33.478635787963874 192449.00000000003 -0.099121417850255952 0.0093831410631537455 13.271770477294924 1.0000000180025095e-35 0.023973559029400352 36025542.000000007 192449.00000000003 1.0000000180025095e-35 0.016592398285865787 -0.09922421351075171 0.040566211566329009 0.021985429339110855 0.011056954041123392 -0.076215896755456911 1.0000000180025095e-35 165554296.00000003 714135.50000000012 2647157.5000000005 0.015915798954665664 21.396385192871097 -1.0000000180025095e-35 0.013820832595229151
decision_type=2 2 2 2 2 2 2 2 2 2 2 2 2 2 2 2 2 2 2 2 2 2 2 2 2 2 2 2 2 2
left_child=1 3 11 4 9 24 18 13 22 12 28 25 -1 -5 15 -7 -16 21 -4 -9 27 -13 -3 26 -6 -2 -19 -18 -10 -12
right_child=2 8 6 7 5 14 -8 19 10 -11 29 17 -14 -15 16 -17 20 23 -20 -21 -22 -23 -24 -25 -26 -27 -28 -29 -30 -31
leaf_value=0.00021173342037423052 -0.0054466420289060995 -0.0029528040934511226 -0.00056859125411241125 -0.0051309713342576795 0.0060775850793871157 0.00081933426427720723 -0.0017819032380582164 -0.0001663397990072937 0.00026298517233132112 0.00058367816141035222 -0.00048753672120026834 0.00075635809958818747 0.0010068335547367237 0.006275475781458071 0.00026831823132049344 0.0076695655700210839 -0.00086486583670580418 -0.00016493910577099612 -0.0011685551043570362 -0.0010963744414972758 8.6143889979420677e-05 -0.00015869115698150123 -0.0010135458190660078 -0.00059991551070317064 -9.2234037195945486e-05 -0.0015573373955334814 -0.00096274173848782691 -0.00018730992436066004 -0.00013059126872753016 -0.001447306960999198
leaf_weight=960056 1915 7465 229962 301 3627 11598 78383 255191 145625 843021 75789 41375 61788 2113 489955 1500 40760 349221 110811 34812 451934 90211 39895 306425 640 3665 29561 292575 381038 23128
leaf_count=960056 1915 7465 229962 301 3627 11598 78383 255191 145625 843021 75789 41375 61788 2113 489955 1500 40760 349221 110811 34812 451934 90211 39895 306425 640 3665 29561 292575 381038 23128
internal_value=-2.67846e-07 0.000161928 -0.000538887 0.000235373 0.000278999 9.54334e-05 -0.000954147 -0.000235655 -0.000214581 0.000406228 -0.000130915 -0.000327219 0.000259822 0.00484754 7.86805e-05 0.00160512 6.29931e-05 -0.000309664 -0.000763717 -0.000278019 -6.51034e-05 0.000128958 -0.00131948 -0.000393911 0.00515004 -0.00289464 -0.00022723 -0.000270193 -2.17461e-05 -0.000712056
internal_weight=5.36434e+06 4.12281e+06 1.24153e+06 3.44987e+06 3.15745e+06 1.29259e+06 419156 292417 672940 1.86486e+06 625580 822373 1.02184e+06 2414 1.28832e+06 13098 1.27522e+06 816793 340773 290003 785269 131586 47360 685207 4267 5580 378782 333335 526663 98917
internal_count=5364340 4122811 1241529 3449871 3157454 1292589 419156 292417 672940 1864865 625580 822373 1021844 2414 1288322 13098 1275224 816793 340773 290003 785269 131586 47360 685207 4267 5580 378782 333335 526663 98917
is_linear=0
shrinkage=0.02


Tree=18
num_leaves=31
num_cat=0
split_feature=5 4 13 4 30 48 5 3 48 33 23 23 24 28 13 4 4 23 48 48 4 13 25 43 33 13 30 25 47 23
split_gain=1398.42 454.054 312.728 254.799 170.74 165.196 163.631 114.382 148.518 104.017 95.4644 91.8925 90.2905 67.6018 61.3694 61.2934 59.7944 58.5458 51.2383 49.374 46.8515 94.9738 69.6465 44.7656 40.4418 39.6219 38.6896 38.4806 35.6233 35.2633
threshold=0.057446194812655456 85271320.000000015 0.14638915657997134 255989240.00000003 0.023920549079775814 0.0017273815465159716 0.021195185370743278 1.0000000180025095e-35 -0.1016542539000511 1.8930378792303418e-10 0.025092322379350666 1.0000000180025095e-35 0.024923312477767471 0.016115968115627769 -0.025341590866446492 96214104.000000015 4395102.0000000009 0.023652492091059688 -0.09614927694201468 0.13240570574998858 27799130.000000004 -0.078223053365945802 1.0000000180025095e-35 0.011056954041123392 4.9368137355898522e-10 -0.017781711183488366 0.0037076025037094955 45.348001480102546 0.035474542528390891 0.025578940287232402
decision_type=2 2 2 2 2 2 2 2 2 2 2 2 2 2 2 2 2 2 2 2 2 2 2 2 2 2 2 2 2 2
left_child=1 2 5 15 6 7 17 8 -1 -5 20 -9 13 29 -8 -2 -4 18 -3 -12 21 -7 -23 -16 -17 -19 -14 -11 -10 -13
right_child=3 4 16 9 -6 10 14 11 28 27 19 12 26 -15 23 24 -18 25 -20 -21 -22 22 -24 -25 -26 -27 -28 -29 -30 -31
leaf_value=-0.003072242703136583 -0.00019142389032409098 -0.0008755883756520513 0.0067884070996175189 -0.00096575083548908452 -0.0014103033029011919 -0.0055203465514749028 2.9557396056925559e-05 -0.0055121855279822154 -0.00026129947096150373 -0.0015612242346332889 9.5101819774114039e-05 0.00020449275671116255 -0.0022393809765358266 -0.00060204874435979417 -0.0006319575300945306 -0.00063201949496848595 0.002875737973307234 0.00019531066181719271 0.00023467463675548868 0.001074914431173442 0.00039290748421773227 0.0049173848319882859 0.00066557653200130182 -0.00027823838741358248 -0.0013957791925368938 -0.00021803114253066879 0.00071708623128787462 -0.0023373270227412409 -0.0041932672081897281 -2.5594492972956845e-05
leaf_weight=8959 125286 17161 2963 129863 41075 989 150217 1143 62038 100652 368403 933601 1794 51188 242357 184059 3337 127618 529664 21791 546528 1546 459585 349912 32687 339476 122409 34363 935 372741
leaf_count=8959 125286 17161 2963 129863 41075 989 150217 1143 62038 100652 368403 933601 1794 51188 242357 184059 3337 127618 529664 21791 546528 1546 459585 349912 32687 339476 122409 34363 935 372741
internal_value=-2.62793e-07 0.000115072 0.000267333 -0.00090436 -0.000135655 0.000257835 -0.00010584 0.000115954 -0.00066288 -0.00137005 0.000415527 0.000153741 0.000158122 0.00011089 -0.000331426 -0.000543683 0.00471831 5.93448e-05 0.000199811 0.000149849 0.000518294 0.000666561 0.000679864 -0.000422998 -0.000747253 -0.000105078 0.000674285 -0.00175884 -0.000319904 0.000138834
internal_weight=5.36434e+06 4.75743e+06 2.95995e+06 606910 1.79748e+06 2.95365e+06 1.7564e+06 1.55481e+06 71932 264878 1.39884e+06 1.48288e+06 1.48173e+06 1.35753e+06 742486 342032 6300 1.01392e+06 546825 390194 1.00865e+06 462120 461131 592269 216746 467094 124203 135015 62973 1.30634e+06
internal_count=5364340 4757430 2959950 606910 1797480 2953650 1756405 1554808 71932 264878 1398842 1482876 1481733 1357530 742486 342032 6300 1013919 546825 390194 1008648 462120 461131 592269 216746 467094 124203 135015 62973 1306342
is_linear=0
shrinkage=0.02


Tree=19
num_leaves=31
num_cat=0
split_feature=4 42 4 13 49 17 38 23 38 48 42 36 4 14 30 30 2 4 45 48 42 23 48 45 4 4 48 4 48 21
split_gain=1133.03 499.369 337.532 280.588 261.767 174.087 190.364 145.162 129.764 103.05 97.7179 91.1613 78.5599 70.9043 67.6271 66.9613 65.2148 63.6506 62.8648 62.5493 55.3065 49.5989 49.5554 48.7626 47.3471 46.7138 46.595 55.6994 45.8397 42.6194
threshold=117009892.00000001 22.810819625854496 371978048.00000006 0.14638915657997134 0.047526618465781219 46.500375747680671 1.0000000180025095e-35 0.034977996721863754 1.0000000180025095e-35 -0.099121417850255952 21.689777374267582 -0.04866096377372741 4395102.0000000009 -0.12443060427904128 0.0037076025037094955 0.018094083294272426 -0.010343030560761688 1.0000000180025095e-35 0.019619387574493889 -0.031572068110108369 21.945876121521 0.021833376027643684 -0.0091939261183142645 0.028814782388508323 189665040.00000003 3248785.0000000005 -0.013556754216551779 1.0000000180025095e-35 -0.12891340255737302 1.0000000180025095e-35
decision_type=2 2 2 2 2 2 2 2 2 2 2 2 2 2 2 2 2 2 2 2 2 2 2 2 2 2 2 2 2 2
left_child=3 2 10 4 5 6 11 21 25 17 -2 -1 -5 14 -8 18 29 -6 26 -9 -4 28 -23 -11 -12 -7 27 -10 -3 -15
right_child=1 7 20 12 9 8 13 19 15 23 24 -13 -14 16 -16 -17 -18 -19 -20 -21 -22 22 -24 -25 -26 -27 -28 -29 -30 -31
leaf_value=0.0005905034999408354 -0.0009771234212815384 -0.0022736841447817484 -0.0022371615963838287 0.0066526846770379715 -0.0027956054135165687 0.0067927853806576287 -0.0022249938025790377 9.5674520791182642e-06 -0.00095586809349839795 4.8217732193470265e-06 -0.00025745206765613967 -0.0055052114739871814 0.0024006913527499976 -0.0051590660081706806 0.0007729435061048168 -0.00042069949041253281 0.00033925884412964693 -0.00078701397933964761 0.000242596978317214 -0.00083007438060688865 -0.0013894810043358883 0.00014279585803343207 -0.00028286216650201464 -0.00043150866425140544 -0.00065610482421341119 0.0011402725284816362 0.0006479003440914504 0.00038690765914317339 0.00020434979923010109 5.6426506526153478e-05
leaf_weight=1358 183987 3010 44603 2963 7679 1745 3105 47730 13236 343124 267240 3509 4234 626 95664 34503 430803 35584 338229 138113 99909 170964 303715 146035 215259 887 644696 185079 351037 1245714
leaf_count=1358 183987 3010 44603 2963 7679 1745 3105 47730 13236 343124 267240 3509 4234 626 95664 34503 430803 35584 338229 138113 99909 170964 303715 146035 215259 887 644696 185079 351037 1245714
internal_value=-2.57813e-07 -0.000404948 -0.000774925 0.000208509 0.000200466 0.000273016 0.000146971 -0.000109195 0.000457236 -0.000208194 -0.000584908 -0.00380255 0.0041533 0.000157802 0.000678575 0.000447622 0.000127127 -0.00114382 0.000472993 -0.000614377 -0.0016512 4.08073e-06 -0.000129533 -0.000125422 -0.000435326 0.00489281 0.00056542 0.000297233 0.000183248 5.37948e-05
internal_weight=5.36434e+06 1.82557e+06 810998 3.53877e+06 3.53158e+06 2.99915e+06 1.78078e+06 1.01457e+06 1.21838e+06 532422 666486 4867 7197 1.77591e+06 98769 1.21574e+06 1.67714e+06 43263 1.18124e+06 185843 144512 828726 474679 489159 482499 2632 843011 198315 354047 1.24634e+06
internal_count=5364340 1825567 810998 3538773 3531576 2999154 1780779 1014569 1218375 532422 666486 4867 7197 1775912 98769 1215743 1677143 43263 1181240 185843 144512 828726 474679 489159 482499 2632 843011 198315 354047 1246340
is_linear=0
shrinkage=0.02


Tree=20
num_leaves=31
num_cat=0
split_feature=5 45 0 4 4 4 49 48 4 48 17 13 32 38 19 13 48 4 4 47 25 5 2 43 0 3 0 45 48 25
split_gain=1311.48 489.054 321.489 259.41 196.414 138.582 134.666 174.897 120.771 147.234 94.7035 83.953 72.8296 69.5738 57.9997 56.3296 50.5016 45.9862 45.8866 45.5848 41.7502 40.8568 37.5276 36.2217 34.6616 32.5264 32.3478 31.9635 31.5745 31.3631
threshold=0.063519310206174864 0.023631975986063484 0.09888815134763719 14893882.500000002 255989240.00000003 64076406.000000007 0.060934187844395644 -0.099121417850255952 89779640.000000015 0.0017273815465159716 4.6017370223999032 -0.0088437562808394415 1.9423777863902816e-10 0.067983500659465804 0.02744772378355265 -1.0000000180025095e-35 0.13240570574998858 30856609.000000004 122283276.00000001 -0.013057004194706677 28.614860534667972 0.0097679099999368208 -0.16111877560615537 0.0088905808515846747 -0.095511168241500841 1.0000000180025095e-35 -0.095511168241500841 0.019402345642447475 -0.048896258696913712 1.0000000180025095e-35
decision_type=2 2 2 2 2 2 2 2 2 2 2 2 2 2 2 2 2 2 2 2 2 2 2 2 2 2 2 2 2 2
left_child=1 2 6 -4 18 10 8 25 9 14 13 19 23 -3 24 -9 17 -11 -2 -7 -13 -10 29 -6 -1 27 -21 -8 -28 -12
right_child=4 5 3 -5 12 11 7 15 21 16 22 20 -14 -15 -16 -17 -18 -19 -20 26 -22 -23 -24 -25 -26 -27 28 -29 -30 -31
leaf_value=-0.0027775932038340534 -0.0003373339675070416 -0.005987589499932471 0.0059902685076747711 0.00045012340254118997 -0.0015556207571920696 0.000275143053419484 -0.0021965868143226899 0.00042465965010125736 0.00023965805737857478 0.0006195456820859951 -0.0032763216835542779 -0.00044872758191507461 -0.0018762634691464586 -0.00080953305327554248 0.00058961130259838177 -0.00018313495644603253 0.0012183091270940524 0.0003530476427880237 -0.00084330187449118191 -0.0020562179218856281 -0.0011432348431340787 -5.1518577649706385e-05 1.4838668312799294e-05 -0.00091954593255167403 0.00013481522546594549 -0.001228244156181949 0.00027851621047015831 -0.0059397203338596976 -0.00030202696115973616 0.00053693399863299093
leaf_weight=1636 140045 1733 6992 6553 53677 92665 6044 85262 310173 507772 871 547105 77613 2600 123652 214272 38838 529228 147106 3850 36985 509100 448175 108118 979901 24404 44479 1080 237410 75878
leaf_count=1636 140045 1733 6992 6553 53677 92665 6044 85262 310173 507772 871 547105 77613 2600 123652 214272 38838 529228 147106 3850 36985 509100 448175 108118 979901 24404 44479 1080 237410 75878
internal_value=-1.47408e-06 0.000101717 0.000236023 0.00331094 -0.000949341 -0.000199427 0.000223517 -0.000159268 0.000265758 0.000343529 6.05136e-05 -0.000342374 -0.00137241 -0.00288373 0.000181386 -1.00927e-05 0.000510085 0.00048355 -0.000596576 -0.000110274 -0.000492723 5.87075e-05 8.48414e-05 -0.00113064 0.000129948 -0.00157615 -0.0002353 -0.0027662 -0.000210387 0.000493486
internal_weight=5.36322e+06 4.83666e+06 3.34491e+06 13545 526559 1.49175e+06 3.33136e+06 331062 3.0003e+06 2.18103e+06 529257 962494 239408 4333 1.10519e+06 299534 1.07584e+06 1.037e+06 287151 378404 584090 819273 524924 161795 981537 31528 285739 7124 281889 76749
internal_count=5363217 4836658 3344907 13545 526559 1491751 3331362 331062 3000300 2181027 529257 962494 239408 4333 1105189 299534 1075838 1037000 287151 378404 584090 819273 524924 161795 981537 31528 285739 7124 281889 76749
is_linear=0
shrinkage=0.02


Tree=21
num_leaves=31
num_cat=0
split_feature=5 4 45 38 3 5 30 48 3 4 24 30 48 45 43 5 16 17 4 49 48 30 4 17 4 30 1 49 48 33
split_gain=1266.52 360.471 292.935 202.06 171.167 162.73 160.139 109.181 133.232 104.577 96.4424 94.7373 89.207 69.7465 64.6478 62.6511 66.633 57.1789 52.9347 52.553 49.9497 48.1563 45.661 43.2077 46.2053 40.4978 40.4924 37.7871 91.3799 34.0667
threshold=0.037180125713348396 149676632.00000003 0.023108754307031635 1.0000000180025095e-35 192449.00000000003 0.11142543703317644 0.014924143906682731 -0.022874849848449227 1.0000000180025095e-35 56409472.000000007 0.023484161123633388 0.023920549079775814 -0.1016542539000511 0.012459169141948225 0.011056954041123392 0.00072627997724339377 40.635396957397468 34.172786712646491 41837956.000000007 0.077040996402502074 -0.10415260493755339 0.022535617463290695 450506448.00000006 6.6023635864257821 225510360.00000003 0.0037076025037094955 -0.067745607346296297 -0.013649156317114828 -0.09614927694201468 4.4692601008922144e-10
decision_type=2 2 2 2 2 2 2 2 2 2 2 2 2 2 2 2 2 2 2 2 2 2 2 2 2 2 2 2 2 2
left_child=2 19 3 4 -1 14 7 8 12 17 27 15 -5 -11 -3 26 25 -9 -18 20 -2 -8 -7 -6 -25 -17 -4 -10 -29 -16
right_child=1 5 11 6 23 22 21 9 10 13 -12 -13 -14 -15 29 16 18 -19 -20 -21 -22 -23 -24 24 -26 -27 -28 28 -30 -31
leaf_value=0.0055031516508833953 0.0010088246472629706 -0.001038262913017098 -0.0068002757594501865 -0.0029288280754046526 -0.0055741360407306016 -0.0011899970830601167 -0.00012409538891996669 0.00028867247925123084 0.00024296294408208426 0.00050156811463365693 0.0009167272506061142 -0.0013761339331509756 -0.00054845115369577381 8.3044418095180127e-05 -0.00047838292088286867 -0.0017509942364497466 0.0001002115752761297 0.00060271836058541431 -0.00025187303163413661 -0.00062610619201635494 -0.00014727985132748607 -0.00095300348939683437 -0.0018538064584271827 0.0021682454537717503 -0.0024250798051594952 0.00022528554633611923 0.001650321693807429 -0.00071630229142116328 0.00010076077055149101 -0.0015258073598041252
leaf_weight=5406 15602 171363 894 7670 447 97504 236422 336608 423526 222406 63666 23302 35283 561372 236252 4212 226920 746625 690306 94896 355555 31814 72315 3276 1193 263053 301 64660 357248 13120
leaf_count=5406 15602 171363 894 7670 447 97504 236422 336608 423526 222406 63666 23302 35283 561372 236252 4212 226920 746625 690306 94896 355555 31814 72315 3276 1193 263053 301 64660 357248 13120
internal_value=-1.44483e-06 -0.000621936 0.000150788 0.000253838 0.00304738 -0.000950108 0.000244494 0.000288927 0.000114613 0.00037781 0.00016605 -0.000113235 -0.0009738 0.000201819 -0.000739134 -8.84062e-05 -8.37779e-05 0.00050514 -0.000164757 -0.000206073 -9.86522e-05 -0.000222448 -0.00147274 0.000344231 0.000939551 0.000194096 -0.00466375 0.000109507 -2.44369e-05 -0.000533536
internal_weight=5.36322e+06 1.05661e+06 4.30661e+06 3.09762e+06 10322 590554 3.0873e+06 2.81906e+06 952053 1.86701e+06 909100 1.20899e+06 42953 783778 420735 1.18569e+06 1.18449e+06 1.08323e+06 917226 466053 371157 268236 169819 4916 4469 267265 1195 845434 421908 249372
internal_count=5363217 1056607 4306610 3097622 10322 590554 3087300 2819064 952053 1867011 909100 1208988 42953 783778 420735 1185686 1184491 1083233 917226 466053 371157 268236 169819 4916 4469 267265 1195 845434 421908 249372
is_linear=0
shrinkage=0.02


Tree=22
num_leaves=31
num_cat=0
split_feature=5 4 0 4 4 30 48 23 4 0 48 33 2 48 29 5 48 30 4 43 14 48 23 28 17 25 33 33 14 47
split_gain=1216.61 392.293 307.147 255.009 208.431 173.653 155.619 146.411 106.162 148.115 122.316 94.9544 82.4359 77.1543 67.9828 57.4607 55.6038 53.6638 53.0554 45.7129 44.0793 43.8111 42.625 41.0149 42.0099 40.8476 38.5633 37.5533 34.7359 34.6889
threshold=0.057446194812655456 65745662.000000007 0.09888815134763719 13470293.000000002 255989240.00000003 0.018914781510829929 0.0017273815465159716 0.029557941481471065 3248785.0000000005 -0.046138025820255273 -0.1016542539000511 1.7507250510417907e-10 -0.17316922545433042 -0.024149546399712559 79948320.000000015 0.01408920018002391 0.13240570574998858 0.026046933606266979 88580096.000000015 0.011056954041123392 -0.16257400810718534 -0.085736569017171846 0.023860644549131397 0.015548351220786573 60.618080139160163 1.0000000180025095e-35 5.9794630358211986e-10 3.1016822443774577e-10 -0.10194583237171172 0.035474542528390891
decision_type=2 2 2 2 2 2 2 2 2 2 2 2 2 2 2 2 2 2 2 2 2 2 2 2 2 2 2 2 2 2
left_child=1 2 6 -4 18 7 8 15 9 -1 -11 -6 25 28 16 21 20 -7 -2 -17 -8 -3 -22 24 -14 -10 -20 -13 -9 -12
right_child=4 5 3 -5 11 17 14 13 12 10 29 27 23 -15 -16 19 -18 -19 26 -21 22 -23 -24 -25 -26 -27 -28 -29 -30 -31
leaf_value=-0.0067584507365909506 -0.00015795604133738567 -0.00043399638160781769 0.005708598330879445 0.00048229080933664438 -0.00085788350298162438 -0.00058452215768047705 -0.0024767274759289635 0.00053511597185117534 -0.0028697186301959898 -0.0025621690870694597 -0.00012875458052702147 -0.001426669191260603 7.0589935736852693e-05 -0.00043463583021330696 -1.8793041006249748e-05 -0.00024924721709491309 0.001228846083928384 -0.0015590479668962096 -0.00060296536481043328 8.4757854098598882e-05 0.00053103089034001064 0.0002374742814221006 0.00023983923185025326 -0.00047124813456568868 0.00038284039483881059 0.00069778610653416814 -0.0014514090768379382 -0.0021719583926975549 -0.00010212600231905206 -0.004006968809490934
leaf_weight=1524 110536 41291 7574 7375 122585 94934 2056 42390 1296 9800 70627 105841 917361 460729 124493 291673 37768 29695 207328 374109 752617 659531 274590 47395 212257 117151 23922 36437 177398 934
leaf_count=1524 110536 41291 7574 7375 122585 94934 2056 42390 1296 9800 70627 105841 917361 460729 124493 291673 37768 29695 207328 374109 752617 659531 274590 47395 212257 117151 23922 36437 177398 934
internal_value=-1.41614e-06 0.000106158 0.000272645 0.0031311 -0.000844889 -9.19906e-05 0.000256012 -4.78582e-05 0.000111299 -0.000582591 -0.000466705 -0.00126604 0.000155703 -0.00028755 0.000423406 7.14919e-05 0.000475008 -0.000816811 -0.000518493 -6.15518e-05 0.000447336 0.000197898 0.0004532 0.000105081 0.000129271 0.000658644 -0.000690783 -0.00161762 2.07338e-05 -0.000179567
internal_weight=5.36322e+06 4.75657e+06 2.58482e+06 14949 606649 2.17175e+06 2.56987e+06 2.04712e+06 1.37834e+06 82885 81361 264863 1.29546e+06 680517 1.19152e+06 1.3666e+06 1.06703e+06 124629 341786 665782 1.02926e+06 700822 1.02721e+06 1.17701e+06 1.12962e+06 118447 231250 142278 219788 71561
internal_count=5363217 4756568 2584818 14949 606649 2171750 2569869 2047121 1378345 82885 81361 264863 1295460 680517 1191524 1366604 1067031 124629 341786 665782 1029263 700822 1027207 1177013 1129618 118447 231250 142278 219788 71561
is_linear=0
shrinkage=0.02


Tree=23
num_leaves=31
num_cat=0
split_feature=4 33 13 49 22 4 17 25 48 25 48 42 4 33 14 4 2 4 30 42 22 4 22 0 4 28 4 30 48 33
split_gain=971.62 423.871 240.475 234.096 226.16 181.819 175.531 173.3 110.117 109.317 82.0034 78.7574 77.5511 74.1499 70.7711 67.458 60.7598 59.5441 59.2344 58.6289 58.4785 56.1976 51.4772 46.3671 46.3127 41.5155 40.6788 35.3555 35.3134 35.1529
threshold=113747052.00000001 2.5779268997272458e-10 0.14638915657997134 0.022481867112219337 0.03174941614270211 261959224.00000003 43.181306838989265 1.0000000180025095e-35 -0.099121417850255952 1.0000000180025095e-35 -0.02913599461317062 22.58211708068848 12373231.000000002 4.9368137355898522e-10 -0.12443060427904128 4395102.0000000009 -0.0074478483293205491 3248785.0000000005 0.0037076025037094955 23.221817016601566 0.044736346229910857 36032810.000000007 0.026538022793829445 0.09888815134763719 550430048.00000012 0.016115968115627769 3248785.0000000005 0.029870677739381794 -0.099121417850255952 4.3730240262274128e-10
decision_type=2 2 2 2 2 2 2 2 2 2 2 2 2 2 2 2 2 2 2 2 2 2 2 2 2 2 2 2 2 2
left_child=2 4 3 6 19 13 7 12 17 26 -6 24 -1 -3 18 -4 27 -5 -9 -2 -12 23 -10 -11 29 -23 -8 -16 -20 -7
right_child=1 5 15 8 10 11 9 14 22 21 20 -13 -14 -15 16 -17 -18 -19 28 -21 -22 25 -24 -25 -26 -27 -28 -29 -30 -31
leaf_value=-0.0059214822877804649 -0.00020533519489859977 -0.00044858018516569253 0.0061649077693604068 -0.002489558728072497 -0.0001192066244602682 -0.0012747009840595883 0.0063215941562500605 -0.0020840563990260122 9.0672802706675843e-05 0.00059106994486513671 -0.00059798600299396055 -0.00086401510494835577 -0.00092317957310953324 -0.0012717494762193521 5.3549308755633363e-05 0.0022180002003470279 0.00037625700932793763 -0.00067526591470276002 0.0012264889763898552 0.00011646999157957359 -0.0012752957531606175 0.00036281471826556382 -0.00024465939262349631 0.0045745793197251566 -0.0024540058291535362 -0.00032757840287467088 0.00091062150528654169 -0.0046120760135209332 0.00043700207677432298 -0.0023064222823056522
leaf_weight=2652 381641 264758 2969 8412 118774 64164 1743 3010 465369 564982 250051 70391 2345 52466 1141575 4189 287352 52011 38819 556901 64102 525066 301892 1171 26363 37300 823 649 54596 16681
leaf_count=2652 381641 264758 2969 8412 118774 64164 1743 3010 465369 564982 250051 70391 2345 52466 1141575 4189 287352 52011 38819 556901 64102 525066 301892 1171 26363 37300 823 649 54596 16681
internal_value=-1.38819e-06 -0.000369874 0.000195268 0.000187753 -0.000188818 -0.000871673 0.000279092 0.000139492 -0.000106008 0.000468041 -0.000566969 -0.00138409 -0.00357853 -0.00058476 0.000151676 0.00385713 0.000116294 -0.000928052 0.000676127 -1.43756e-05 -0.000736225 0.000458653 -4.12565e-05 0.000599335 -0.00172546 0.000317005 0.00459104 5.08856e-05 0.000765193 -0.00148773
internal_weight=5.36322e+06 1.86629e+06 3.49692e+06 3.48977e+06 1.37147e+06 494823 2.66208e+06 1.531e+06 827684 1.13108e+06 432927 177599 4997 317224 1.526e+06 7158 1.42958e+06 60423 96425 938542 314153 1.12852e+06 767261 566153 107208 562366 2566 1.14222e+06 93415 80845
internal_count=5363217 1866292 3496925 3489767 1371469 494823 2662083 1530998 827684 1131085 432927 177599 4997 317224 1526001 7158 1429576 60423 96425 938542 314153 1128519 767261 566153 107208 562366 2566 1142224 93415 80845
is_linear=0
shrinkage=0.02


Tree=24
num_leaves=31
num_cat=0
split_feature=5 5 45 0 28 3 3 48 3 28 24 29 48 3 28 16 38 2 48 48 17 45 36 29 48 2 28 0 5 41
split_gain=1143.03 303.963 267.275 340.182 140.506 132.544 120.283 109.371 111.991 98.3926 89.2574 87.1102 77.6912 68.3857 64.1104 56.5374 95.2361 54.138 52.89 50.1222 46.8166 44.4587 44.4581 42.3364 39.8157 60.4718 35.6614 35.5059 33.8371 33.4142
threshold=0.037180125713348396 0.11142543703317644 0.022101605311036113 0.09888815134763719 0.018576041795313362 1087430.5000000002 6820017.0000000009 -0.022874849848449227 1.0000000180025095e-35 0.017429999075829986 0.023484161123633388 88044736.000000015 -0.1016542539000511 7398192.0000000009 0.018576041795313362 40.213296890258796 1.0000000180025095e-35 0.12901788949966433 -0.10415260493755339 0.036140933632850654 4.6017370223999032 0.013198357075452806 -0.04866096377372741 65288138.000000007 -0.1120077036321163 -0.12562792748212812 0.029008283279836181 -0.0038551514735445376 0.218050591647625 22.41287994384766
decision_type=2 2 2 2 2 2 2 2 2 2 2 2 2 2 2 2 2 2 2 2 2 2 2 2 2 2 2 2 2 2
left_child=2 6 3 4 7 -5 18 8 12 15 24 19 -1 -3 17 16 22 -8 -2 -9 -11 -13 -4 -17 25 -10 -6 -25 -15 -21
right_child=1 13 9 5 26 -7 14 11 10 20 -12 21 -14 28 -16 23 -18 -19 -20 29 -22 -23 -24 27 -26 -27 -28 -29 -30 -31
leaf_value=-0.0027752271126937011 0.0011072598449146348 -0.00080247373517430972 0.0019170138424714732 0.0053051074702104703 -0.00046586843519857686 0.0006590015468379588 -0.00041186130367406421 0.00033403491865280235 0.00020184892552029969 -0.00440407653482844 0.00087611320141878744 0.00039280429880022476 -0.00052454139922752366 -0.0013217834652377383 -0.0016152905207229215 8.1149597105149157e-05 0.00023708782662563193 -0.00086627660654885099 -0.00018227332920598216 0.00070883919164544719 -0.0007201240218679811 2.4501495502977446e-05 -0.0050038215479441261 -3.3898190410566166e-05 0.00011630410595801324 -0.0010730725329217378 -0.0021156548650810235 -0.00032478005962881072 -0.0020073456930344877 0.00038702789967683847
leaf_weight=7454 13223 82472 453 7353 76566 3696 307501 775675 30495 1406 60135 195393 34764 93509 24573 294358 277194 159276 334294 334020 74901 398633 1999 285285 793466 29044 5630 408058 41759 210632
leaf_count=7454 13223 82472 453 7353 76566 3696 307501 775675 30495 1406 60135 195393 34764 93509 24573 294358 277194 159276 334294 334020 74901 398633 1999 285285 793466 29044 5630 408058 41759 210632
internal_value=-1.36059e-06 -0.000590825 0.000143259 0.000249362 0.000236247 0.00375204 -0.000417981 0.000259602 8.48085e-05 -9.07048e-05 0.000131379 0.000346827 -0.000922215 -0.00125667 -0.000619395 -4.87007e-05 0.000202335 -0.000566942 -0.000133175 0.000437324 -0.000788191 0.000145665 -0.00372088 -0.000119786 7.88642e-05 -0.000419916 -0.000579016 -0.000205108 -0.00153351 0.000584405
internal_weight=5.36322e+06 1.05661e+06 4.30661e+06 2.96296e+06 2.95191e+06 11049 838867 2.86971e+06 955358 1.34365e+06 913140 1.91435e+06 42218 217740 491350 1.26735e+06 279646 466777 347517 1.32033e+06 76307 594026 2452 987701 853005 59539 82196 693343 135268 544652
internal_count=5363217 1056607 4306610 2962956 2951907 11049 838867 2869711 955358 1343654 913140 1914353 42218 217740 491350 1267347 279646 466777 347517 1320327 76307 594026 2452 987701 853005 59539 82196 693343 135268 544652
is_linear=0
shrinkage=0.02


Tree=25
num_leaves=31
num_cat=0
split_feature=5 4 49 4 17 38 38 5 48 49 43 33 36 21 14 20 2 5 43 4 48 29 44 49 14 29 43 2 4 21
split_gain=1100.3 311.728 233.015 165.84 158.772 338.871 187.251 128.973 113.757 66 62.8351 59.7773 58.3933 51.561 48.7401 48.4362 47.6845 46.6845 49.4568 46.5878 45.6944 44.6403 37.528 37.0692 32.5414 30.2675 29.2207 29.2174 27.8779 26.7176
threshold=0.037180125713348396 189665040.00000003 0.060934187844395644 68359232.000000015 43.181306838989265 1.0000000180025095e-35 1.0000000180025095e-35 0.12572114169597629 -0.1016542539000511 0.0080699794925749319 0.0084764566272497194 2.3881530086811159e-10 -0.04866096377372741 0.025579344481229786 -0.09922421351075171 1.3357500433921816 -0.016032158397138115 0.010751324705779554 0.011056954041123392 3248785.0000000005 -0.13704700767993924 1.0000000180025095e-35 0.010919922497123482 0.077040996402502074 0.086528092622756972 47591944.000000007 0.012726783286780121 0.18722348660230639 56409472.000000007 1.0000000180025095e-35
decision_type=2 2 2 2 2 2 2 2 2 2 2 2 2 2 2 2 2 2 2 2 2 2 2 2 2 2 2 2 2 2
left_child=2 10 3 4 6 19 12 11 15 -7 28 26 -1 -10 -8 -4 29 25 -19 -6 -12 22 -11 -22 -13 -5 -3 -9 -2 -16
right_child=1 7 8 17 5 9 14 27 13 21 20 24 -14 -15 16 -17 -18 18 -20 -21 23 -23 -24 -25 -26 -27 -28 -29 -30 -31
leaf_value=0.00037356741921264853 -0.00013024929050634904 -0.00081665866869729442 -0.0019556456992038916 -0.00059858451276486484 0.0060975612911739223 0.00056343515885643933 0.00055381595754695821 -0.0012227334044855058 7.2708802286110236e-05 -0.00044843443383455031 0.0013662596691326673 -0.00084022397033690042 -0.0053145308111973624 -0.0003052553157120439 -0.004509461626304969 -0.0006030957871438244 0.00033460467065471282 -0.00024539990857074098 6.3978206675251203e-05 0.0028322955246423086 -4.8367751689631533e-05 0.00026920575025361413 -0.0034027682236882984 -0.00053907824056727012 -0.0015120900788532755 0.00020807867407208796 -0.00038358883236680588 -0.0018349141134462058 -0.00072618261458559457 5.1585886275614911e-05
leaf_weight=922 41855 113985 19162 19307 4362 727255 120532 70796 255765 14999 8149 68205 3271 331376 513 23744 327456 346012 513206 2946 306410 276886 1944 77083 50113 507637 137805 56008 126227 811493
leaf_count=922 41855 113985 19162 19307 4362 727255 120532 70796 255765 14999 8149 68205 3271 331376 513 23744 327456 346012 513206 2946 306410 276886 1944 77083 50113 507637 137805 56008 126227 811493
internal_value=2.90677e-07 -0.000578067 0.000142123 0.000202991 0.000307408 0.000491949 0.00015728 -0.000942663 -0.000213261 0.000461221 -0.000254368 -0.000754004 -0.0040616 -0.000140593 0.00017133 -0.00120741 0.000130862 3.02877e-05 -6.05986e-05 0.0047832 -0.000115513 0.000208198 -0.000788179 -0.000147029 -0.00112488 0.000178503 -0.000579681 -0.00149322 -0.000577847 4.86865e-05
internal_weight=5.36542e+06 1.05664e+06 4.30879e+06 3.67874e+06 2.29258e+06 1.02839e+06 1.26419e+06 496912 630047 1.02108e+06 559724 370108 4193 587141 1.25999e+06 42906 1.13946e+06 1.38616e+06 859218 7308 391642 293829 16943 383493 118318 526944 251790 126804 168082 812006
internal_count=5365424 1056636 4308788 3678741 2292579 1028392 1264187 496912 630047 1021084 559724 370108 4193 587141 1259994 42906 1139462 1386162 859218 7308 391642 293829 16943 383493 118318 526944 251790 126804 168082 812006
is_linear=0
shrinkage=0.02


Tree=26
num_leaves=31
num_cat=0
split_feature=5 4 49 13 30 17 5 48 4 0 25 17 4 14 13 4 4 33 4 20 23 33 22 49 30 13 23 33 23 30
split_gain=1057.42 279.37 236.442 199.892 176.691 137.768 116.008 112.854 111.126 122.99 84.3248 79.4735 74.3202 72.666 69.2943 68.6706 62.6446 59.5332 54.9263 50.687 49.746 48.1134 46.1825 45.9523 45.0964 42.3864 40.8092 37.5741 37.2787 35.9398
threshold=0.039855679497122772 204563440.00000003 0.047526618465781219 0.14638915657997134 0.016347412951290611 43.181306838989265 0.14342317730188373 -0.099121417850255952 107594000.00000001 0.09888815134763719 1.0000000180025095e-35 4.6017370223999032 3248785.0000000005 -0.09922421351075171 -0.00020144625159446147 12373231.000000002 64076406.000000007 2.8561875087262939e-10 59343900.000000007 1.3357500433921816 0.030760050751268867 6.0579380400938031e-10 0.028629091568291191 0.0080699794925749319 0.0037076025037094955 -0.027482436969876286 1.0000000180025095e-35 5.0460441380906228e-10 0.019939425401389602 0.023920549079775814
decision_type=2 2 2 2 2 2 2 2 2 2 2 2 2 2 2 2 2 2 2 2 2 2 2 2 2 2 2 2 2 2
left_child=2 16 3 4 5 10 17 19 9 23 15 -6 -11 24 -9 -1 -2 25 -5 -4 27 -18 -16 -7 -12 -3 -25 -15 -10 -13
right_child=1 6 7 18 11 8 -8 14 28 12 13 29 -14 20 22 -17 21 -19 -20 -21 -22 -23 -24 26 -26 -27 -28 -29 -30 -31
leaf_value=-0.0054162496221420069 6.1625031363267879e-05 -0.00021196884359682707 -0.0017038903476419059 0.0048048190985696985 -0.0044674953199640224 0.00053161752008631718 -0.0015689704347573987 0.00015040215390943964 0.00034140287740110417 0.0063396508401435524 -0.0017325042370589534 -0.00025419991653419195 0.00069909113461998117 6.4940747307108907e-05 -0.00010683602804826956 4.5678948962654136e-05 -0.00034467601295577662 -0.0014739150225569972 -0.00084136184848900681 -0.00050090143416585387 -0.00020032820227763016 -0.0010721817944388356 -0.00051232221296400326 -0.00082315061647069245 0.00051214568729988409 -0.00080963923448516622 0.00029191518332882381 0.00030967631353001493 -7.3954460883751685e-05 -0.0010936409187857277
leaf_weight=1997 148610 59278 25276 4763 1903 847509 99434 262179 134105 2283 3641 162103 1589 1119722 312401 1701 340871 44693 802 31505 224324 40724 175529 13792 204745 239145 270910 323473 243066 23351
leaf_count=1997 148610 59278 25276 4763 1903 847509 99434 262179 134105 2283 3641 162103 1589 1119722 312401 1701 340871 44693 802 31505 224324 40724 175529 13792 204745 239145 270910 323473 243066 23351
internal_value=2.84518e-07 -0.000596357 0.000132413 0.00020202 0.000196129 0.000229148 -0.000967353 -0.000176904 0.000371187 0.00046994 0.000114788 -0.000401753 0.00402823 0.000120741 -0.000111812 -0.00290184 -0.000286675 -0.000792973 0.00398932 -0.00103661 7.67303e-05 -0.000422345 -0.000252728 0.000457759 0.00047287 -0.000690954 0.00023786 0.000119802 7.37019e-05 -0.000359955
internal_weight=5.36542e+06 972755 4.39267e+06 3.58578e+06 3.58021e+06 3.39286e+06 442550 806890 1.51325e+06 1.13608e+06 1.8796e+06 187357 3872 1.8759e+06 750109 3698 530205 343116 5565 56781 1.66752e+06 381595 487930 1.13221e+06 208386 298423 284702 1.4432e+06 377171 185454
internal_count=5365424 972755 4392669 3585779 3580214 3392857 442550 806890 1513254 1136083 1879603 187357 3872 1875905 750109 3698 530205 343116 5565 56781 1667519 381595 487930 1132211 208386 298423 284702 1443195 377171 185454
is_linear=0
shrinkage=0.02


Tree=27
num_leaves=31
num_cat=0
split_feature=5 4 13 4 5 48 43 48 29 2 43 32 32 0 48 13 43 47 23 14 4 4 4 48 42 48 38 0 0 38
split_gain=1017.5 339.882 229.095 160.067 141.068 129.692 94.5525 114.044 79.101 73.2677 63.8672 63.6491 60.7707 56.7041 54.8384 50.1188 46.4139 43.2822 43.0001 49.5657 40.8324 37.629 36.7586 35.5038 34.0666 33.6264 33.4665 34.5108 31.5629 31.4873
threshold=0.061874121427536018 84183200.000000015 0.14638915657997134 261959224.00000003 0.01998304016888142 0.0017273815465159716 0.0068657824303954848 -0.1120077036321163 77155108.000000015 -0.19848248362541196 0.010805986355990173 2.2039953195829301e-10 2.343872734789088e-10 -0.095511168241500841 0.13240570574998858 -0.021975885145366188 0.011691832449287178 0.024086941033601764 0.023954375647008423 -0.15146669745445249 3248785.0000000005 3248785.0000000005 230289496.00000003 -0.13704700767993924 21.866913795471195 0.15519206970930102 1.0000000180025095e-35 0.049605311825871475 0.0014101141714490952 1.0000000180025095e-35
decision_type=2 2 2 2 2 2 2 2 2 2 2 2 2 2 2 2 2 2 2 2 2 2 2 2 2 2 2 2 2 2
left_child=1 2 5 16 12 6 7 21 14 -8 -6 25 17 -9 18 -12 -2 28 19 -7 -4 -1 -14 -18 -24 -5 27 -21 -3 -11
right_child=3 4 20 11 10 8 9 13 -10 29 15 -13 22 -15 -16 -17 23 -19 -20 26 -22 -23 24 -25 -26 -27 -28 -29 -30 -31
leaf_value=-0.0030490954937333814 -0.00077348681629155788 0.00024133181136710299 0.0059218616495829322 -0.00094247727646141197 -0.00052980849193085596 -0.0037893669872290929 0.00079521903471883849 -0.0049864781271764325 3.2936145672152242e-05 0.0024923932755155126 0.00017202092831117673 -0.0017210008784323892 -0.00023385578667462232 -9.3537089635870635e-05 0.0011227164124730426 -0.00028229749595361741 0.0018187252129843305 -0.00061673292972234766 0.00019427463010026827 -0.0021779419430062209 0.0026616338594416312 -0.0010908413383356075 -0.0034653301315803143 -0.00032162070012351835 -0.00087633678888446884 -0.0023819648115823082 0.00047548024069569679 0.0048478779826516376 -2.5801273242017828e-06 0.00013523302311119946
leaf_weight=5972 144576 451272 2640 166183 322611 1087 72791 949 246929 2271 127833 68116 103363 358817 43674 404054 3160 32521 297325 354 3726 11532 2346 157577 15410 6765 807306 1292 400439 1102533
leaf_count=5972 144576 451272 2640 166183 322611 1087 72791 949 246929 2271 127833 68116 103363 358817 43674 404054 3160 32521 297325 354 3726 11532 2346 157577 15410 6765 807306 1292 400439 1102533
internal_value=2.78496e-07 9.30193e-05 0.000226178 -0.000817676 -0.000118843 0.000218003 9.23131e-05 -0.000183218 0.000357792 0.000180594 -0.000307778 -0.00120296 4.1732e-05 -0.000106485 0.000427473 -0.000173088 -0.000513438 9.92905e-05 0.000400043 0.000475558 0.00401595 -0.00175966 -0.00037839 -0.000279469 -0.00121914 -0.000998855 0.000481306 0.00333038 0.000126643 0.00014009
internal_weight=5.36542e+06 4.81905e+06 2.9592e+06 546377 1.85985e+06 2.95283e+06 1.55486e+06 377270 1.39797e+06 1.1776e+06 854498 241064 1.00535e+06 359766 1.15104e+06 531887 305313 884232 1.10736e+06 810039 6366 17504 121119 160737 17756 172948 808952 1646 851711 1.1048e+06
internal_count=5365424 4819047 2959198 546377 1859849 2952832 1554865 377270 1397967 1177595 854498 241064 1005351 359766 1151038 531887 305313 884232 1107364 810039 6366 17504 121119 160737 17756 172948 808952 1646 851711 1104804
is_linear=0
shrinkage=0.02


Tree=28
num_leaves=31
num_cat=0
split_feature=5 4 45 13 30 5 41 48 2 30 48 24 33 30 45 48 5 31 4 16 13 5 5 29 4 30 48 23 5 48
split_gain=981.01 280.526 240.904 185.9 163.54 127.799 105.652 79.6295 91.8589 71.2716 61.728 60.707 55.8888 55.8636 51.6544 51.4591 50.2796 50.2624 49.8056 49.0053 46.8604 39.816 39.2974 42.5857 38.178 34.0224 33.4229 32.5533 32.1363 31.0019
threshold=0.037180125713348396 147204944.00000003 0.024318120442330841 0.14638915657997134 0.014782427810132505 0.12572114169597629 22.039640426635746 -0.085736569017171846 -0.11532843112945555 0.023920549079775814 0.036140933632850654 0.020351109094917778 4.3231024315915084e-10 0.021520918235182766 0.014657595194876196 -0.12891340255737302 0.00072627997724339377 55.088582992553718 88580096.000000015 40.213296890258796 -0.027482436969876286 0.09205432236194612 0.00072627997724339377 76123900.000000015 40742488.000000007 0.0037076025037094955 -0.13704700767993924 0.040204830467700965 0.26233574748039251 0.13240570574998858
decision_type=2 2 2 2 2 2 2 2 2 2 2 2 2 2 2 2 2 2 2 2 2 2 2 2 2 2 2 2 2 2
left_child=2 21 3 4 6 12 10 8 -8 16 11 22 20 -6 17 -10 -4 -9 -5 25 -3 -2 23 -1 -21 -18 -7 -22 -28 -12
right_child=1 5 9 18 13 26 7 14 15 -11 29 -13 -14 -15 -16 -17 19 -19 -20 24 27 -23 -24 -25 -26 -27 28 -29 -30 -31
leaf_value=-0.00077178635978005286 -9.0985221413192045e-05 -0.00018438877376705166 -0.0044975367532197243 0.0045895791516356969 -0.00011602338479934413 0.0013932659242286731 0.00024492752091909441 0.00020667017093284811 -0.0018516273278584559 -0.0012838532293557373 0.00067046664923541596 0.00092549739794361226 -0.0014755453906979696 -0.00087395694583938355 0.00011732070547386163 -0.00050361434849568922 -0.0017433636266374313 0.00049978213010136549 -0.0012066539452808397 7.6441537651979817e-05 -0.00059366200524825204 -0.00059100361343322305 0.00026518098854522978 0.0063713238591811177 -0.0002451939369151029 0.00020150206954467565 -0.0012102329317261106 -0.0010387507419830563 -0.001903097723228944 0.001574483825037305
leaf_weight=540 382916 84323 1040 4858 251746 1747 72365 598891 13913 20895 205870 64325 31839 46017 1004826 61185 3658 384294 672 192622 248435 76432 520305 863 631249 212252 105428 89513 36003 16402
leaf_count=540 382916 84323 1040 4858 251746 1747 72365 598891 13913 20895 205870 64325 31839 46017 1004826 61185 3658 384294 672 192622 248435 76432 520305 863 631249 212252 105428 89513 36003 16402
internal_value=2.72678e-07 -0.000545834 0.000134196 0.00021971 0.000213456 -0.000831619 0.000258638 0.000184915 -0.000263476 -0.000127325 0.000453395 0.000345724 -0.000667303 -0.000233192 0.00021818 -0.000753508 -0.000104096 0.000321248 0.00388333 -9.9688e-05 -0.000606335 -0.000174207 0.000274219 0.0036163 -0.000169983 0.000168497 -0.00135269 -0.000711586 -0.00138669 0.000737228
